{
    "conv.conv.weight": [
        [
            [
                -0.005981416441500187,
                0.10061574727296829,
                0.07356776297092438,
                0.020746439695358276,
                0.08607914298772812,
                0.14360375702381134,
                0.16171224415302277,
                -0.15017834305763245,
                -0.02504648081958294,
                -0.030697232112288475,
                0.012618602253496647,
                -0.1199914887547493,
                -0.08838493376970291,
                0.15573981404304504,
                -0.03490772470831871,
                0.11236213892698288,
                0.1651579737663269,
                0.1330469846725464,
                -0.1515590399503708,
                -0.14406050741672516,
                0.03480595722794533,
                -0.12235677242279053,
                0.11614415049552917,
                -0.14263053238391876,
                0.15455274283885956,
                -0.01934303715825081,
                0.04028293490409851,
                0.14298591017723083,
                -0.026097243651747704,
                -0.09774252772331238,
                -0.09600995481014252
            ]
        ],
        [
            [
                0.13394658267498016,
                0.039795972406864166,
                0.04669225215911865,
                -0.036194443702697754,
                -0.04913164675235748,
                -0.048496440052986145,
                -0.05612959712743759,
                -0.009223099797964096,
                0.00433568749576807,
                0.017547914758324623,
                -0.015651604160666466,
                0.13980892300605774,
                -0.059910401701927185,
                0.16309240460395813,
                -0.1490853875875473,
                0.1570027768611908,
                -0.09300052374601364,
                -0.025371188297867775,
                -0.12414185702800751,
                0.18277817964553833,
                -0.13823096454143524,
                0.08750781416893005,
                0.05453648418188095,
                0.018926404416561127,
                0.12635822594165802,
                -0.06779125332832336,
                0.06642287224531174,
                0.008821562863886356,
                0.1267971247434616,
                -0.002379273995757103,
                0.105410635471344
            ]
        ],
        [
            [
                -0.13915015757083893,
                -0.020548831671476364,
                0.14780020713806152,
                -0.05563296750187874,
                0.007783981971442699,
                0.07109888643026352,
                -0.11873720586299896,
                0.12279344350099564,
                -0.019870441406965256,
                -0.07299475371837616,
                -0.03921752795577049,
                -0.10518454760313034,
                -0.14471901953220367,
                -0.074427530169487,
                0.0631200447678566,
                -0.013073567301034927,
                -0.02740490809082985,
                0.09966521710157394,
                0.06036435440182686,
                0.05626659095287323,
                -0.10975240170955658,
                -0.03592962771654129,
                0.1205560490489006,
                0.023646434769034386,
                -0.004758900031447411,
                0.08590535074472427,
                -0.13695329427719116,
                0.023247601464390755,
                0.04629634693264961,
                0.046556584537029266,
                0.13216465711593628
            ]
        ],
        [
            [
                0.009211545810103416,
                -0.06463215500116348,
                0.11419317871332169,
                0.14853020012378693,
                0.11241646111011505,
                0.08411303162574768,
                -0.20039162039756775,
                0.13600966334342957,
                -0.054527200758457184,
                0.09357399493455887,
                -0.0790381208062172,
                -0.04844103008508682,
                0.10918981581926346,
                0.09041646122932434,
                0.1429031491279602,
                -0.05675564706325531,
                -0.15612255036830902,
                -0.04136314615607262,
                0.05034349486231804,
                -0.15473546087741852,
                -0.07308435440063477,
                -0.08398967236280441,
                -0.13007351756095886,
                0.024986490607261658,
                0.10305269062519073,
                -0.02952263318002224,
                -0.15077964961528778,
                0.07729106396436691,
                -0.10119172185659409,
                0.15779142081737518,
                0.06678447872400284
            ]
        ],
        [
            [
                0.012147323228418827,
                -0.03894602879881859,
                -0.1341530978679657,
                -0.12300928682088852,
                -0.1190045177936554,
                -0.11928106099367142,
                0.05526167154312134,
                0.05313790589570999,
                -0.1335599720478058,
                -0.06800395995378494,
                -0.11535531282424927,
                0.01757354475557804,
                0.07751695066690445,
                -0.13409475982189178,
                -0.1629388928413391,
                0.05309074744582176,
                -0.15428988635540009,
                -0.11227347701787949,
                -0.09840600937604904,
                -0.14826726913452148,
                0.10600447654724121,
                -0.1278817504644394,
                -0.15263010561466217,
                0.1412358283996582,
                0.0003677840286400169,
                0.07826610654592514,
                0.04001510143280029,
                -0.1183469146490097,
                0.04364797845482826,
                0.10259395092725754,
                0.027828741818666458
            ]
        ],
        [
            [
                -0.016418946906924248,
                -0.06044246628880501,
                0.03033990040421486,
                0.054685406386852264,
                -0.08210021257400513,
                -0.1384434998035431,
                -0.03945066034793854,
                0.1330225169658661,
                0.021503105759620667,
                0.01009292434900999,
                -0.10328131914138794,
                -0.13263100385665894,
                -0.005053734872490168,
                0.0650562196969986,
                -0.06546573340892792,
                0.11464221775531769,
                0.09697570651769638,
                -0.1196628287434578,
                0.07567017525434494,
                0.04133320227265358,
                0.11681102961301804,
                0.055031534284353256,
                0.046130336821079254,
                0.028203420341014862,
                -0.09070151299238205,
                0.010356821119785309,
                0.1625373661518097,
                -0.0773521289229393,
                -0.03942721709609032,
                0.025858979672193527,
                -0.08678232133388519
            ]
        ],
        [
            [
                0.181968092918396,
                0.15525276958942413,
                0.10046934336423874,
                0.1505671739578247,
                -0.05979345366358757,
                0.055378805845975876,
                0.05499633401632309,
                -0.06451421231031418,
                -0.10899654775857925,
                0.01386857870966196,
                -0.045541487634181976,
                0.018633566796779633,
                0.051553789526224136,
                -0.007563290186226368,
                0.18388324975967407,
                -0.12200656533241272,
                -0.1006547138094902,
                0.08746902644634247,
                -0.11805306375026703,
                -0.09516355395317078,
                -0.04082409664988518,
                -0.18275097012519836,
                -0.10788607597351074,
                0.024833809584379196,
                0.130418598651886,
                0.018013596534729004,
                -0.12235826998949051,
                0.09026984125375748,
                -0.07224539667367935,
                -0.08816594630479813,
                0.028203599154949188
            ]
        ],
        [
            [
                0.07778944820165634,
                -0.012196135707199574,
                -0.013947369530797005,
                -0.0938548594713211,
                -0.15064482390880585,
                -0.033369310200214386,
                -0.03103189915418625,
                -0.13014495372772217,
                0.03795868530869484,
                -0.06164034083485603,
                -0.061790142208337784,
                -0.06894110143184662,
                -0.06817226111888885,
                0.01328752376139164,
                -0.010624385438859463,
                -0.12053082883358002,
                -0.08220833539962769,
                -0.15664219856262207,
                -0.06006963178515434,
                0.08540802448987961,
                0.1038605123758316,
                -0.12750385701656342,
                -0.03657478094100952,
                -0.12417355179786682,
                0.10953919589519501,
                0.01743924245238304,
                -0.061771199107170105,
                0.10084277391433716,
                -0.13760815560817719,
                0.14843139052391052,
                -0.13766956329345703
            ]
        ],
        [
            [
                -0.14919616281986237,
                -0.10406554490327835,
                -0.04269073158502579,
                -0.08683165162801743,
                -0.03561486303806305,
                0.09476341307163239,
                -0.10625939816236496,
                0.01689719408750534,
                -0.07030369341373444,
                0.002070361515507102,
                0.07614676654338837,
                -0.059285182505846024,
                -0.03789817541837692,
                -0.021054908633232117,
                0.003415317740291357,
                -0.01594250276684761,
                0.16419263184070587,
                -0.04707574471831322,
                -0.05143437534570694,
                -0.02120038866996765,
                0.14285753667354584,
                -0.11536430567502975,
                0.06538164615631104,
                0.025554543361067772,
                0.003659839043393731,
                -0.12168848514556885,
                -0.1289955973625183,
                -0.012550126761198044,
                -0.12050344049930573,
                0.0467178039252758,
                0.1194133460521698
            ]
        ],
        [
            [
                0.022089466452598572,
                0.029286997392773628,
                0.07382886111736298,
                0.010684971697628498,
                -0.0028850589878857136,
                -0.08159763365983963,
                0.027965351939201355,
                0.09128392487764359,
                -0.17269660532474518,
                0.0007200914551503956,
                -0.15646637976169586,
                -0.06906872987747192,
                -0.17609146237373352,
                -0.09080716967582703,
                -0.05522012338042259,
                -0.18762792646884918,
                0.07620979845523834,
                -0.12806449830532074,
                -0.16159510612487793,
                -0.11116501688957214,
                0.06799738109111786,
                -0.17539845407009125,
                -0.06621494144201279,
                -0.12891259789466858,
                -0.13239049911499023,
                -0.006209909450262785,
                0.05980689451098442,
                -0.04067742079496384,
                -0.13503481447696686,
                0.00750508438795805,
                0.00947935413569212
            ]
        ],
        [
            [
                -0.06961958855390549,
                0.13547945022583008,
                0.005220200400799513,
                0.037392474710941315,
                0.14751851558685303,
                0.07310725748538971,
                -0.08214744925498962,
                0.13206256926059723,
                -0.06931423395872116,
                0.040590692311525345,
                0.11230908334255219,
                -0.07891233265399933,
                0.13575349748134613,
                -0.13559231162071228,
                0.18691489100456238,
                -0.0004491033614613116,
                -0.1464255005121231,
                -0.11758528649806976,
                0.014478480443358421,
                0.03665825352072716,
                0.1994849592447281,
                0.07000797241926193,
                0.06674395501613617,
                0.028965672478079796,
                0.1373487114906311,
                -0.11277423799037933,
                -0.09132502228021622,
                -0.09353434294462204,
                0.08019797503948212,
                0.14572583138942719,
                -0.07131404429674149
            ]
        ],
        [
            [
                -0.14577598869800568,
                0.10492303967475891,
                0.007966726087033749,
                -0.13894282281398773,
                -0.10329309105873108,
                -0.13579095900058746,
                0.03638814389705658,
                0.042845673859119415,
                -0.15560725331306458,
                0.04347104951739311,
                -0.13593599200248718,
                -0.019089631736278534,
                -0.11547688394784927,
                -0.11117324233055115,
                0.1247902512550354,
                0.016174156218767166,
                0.10396385192871094,
                0.04876246675848961,
                0.04603226110339165,
                0.17111386358737946,
                -0.05108609423041344,
                -0.07639763504266739,
                0.08443314582109451,
                0.07012254744768143,
                -0.007187324110418558,
                0.09504131972789764,
                -0.07019413262605667,
                -0.01781734637916088,
                0.0968656837940216,
                -0.03966493159532547,
                -0.14522363245487213
            ]
        ],
        [
            [
                -0.10784732550382614,
                -0.1793127804994583,
                -0.12063413858413696,
                -0.026219801977276802,
                0.04139351099729538,
                -0.06916593760251999,
                -0.05370154231786728,
                -0.03962614759802818,
                0.08294694870710373,
                0.1336836814880371,
                -0.06896121054887772,
                -0.137442946434021,
                -0.12003682553768158,
                -0.10910114645957947,
                0.07425663620233536,
                -0.02644932083785534,
                -0.08896513283252716,
                -0.05600403621792793,
                -0.12908488512039185,
                -0.02942563220858574,
                -0.0609571598470211,
                0.1476229578256607,
                0.06589245796203613,
                -0.05151628330349922,
                -0.012146169319748878,
                0.054289232939481735,
                -0.18303613364696503,
                0.14357666671276093,
                0.03698424994945526,
                0.09350188821554184,
                -0.06197310984134674
            ]
        ],
        [
            [
                0.013966985046863556,
                0.10315288603305817,
                0.10924694687128067,
                0.08432967960834503,
                -0.06503836810588837,
                -0.14136701822280884,
                0.006686774548143148,
                0.07270713895559311,
                -0.09914971888065338,
                -0.015498713590204716,
                0.08078345656394958,
                0.05417777597904205,
                -0.14833366870880127,
                -0.1461496204137802,
                0.09730645269155502,
                0.09250754117965698,
                -0.13521955907344818,
                0.039092157036066055,
                -0.08012945204973221,
                0.06972558051347733,
                0.07411374151706696,
                -0.05411482974886894,
                0.09502105414867401,
                -0.1304788440465927,
                -0.05806117132306099,
                0.12062719464302063,
                0.04363503307104111,
                -0.04226917028427124,
                0.13148914277553558,
                0.009797983802855015,
                -0.03727881610393524
            ]
        ],
        [
            [
                -0.055217914283275604,
                0.11809397488832474,
                0.12453501671552658,
                -0.09485243260860443,
                0.07581695914268494,
                -0.005086357239633799,
                0.17376264929771423,
                -0.013535356149077415,
                0.150020033121109,
                0.12651889026165009,
                -0.08815878629684448,
                0.09350823611021042,
                0.08370104432106018,
                0.09897089004516602,
                0.10759403556585312,
                0.030038602650165558,
                -0.10104934871196747,
                0.06261029839515686,
                -0.07211795449256897,
                0.017970804125070572,
                -0.12511804699897766,
                -0.006199858617037535,
                -0.06481455266475677,
                -0.1306406706571579,
                0.05201514810323715,
                -0.10711409151554108,
                -0.1317141056060791,
                -0.029215790331363678,
                -0.08110307157039642,
                0.13346906006336212,
                -0.10444128513336182
            ]
        ],
        [
            [
                -0.005638801958411932,
                0.08746904134750366,
                -0.03809082880616188,
                -0.12382594496011734,
                0.0358736552298069,
                0.1201150044798851,
                -0.037774886935949326,
                0.16392706334590912,
                0.15889789164066315,
                0.03143995255231857,
                -0.11669155955314636,
                0.008437473326921463,
                0.0350697822868824,
                0.09631457924842834,
                0.10382576286792755,
                0.14716050028800964,
                -0.13114406168460846,
                0.1356181502342224,
                0.11685606837272644,
                0.09561491012573242,
                -0.11719664186239243,
                -0.0027863471768796444,
                -0.1335875242948532,
                0.03418920934200287,
                -0.05066010728478432,
                -0.05866445228457451,
                0.17938046157360077,
                -0.04197297617793083,
                -0.07642596960067749,
                0.15301010012626648,
                0.10077548027038574
            ]
        ]
    ],
    "conv.conv.bias": [
        0.03611500561237335,
        -0.0658746212720871,
        0.15323032438755035,
        0.18072350323200226,
        0.007701628375798464,
        -0.17855887115001678,
        0.016251474618911743,
        -0.13962259888648987,
        0.02535058930516243,
        -0.09380076825618744,
        0.18623702228069305,
        0.19072569906711578,
        0.1376635581254959,
        -0.13776269555091858,
        0.0592668354511261,
        -0.028736772015690804
    ],
    "gru.weight_ih_l0": [
        [
            0.05030680447816849,
            0.0337735079228878,
            0.08580455183982849,
            -0.02564745955169201,
            0.016771716997027397,
            -0.06584614515304565,
            -0.028759373351931572,
            0.01853163354098797,
            0.015827853232622147,
            0.05762922391295433,
            0.018172627314925194,
            0.1299830824136734,
            -0.06296566873788834,
            0.01767462119460106,
            -0.015294374898076057,
            0.06630004942417145
        ],
        [
            -0.07033843547105789,
            0.1205279603600502,
            0.05943312868475914,
            -0.00542645575478673,
            0.04370393604040146,
            -0.04512014240026474,
            -0.0060742939822375774,
            -0.08719382435083389,
            -0.026573259383440018,
            0.06542413681745529,
            0.1045207530260086,
            0.022408006712794304,
            -0.056207966059446335,
            0.026047881692647934,
            0.0539015531539917,
            0.0337153859436512
        ],
        [
            0.05438530072569847,
            0.07556901127099991,
            0.09124451875686646,
            -0.029860500246286392,
            -0.04732620716094971,
            -0.10539621114730835,
            0.05977955833077431,
            0.10208465158939362,
            0.04535403102636337,
            0.08651821315288544,
            0.06561827659606934,
            0.05354896932840347,
            0.11918135732412338,
            -0.01162775605916977,
            -0.11335650831460953,
            -0.14784668385982513
        ],
        [
            -0.006924943998456001,
            -0.06289392709732056,
            0.05181427299976349,
            -0.007416409905999899,
            -0.02112787961959839,
            0.0027114020194858313,
            0.1723005324602127,
            -0.01797562465071678,
            -0.027049703523516655,
            0.24528194963932037,
            -0.026233509182929993,
            0.005165933631360531,
            0.07545509934425354,
            0.00016706204041838646,
            -0.07178957015275955,
            0.03874143958091736
        ],
        [
            -0.00030450723716057837,
            -0.014052183367311954,
            -0.057725872844457626,
            0.08254595100879669,
            0.16181468963623047,
            0.050297584384679794,
            0.04823685809969902,
            0.1647869348526001,
            0.1352570652961731,
            0.02509002387523651,
            0.12144772708415985,
            0.08440043032169342,
            0.07129877805709839,
            0.015167740173637867,
            -0.015575225464999676,
            -0.026970023289322853
        ],
        [
            0.057372625917196274,
            0.06119384244084358,
            0.11238132417201996,
            -0.0864388644695282,
            -0.04396796226501465,
            0.059972651302814484,
            0.019747428596019745,
            0.051886241883039474,
            -0.03420243039727211,
            0.022073563188314438,
            0.10510938614606857,
            0.11776576191186905,
            0.024693172425031662,
            -0.07547254860401154,
            0.12478319555521011,
            0.025328155606985092
        ],
        [
            0.09304951131343842,
            0.015971848741173744,
            -0.048581406474113464,
            -0.05039386451244354,
            -0.08436423540115356,
            0.005098365247249603,
            -0.012974986806511879,
            -0.1204567551612854,
            -0.06048283353447914,
            -0.09200793504714966,
            0.025468997657299042,
            -0.08199205249547958,
            -0.025092775002121925,
            0.1046644076704979,
            -0.0950552299618721,
            0.004983792547136545
        ],
        [
            -0.14918020367622375,
            -0.018010254949331284,
            -0.03243030607700348,
            -0.06815274804830551,
            -0.027503814548254013,
            0.15782807767391205,
            -0.05468947812914848,
            -0.04195048287510872,
            0.004857045132666826,
            -0.07415109127759933,
            -0.04139821231365204,
            0.0355452336370945,
            -0.0009677804773673415,
            0.005934303160756826,
            -0.10821012407541275,
            -0.10730577260255814
        ],
        [
            0.04642123728990555,
            0.08645783364772797,
            -0.022596966475248337,
            0.07814284414052963,
            -0.02356652542948723,
            0.10298886150121689,
            0.038385361433029175,
            0.06352090835571289,
            -0.035143595188856125,
            -0.07126452028751373,
            -0.003528597764670849,
            0.0007831654511392117,
            -0.03493272513151169,
            -0.03965490311384201,
            -0.11866588890552521,
            0.03567748889327049
        ],
        [
            0.048540983349084854,
            -0.016660241410136223,
            0.03540494292974472,
            0.04309573769569397,
            0.0815029963850975,
            0.050945937633514404,
            0.06378068029880524,
            -0.07283839583396912,
            -0.15373532474040985,
            -0.1195388212800026,
            0.1307920515537262,
            0.015531664714217186,
            0.0030269676353782415,
            -0.03217571601271629,
            0.0023574072401970625,
            -0.04183890298008919
        ],
        [
            -0.11753347516059875,
            0.035842280834913254,
            0.09614558517932892,
            0.0705578401684761,
            -0.012331925332546234,
            -0.15902450680732727,
            0.11220423877239227,
            -0.04021051153540611,
            0.12401226907968521,
            0.020502649247646332,
            -0.057711247354745865,
            -0.02747897058725357,
            0.10249170660972595,
            -0.05459371954202652,
            0.12899263203144073,
            0.02309187315404415
        ],
        [
            0.09826058894395828,
            -0.06088117137551308,
            0.017295628786087036,
            -0.07479852437973022,
            0.07620900124311447,
            -0.08660831302404404,
            -0.09720277786254883,
            -0.047668762505054474,
            -0.02898317761719227,
            0.03665463253855705,
            -0.04843999445438385,
            0.08964617550373077,
            -0.036795277148485184,
            -0.05544045940041542,
            -0.04860459640622139,
            -0.06478191167116165
        ],
        [
            -0.11085406690835953,
            -0.018106985837221146,
            0.08172734081745148,
            0.10788313299417496,
            -0.01647637039422989,
            0.011005782522261143,
            -0.01966520957648754,
            0.061444155871868134,
            0.07883809506893158,
            -0.18605045974254608,
            0.0007854513823986053,
            -0.0026088799349963665,
            -0.007330419961363077,
            0.039904043078422546,
            9.366033918922767e-05,
            0.020082049071788788
        ],
        [
            -0.0058435918763279915,
            -0.11551304161548615,
            -0.11805158853530884,
            -0.0972093790769577,
            0.0925641655921936,
            0.05909403786063194,
            -0.01590174436569214,
            0.111129991710186,
            0.03791459649801254,
            0.03969213739037514,
            -0.03158608824014664,
            -0.099161297082901,
            0.03602678328752518,
            -0.09281372278928757,
            -0.026251347735524178,
            -0.025251349434256554
        ],
        [
            0.035094134509563446,
            -0.06897777318954468,
            -0.051544297486543655,
            0.07530602067708969,
            0.01054319553077221,
            0.01983604207634926,
            0.09628462791442871,
            0.06936188042163849,
            -0.08301001042127609,
            0.13394196331501007,
            0.03352145850658417,
            0.10543835163116455,
            0.06931833922863007,
            0.08801630139350891,
            0.0800090953707695,
            0.051316093653440475
        ],
        [
            -0.07882692664861679,
            -0.06151125580072403,
            0.1328105926513672,
            -0.144575297832489,
            0.17593425512313843,
            -0.006704101338982582,
            0.050632525235414505,
            0.15502075850963593,
            0.1503126472234726,
            0.004463652614504099,
            -0.06620906293392181,
            0.11500845104455948,
            0.1095271185040474,
            0.06077646091580391,
            -0.08581860363483429,
            0.04552004858851433
        ],
        [
            0.012033372186124325,
            0.066697858273983,
            0.07676614075899124,
            -0.04951202869415283,
            0.12165061384439468,
            0.051159605383872986,
            0.09082118421792984,
            -0.06093430146574974,
            0.016792219132184982,
            -0.013098401948809624,
            0.03546098619699478,
            0.02644433081150055,
            0.08357638120651245,
            -0.06469316780567169,
            0.014353519305586815,
            0.07984818518161774
        ],
        [
            -0.03007720783352852,
            -0.005669262260198593,
            0.128047376871109,
            0.04026540368795395,
            -0.034487832337617874,
            -0.0693640261888504,
            -0.050171636044979095,
            0.06454043835401535,
            0.0024298818316310644,
            0.01527699176222086,
            0.07330583781003952,
            -0.11554570496082306,
            0.08014378696680069,
            -0.10773900896310806,
            -0.04523837938904762,
            -0.08802270144224167
        ],
        [
            0.039737846702337265,
            0.0515434704720974,
            0.13025030493736267,
            -0.05144214257597923,
            -0.08715838938951492,
            0.11607850342988968,
            0.019712457433342934,
            -0.004288090392947197,
            -0.06154106929898262,
            -0.13709132373332977,
            0.02172045037150383,
            -0.03415841609239578,
            0.09158281981945038,
            -0.04566861316561699,
            -0.06081118807196617,
            -0.0640190988779068
        ],
        [
            -0.08114907145500183,
            0.11264293640851974,
            -0.02226654440164566,
            -0.043075110763311386,
            -0.07083805650472641,
            -0.06868523359298706,
            -0.04611307010054588,
            0.13352710008621216,
            0.03881802037358284,
            -0.11793871223926544,
            0.00047315304982475936,
            0.08272930979728699,
            -0.0012563775526359677,
            -0.0508432611823082,
            -0.06350904703140259,
            0.03118683584034443
        ],
        [
            0.0295476783066988,
            -0.01127791590988636,
            -0.07058924436569214,
            -0.09236276894807816,
            -0.09619985520839691,
            0.06316343694925308,
            -0.032081957906484604,
            0.020346149802207947,
            -0.06084856390953064,
            -0.08635810762643814,
            -0.07457546889781952,
            0.01107834279537201,
            0.05381915718317032,
            0.06854814291000366,
            -0.12107207626104355,
            -0.06173670291900635
        ],
        [
            -0.04102073237299919,
            0.10107487440109253,
            0.08946383744478226,
            -0.06207804009318352,
            0.02596520632505417,
            -0.06406230479478836,
            -0.011095770634710789,
            0.07897768169641495,
            -0.07655483484268188,
            -0.07161974161863327,
            -0.06345081329345703,
            -0.1004774272441864,
            -0.09564906358718872,
            -0.027223926037549973,
            -0.11812616884708405,
            0.07243328541517258
        ],
        [
            -0.015255896374583244,
            -0.09881754219532013,
            0.04890594258904457,
            0.025420570746064186,
            0.06419401615858078,
            -0.048384036868810654,
            0.09500864893198013,
            0.03442082926630974,
            0.0557706281542778,
            0.10745047777891159,
            0.05182565376162529,
            -0.15365846455097198,
            0.03568768873810768,
            -0.0665789321064949,
            -0.01580723002552986,
            -0.005847939755767584
        ],
        [
            -0.02653619647026062,
            0.0636528730392456,
            0.046681150794029236,
            0.0678185522556305,
            -0.007695504929870367,
            -0.06210564076900482,
            -0.019277198240160942,
            -0.07313281297683716,
            -0.08313601464033127,
            0.03368531912565231,
            -0.018937522545456886,
            -0.034969888627529144,
            0.09644516557455063,
            -0.08971932530403137,
            0.021091250702738762,
            0.0640886202454567
        ],
        [
            0.003494207514449954,
            0.03481702134013176,
            0.06683600693941116,
            -0.017871545627713203,
            0.07871951907873154,
            -0.12803931534290314,
            -0.0708688423037529,
            -0.05524436756968498,
            0.11612870544195175,
            0.07380395382642746,
            0.012480631470680237,
            -0.06320123374462128,
            0.12577377259731293,
            -0.006972041446715593,
            -0.028936196118593216,
            0.03307723253965378
        ],
        [
            -0.06792128831148148,
            -0.028111837804317474,
            0.05238110572099686,
            0.08795669674873352,
            -0.016610898077487946,
            0.019606325775384903,
            -0.06877823173999786,
            0.09974280744791031,
            -0.04874422401189804,
            0.07683447003364563,
            -0.10456360876560211,
            0.048219945281744,
            -0.01920580118894577,
            -0.08366882055997849,
            -0.0020241038873791695,
            0.03654381260275841
        ],
        [
            0.05691520497202873,
            -0.06386680901050568,
            -0.00851353444159031,
            0.11168748140335083,
            0.07840122282505035,
            -0.04643450304865837,
            0.006166402716189623,
            -0.03920602798461914,
            -0.03694937378168106,
            0.11027181893587112,
            -0.07533767819404602,
            0.12018138915300369,
            -0.11767026782035828,
            0.06460656970739365,
            -0.02067725732922554,
            0.0796043649315834
        ],
        [
            0.04284386336803436,
            0.028966089710593224,
            0.10268303751945496,
            0.05591573938727379,
            -0.04195744916796684,
            0.059262052178382874,
            -0.06962184607982635,
            0.1430628001689911,
            -0.06999814510345459,
            0.057007286697626114,
            -0.11878032237291336,
            -0.07846879214048386,
            0.06933562457561493,
            -0.03157884627580643,
            0.04699680581688881,
            0.09178657829761505
        ],
        [
            -0.0704292580485344,
            0.0035863439552485943,
            -0.011755518615245819,
            0.11859361082315445,
            -0.10200167447328568,
            0.0379885658621788,
            0.08644095063209534,
            -0.08181305229663849,
            -0.09691184014081955,
            0.10465380549430847,
            0.0937231108546257,
            -0.09202788025140762,
            -0.06043563038110733,
            0.10206101089715958,
            -0.04692429304122925,
            -0.02431403659284115
        ],
        [
            -0.018960239365696907,
            0.01925167441368103,
            0.11329812556505203,
            0.09029725939035416,
            0.09539829194545746,
            0.01405145600438118,
            -0.015101409517228603,
            -0.05370570346713066,
            0.05962654948234558,
            0.11285386979579926,
            -0.12185148894786835,
            -0.01738828420639038,
            0.12377427518367767,
            -0.11065983027219772,
            -0.0393662229180336,
            0.08914952725172043
        ],
        [
            0.07100282609462738,
            -0.11489138752222061,
            -0.07027823477983475,
            0.0034910503309220076,
            0.08776123076677322,
            0.12641771137714386,
            -0.10607362538576126,
            0.09487079083919525,
            -0.1304682493209839,
            -0.10332445800304413,
            -0.009155862033367157,
            -0.10298006236553192,
            0.05459807068109512,
            0.03875336796045303,
            0.05781598016619682,
            -0.05911855772137642
        ],
        [
            -0.03467003256082535,
            0.01656530424952507,
            0.028900278732180595,
            0.007683208212256432,
            -0.03757166117429733,
            0.028364621102809906,
            -0.1244821697473526,
            0.029050659388303757,
            -0.04205203056335449,
            -0.0752091035246849,
            0.04530810937285423,
            0.03424079716205597,
            0.07595358043909073,
            0.08457954972982407,
            -0.07006436586380005,
            -0.14565898478031158
        ],
        [
            -0.17619851231575012,
            -0.07620640099048615,
            -0.08410218358039856,
            0.05632568523287773,
            0.17399194836616516,
            0.030889978632330894,
            0.06616505980491638,
            -0.012298938818275928,
            0.06598030030727386,
            0.09860029071569443,
            -0.09761074185371399,
            0.13101382553577423,
            0.15905670821666718,
            -0.07980845123529434,
            -0.14238214492797852,
            -0.12695302069187164
        ],
        [
            -0.066386379301548,
            0.034370265901088715,
            0.11910811066627502,
            -0.040635846555233,
            0.1536773443222046,
            0.10654196888208389,
            -0.10681158304214478,
            -0.058085374534130096,
            -0.07869161665439606,
            0.05836646631360054,
            -0.06788536161184311,
            0.09588595479726791,
            0.07746387273073196,
            -0.09952594339847565,
            -0.10224660485982895,
            -0.15451748669147491
        ],
        [
            0.09197921305894852,
            0.018088120967149734,
            -0.05038345232605934,
            -0.10056529194116592,
            0.10373963415622711,
            -0.10934152454137802,
            -0.027987485751509666,
            0.014291197992861271,
            -0.0628294125199318,
            -0.030294692143797874,
            -0.08751226216554642,
            0.0707678496837616,
            0.0964604914188385,
            0.009278805926442146,
            0.07796996831893921,
            -0.08726942539215088
        ],
        [
            0.030962977558374405,
            -0.013807469047605991,
            0.056657809764146805,
            -0.07776005566120148,
            -0.09819647669792175,
            -0.08155682682991028,
            -0.037295591086149216,
            -0.0535665899515152,
            0.04758159816265106,
            0.0687844306230545,
            -0.022271959111094475,
            0.05123981460928917,
            -0.028027355670928955,
            0.042438656091690063,
            0.039013635367155075,
            0.04873368516564369
        ],
        [
            -0.01111100148409605,
            -0.06279458850622177,
            0.05567290633916855,
            0.04219679906964302,
            0.08103518933057785,
            0.07644911110401154,
            -0.0171209629625082,
            -0.13463035225868225,
            0.11055589467287064,
            0.04656277596950531,
            -0.0328582301735878,
            0.12177335470914841,
            0.029455063864588737,
            -0.01708894409239292,
            0.09947991371154785,
            -0.059060242027044296
        ],
        [
            -0.025625867769122124,
            0.009514483623206615,
            -0.03307541087269783,
            -0.08403827250003815,
            -0.0688653290271759,
            -0.05959804728627205,
            0.02410132810473442,
            -0.09252238273620605,
            0.10185223817825317,
            0.010680876672267914,
            0.07685178518295288,
            -0.11478725075721741,
            0.011550555005669594,
            0.06628474593162537,
            -0.0560506172478199,
            -0.045795686542987823
        ],
        [
            0.07186022400856018,
            0.04048490151762962,
            -0.07859928160905838,
            0.009361534379422665,
            -0.107417993247509,
            0.06234253570437431,
            0.1220702975988388,
            -0.08864288777112961,
            -0.03382414951920509,
            -0.007278753444552422,
            0.17112693190574646,
            -0.10255040228366852,
            0.09899011254310608,
            0.0028156437911093235,
            0.1162753775715828,
            0.0003444771864451468
        ],
        [
            -0.04678374528884888,
            -0.08306647092103958,
            0.02894296869635582,
            -0.06963922828435898,
            -0.04398248344659805,
            0.001089134719222784,
            0.020172130316495895,
            -0.05507858842611313,
            0.024568520486354828,
            -0.06958643347024918,
            -0.09419301897287369,
            -0.08243431150913239,
            -0.025890996679663658,
            0.06666482985019684,
            0.07639776915311813,
            -0.07149869203567505
        ],
        [
            -0.011102395132184029,
            -0.052478011697530746,
            -0.05938241630792618,
            0.07947696000337601,
            0.062499623745679855,
            0.022199474275112152,
            -0.04924301430583,
            0.16610607504844666,
            -0.09032516181468964,
            0.11747529357671738,
            0.07358266413211823,
            -0.08052133023738861,
            0.08194685727357864,
            -0.08655533939599991,
            -0.08558905124664307,
            -0.13952045142650604
        ],
        [
            0.11026516556739807,
            0.03970489278435707,
            0.05793382599949837,
            0.04026678577065468,
            -0.15886861085891724,
            -0.05977004021406174,
            0.003586743026971817,
            -0.1118987649679184,
            -0.021524367853999138,
            0.08764228224754333,
            0.032472044229507446,
            0.010497783310711384,
            -0.013237180188298225,
            -0.1445074826478958,
            0.057960301637649536,
            -0.11442418396472931
        ],
        [
            0.11320269107818604,
            -0.1844998300075531,
            0.04455789551138878,
            0.1475978046655655,
            -0.06550420075654984,
            -0.10970934480428696,
            0.059176139533519745,
            -0.08845861256122589,
            -0.06310475617647171,
            -0.026601385325193405,
            -0.0727124959230423,
            0.07710918039083481,
            -0.06634876132011414,
            -0.056524571031332016,
            0.0709802508354187,
            -0.13488733768463135
        ],
        [
            -0.07133330404758453,
            0.04214494675397873,
            -0.08539821952581406,
            -0.07337971031665802,
            -0.062286071479320526,
            -0.08795953541994095,
            0.07298553735017776,
            -0.06320609897375107,
            0.07670392096042633,
            -0.04768015444278717,
            -0.022671109065413475,
            0.07622995972633362,
            -0.07021398097276688,
            -0.0999247282743454,
            0.12412656843662262,
            0.023257460445165634
        ],
        [
            -0.06506449729204178,
            0.010779072530567646,
            0.06526041775941849,
            -0.028330907225608826,
            -0.08002348244190216,
            -0.08670927584171295,
            0.034042663872241974,
            -0.04237184673547745,
            -0.11169622838497162,
            -0.1197410523891449,
            -0.08941624313592911,
            -0.11247806996107101,
            -0.07459301501512527,
            0.09166419506072998,
            -0.11058633029460907,
            0.04396546259522438
        ],
        [
            -0.009178255684673786,
            0.16859878599643707,
            0.061466678977012634,
            0.1316118836402893,
            0.02144671604037285,
            -0.010105837136507034,
            -0.0401327908039093,
            -0.06613241881132126,
            -0.06145651265978813,
            -0.019820403307676315,
            0.17882706224918365,
            -0.030382195487618446,
            0.04348406568169594,
            -0.0030229196418076754,
            0.0028705268632620573,
            -0.04059697315096855
        ],
        [
            0.0571504607796669,
            -0.027133017778396606,
            0.1030980572104454,
            0.09103541076183319,
            -0.08600401878356934,
            -0.10566626489162445,
            -0.028919674456119537,
            -0.09751730412244797,
            0.06467054784297943,
            0.006127884611487389,
            -0.029536891728639603,
            0.05341355502605438,
            -0.107203908264637,
            -0.04827570915222168,
            0.035780999809503555,
            0.03478080779314041
        ],
        [
            0.1139572262763977,
            -0.07399743050336838,
            -0.07024162262678146,
            0.031219646334648132,
            -0.08274811506271362,
            -0.08263879269361496,
            -0.06327047944068909,
            0.0349305085837841,
            0.012481240555644035,
            -0.1261993795633316,
            -0.0009218972409144044,
            -0.009545163251459599,
            0.0410178005695343,
            -0.033327631652355194,
            0.03673636168241501,
            0.06390809267759323
        ],
        [
            -0.01914157159626484,
            -0.11685847491025925,
            0.012712936848402023,
            -0.0675945058465004,
            -0.09565181285142899,
            -0.08920145779848099,
            0.12382165342569351,
            -0.06548868119716644,
            -0.08022753894329071,
            -0.09363510459661484,
            -0.01774848997592926,
            -0.10505310446023941,
            -0.0613415464758873,
            0.020645396783947945,
            0.029578758403658867,
            -0.030706098303198814
        ],
        [
            -0.037211716175079346,
            -0.0329422652721405,
            -0.07073850184679031,
            -0.023716945201158524,
            -0.02362147904932499,
            -0.07992132753133774,
            -0.08180714398622513,
            -0.04872920364141464,
            0.04715561494231224,
            0.13118861615657806,
            0.046839550137519836,
            0.04354483634233475,
            -0.05446011945605278,
            -0.11348649859428406,
            -0.13822346925735474,
            -0.0634298101067543
        ],
        [
            0.12698893249034882,
            0.09046278148889542,
            -0.05020449683070183,
            -0.030038507655262947,
            -0.03711572661995888,
            -0.0477927029132843,
            -0.011664731428027153,
            0.11794739961624146,
            -0.03484130650758743,
            -0.08855511993169785,
            0.0012852656655013561,
            -0.0009515761048533022,
            0.04816146194934845,
            -0.06110655143857002,
            0.07784754782915115,
            0.07026205211877823
        ],
        [
            0.10937884449958801,
            -0.023068206384778023,
            -0.09669377654790878,
            -0.03025023825466633,
            -0.0732291042804718,
            -0.04044143483042717,
            0.03548066318035126,
            -0.0932474285364151,
            0.06221577897667885,
            -0.16869182884693146,
            0.1668674200773239,
            0.10625006258487701,
            -0.048769570887088776,
            -0.10127619653940201,
            -0.05892733111977577,
            -0.09454936534166336
        ],
        [
            -0.05964519456028938,
            0.0602494478225708,
            0.07869963347911835,
            0.016456423327326775,
            0.15808460116386414,
            -0.09788152575492859,
            0.044713281095027924,
            0.05942869931459427,
            -0.006485496181994677,
            -0.059393104165792465,
            -0.07606024295091629,
            0.06638336926698685,
            0.11660512536764145,
            -0.07618827372789383,
            -0.15600043535232544,
            -0.040404170751571655
        ],
        [
            0.09579367190599442,
            -0.07251958549022675,
            0.14130552113056183,
            0.049583375453948975,
            0.042738139629364014,
            0.024637410417199135,
            -0.0339115709066391,
            -0.11135727167129517,
            -0.04527641460299492,
            0.04419877007603645,
            -0.04629960283637047,
            0.08062948286533356,
            -0.08983372896909714,
            0.02115039713680744,
            0.02635163627564907,
            0.1005408763885498
        ],
        [
            -0.08303690701723099,
            0.012881243601441383,
            0.011595507152378559,
            0.07651440054178238,
            -0.11900212615728378,
            -0.10944446176290512,
            -0.10873321443796158,
            0.09615524113178253,
            0.06573569774627686,
            -0.1317419707775116,
            0.05306709557771683,
            -0.036345578730106354,
            0.06444882601499557,
            0.14252716302871704,
            0.01763097010552883,
            -0.022557396441698074
        ],
        [
            -0.032913077622652054,
            -0.055477324873209,
            -0.14729619026184082,
            0.055422939360141754,
            0.09715010225772858,
            -0.04497576132416725,
            0.008787431754171848,
            -0.03222864866256714,
            -0.16226691007614136,
            -0.07807277888059616,
            -0.03205100819468498,
            0.028960611671209335,
            0.018026338890194893,
            -0.10536797344684601,
            -0.05813201889395714,
            -0.18615086376667023
        ],
        [
            -0.005153947975486517,
            0.14495505392551422,
            -0.11969085782766342,
            0.011205398477613926,
            -0.10382861644029617,
            -0.10540566593408585,
            0.07099539786577225,
            -0.07301118969917297,
            -0.1072048544883728,
            0.07652200013399124,
            -0.09161737561225891,
            -0.0470852255821228,
            -0.040286172181367874,
            0.04707811772823334,
            0.031879864633083344,
            0.11031292378902435
        ],
        [
            0.094638392329216,
            -0.06227068603038788,
            -0.1063130646944046,
            -0.05786588042974472,
            0.12305036932229996,
            -0.1324661672115326,
            0.18936048448085785,
            -0.027077727019786835,
            0.08262895792722702,
            0.0060732485726475716,
            -0.09122826904058456,
            0.030063336715102196,
            -0.08737391978502274,
            -0.032057348638772964,
            0.001102864509448409,
            -0.03166723623871803
        ],
        [
            0.0529509037733078,
            -0.054963432252407074,
            -0.08044636249542236,
            -0.09047738462686539,
            -0.05366254225373268,
            0.13297587633132935,
            -0.10370321571826935,
            0.02098032645881176,
            0.12817692756652832,
            -0.026898864656686783,
            -0.062312811613082886,
            0.13004058599472046,
            0.12781068682670593,
            -0.07877293229103088,
            -0.06123550981283188,
            0.07157851755619049
        ],
        [
            0.0820365622639656,
            -0.1266057938337326,
            -0.05045376345515251,
            0.011070286855101585,
            -0.07136134803295135,
            0.04666060954332352,
            0.052403755486011505,
            -0.07860013097524643,
            0.006155385170131922,
            0.07026432454586029,
            0.1099843755364418,
            -0.033162474632263184,
            -0.05430478975176811,
            -0.12557725608348846,
            -0.0267183855175972,
            -0.05531643331050873
        ],
        [
            0.0026912775356322527,
            0.03152330964803696,
            0.1253434717655182,
            -0.0011267662048339844,
            0.13143141567707062,
            -0.02109825611114502,
            -0.03352577984333038,
            -0.06480557471513748,
            0.06606592983007431,
            -0.04598129168152809,
            0.008067715913057327,
            0.12796755135059357,
            -0.02840554714202881,
            -0.04218199476599693,
            -0.11153563857078552,
            0.09293461591005325
        ],
        [
            -0.11134278774261475,
            -0.09215762466192245,
            -0.011472675949335098,
            0.10516753047704697,
            -0.031400155276060104,
            -0.08818798512220383,
            -0.025511836633086205,
            -0.12525856494903564,
            0.03142540156841278,
            -0.0749325305223465,
            -0.04217115789651871,
            0.06697001308202744,
            -0.10947570949792862,
            -0.02322421222925186,
            -0.07365012913942337,
            -0.031058968976140022
        ],
        [
            -0.1020570769906044,
            0.04807630181312561,
            0.07078681886196136,
            0.02785693295300007,
            -0.04498771205544472,
            -0.0756167396903038,
            0.002659343183040619,
            0.03358018770813942,
            0.09797803312540054,
            0.1403294801712036,
            -0.029733072966337204,
            -0.024228638038039207,
            -0.06769391894340515,
            -0.1512880027294159,
            0.06573320925235748,
            -0.15452809631824493
        ],
        [
            0.0017332211136817932,
            0.07339313626289368,
            0.07093378901481628,
            0.04156976565718651,
            -0.09616272896528244,
            0.05940333753824234,
            -0.05039947107434273,
            0.08892235904932022,
            -0.017545456066727638,
            -0.06146083027124405,
            -0.052884407341480255,
            -0.024084320291876793,
            -0.11007733643054962,
            -0.07306291908025742,
            0.07372625917196274,
            0.0030127756763249636
        ],
        [
            -0.015847932547330856,
            -0.08185692131519318,
            0.13856720924377441,
            0.005965914577245712,
            0.11649259179830551,
            0.056860167533159256,
            -0.11417905241250992,
            -0.04861031472682953,
            -0.004270847886800766,
            -0.0431520976126194,
            0.05919415503740311,
            0.07393297553062439,
            -0.0028614643961191177,
            -0.11666887998580933,
            0.03734298795461655,
            -0.10260685533285141
        ],
        [
            -0.01905912347137928,
            -0.13115672767162323,
            -0.03595118969678879,
            -0.017435850575566292,
            0.04373368248343468,
            -0.005292706657201052,
            0.016219839453697205,
            0.007975956425070763,
            -0.011484034359455109,
            -0.012259414419531822,
            0.030209967866539955,
            0.055230796337127686,
            0.10821118205785751,
            0.07522893697023392,
            0.08126065135002136,
            -0.02176104672253132
        ],
        [
            -0.0028048460371792316,
            0.028732165694236755,
            0.17826011776924133,
            0.026316756382584572,
            -0.023811254650354385,
            -2.8997596018598415e-05,
            -0.07562266290187836,
            0.053388431668281555,
            0.02145460620522499,
            -0.01659468747675419,
            0.008093578740954399,
            0.14229515194892883,
            -0.044984571635723114,
            -0.09489528089761734,
            -0.12899412214756012,
            -0.06918506324291229
        ],
        [
            -0.0958017036318779,
            -0.11181753128767014,
            -0.1048736646771431,
            0.13353772461414337,
            -0.0010977984638884664,
            -0.1322449892759323,
            -0.07068807631731033,
            -0.01298433169722557,
            0.27443966269493103,
            -0.0760725885629654,
            0.02769881673157215,
            -0.09560392051935196,
            0.0913911759853363,
            -0.1258411407470703,
            -0.09896545857191086,
            0.023748811334371567
        ],
        [
            -0.026176389306783676,
            -0.02950981818139553,
            0.03518680855631828,
            0.0007709506899118423,
            0.0926990658044815,
            0.025166386738419533,
            -0.17678511142730713,
            -0.132539764046669,
            0.11680872738361359,
            -0.10882897675037384,
            0.007595655508339405,
            0.16285818815231323,
            0.0009552373667247593,
            -0.1281806081533432,
            -0.15103965997695923,
            -0.010723198764026165
        ],
        [
            0.009802915155887604,
            -0.08141197264194489,
            0.045234374701976776,
            0.03573744371533394,
            -0.07570571452379227,
            0.06664770841598511,
            -0.0002956857206299901,
            0.08513052016496658,
            -0.01709084026515484,
            -0.08136887103319168,
            -0.008668619208037853,
            0.06585203111171722,
            -0.012190517038106918,
            -0.0862145721912384,
            -0.015215612947940826,
            0.1022971123456955
        ],
        [
            0.02104668691754341,
            -0.11413617432117462,
            0.03951144590973854,
            -0.04681066796183586,
            -0.18069228529930115,
            -0.1066276878118515,
            -0.047549255192279816,
            -0.03683788701891899,
            -0.047203898429870605,
            0.1037319079041481,
            0.028481483459472656,
            0.04823571816086769,
            0.1499079465866089,
            -0.007450709585100412,
            0.13144490122795105,
            0.13223077356815338
        ],
        [
            -0.0759432464838028,
            -0.09804967045783997,
            -0.05529700219631195,
            -0.059043269604444504,
            -0.04508938640356064,
            -0.026936184614896774,
            0.06533824652433395,
            -0.013814877718687057,
            -0.078639455139637,
            -0.10391540825366974,
            -0.028084244579076767,
            -0.052511729300022125,
            0.00806525070220232,
            -0.036296963691711426,
            -0.0017792569706216455,
            -0.23732033371925354
        ],
        [
            0.08225029706954956,
            -0.04580983892083168,
            0.03507956862449646,
            0.09590795636177063,
            0.07456234842538834,
            -0.020535383373498917,
            0.03704043850302696,
            -0.049628887325525284,
            0.08066607266664505,
            -0.023753272369503975,
            0.07794133573770523,
            0.10076203942298889,
            0.06136420741677284,
            0.011504373513162136,
            0.03409431502223015,
            -0.03266754746437073
        ],
        [
            0.10127042979001999,
            -0.06620234251022339,
            -0.0802161917090416,
            -0.012478080578148365,
            0.07345366477966309,
            -0.1444445699453354,
            -0.05790066719055176,
            -0.030552228912711143,
            -0.06642226874828339,
            -0.017696836963295937,
            0.06750302761793137,
            -0.025291606783866882,
            0.07136429846286774,
            0.023504052311182022,
            -0.07736530154943466,
            -0.011219466105103493
        ],
        [
            0.07647280395030975,
            -0.0020359365735203028,
            -0.06077851727604866,
            0.13541845977306366,
            0.06885921210050583,
            -0.1406245231628418,
            0.025421084836125374,
            -0.055221058428287506,
            0.02215421199798584,
            0.13608820736408234,
            0.10588841885328293,
            0.08491696417331696,
            0.024245020002126694,
            0.006283849477767944,
            0.08686790615320206,
            -0.14645697176456451
        ],
        [
            -0.01321882102638483,
            -0.19827504456043243,
            0.04661441966891289,
            0.0028003801126033068,
            -0.01175691094249487,
            -0.04035978764295578,
            0.08820789307355881,
            0.025112196803092957,
            0.07701195031404495,
            0.02969208173453808,
            -0.03434354439377785,
            0.07238677889108658,
            0.0016936261672526598,
            -0.13976511359214783,
            0.1159515306353569,
            -0.006837875582277775
        ],
        [
            0.01096066739410162,
            -0.07871896773576736,
            0.04774439334869385,
            -0.009477434679865837,
            0.07898961752653122,
            -0.027042429894208908,
            0.026663916185498238,
            0.08329568803310394,
            -0.08296628296375275,
            -0.10378363728523254,
            0.04783438518643379,
            -0.006055198609828949,
            -0.0679623931646347,
            -0.04262576624751091,
            0.036834362894296646,
            0.04263349249958992
        ],
        [
            0.1438438445329666,
            0.007988544180989265,
            0.01787526160478592,
            0.15198932588100433,
            -0.09193454682826996,
            -0.043837059289216995,
            0.10085712373256683,
            -0.031304288655519485,
            0.1333642601966858,
            0.04310093820095062,
            -0.03840692713856697,
            0.04613863676786423,
            -0.05676150694489479,
            0.008146167732775211,
            -0.0022658223751932383,
            0.040247686207294464
        ],
        [
            -0.07582934945821762,
            -0.019603895023465157,
            0.02213406190276146,
            0.047418151050806046,
            0.10509270429611206,
            0.03355305641889572,
            -0.0215759240090847,
            -0.01044375728815794,
            -0.031230852007865906,
            0.0740027129650116,
            -0.004099458456039429,
            0.1278889775276184,
            0.059663813561201096,
            -0.053654301911592484,
            -0.044642042368650436,
            -0.06826447695493698
        ],
        [
            0.0029323084745556116,
            0.08595195412635803,
            -0.06932996213436127,
            -0.028934726491570473,
            0.12216886878013611,
            -0.10316559672355652,
            -0.14183321595191956,
            -0.038931190967559814,
            -0.014339135028421879,
            -0.10203378647565842,
            0.1367337852716446,
            -0.011642185039818287,
            -0.00046114122960716486,
            0.008493974804878235,
            0.1342741698026657,
            -0.004864897113293409
        ],
        [
            0.08632799237966537,
            0.06404203921556473,
            0.08398780226707458,
            0.03108653984963894,
            0.05280032008886337,
            -0.02272883988916874,
            0.0191512331366539,
            -0.10951691120862961,
            -0.09274239838123322,
            -0.028901755809783936,
            0.16312028467655182,
            0.14531446993350983,
            -0.08272844552993774,
            -0.10274086892604828,
            0.06776384264230728,
            0.13094474375247955
        ],
        [
            -0.03349756449460983,
            -0.06091321259737015,
            -0.06589751690626144,
            0.08394443988800049,
            -0.06491245329380035,
            -0.10556698590517044,
            0.03632038086652756,
            0.06431805342435837,
            -0.04069995507597923,
            -0.10818484425544739,
            -0.047488827258348465,
            -0.018895264714956284,
            -0.00662532914429903,
            -0.11282996833324432,
            -0.05848413705825806,
            -0.10293585807085037
        ],
        [
            0.13561353087425232,
            0.04661920666694641,
            0.14160284399986267,
            0.02789418213069439,
            -0.041975993663072586,
            -0.015797916799783707,
            0.022516869008541107,
            -0.07849925011396408,
            0.0052915518172085285,
            -0.22125321626663208,
            0.053194426000118256,
            -0.05896556004881859,
            -0.027565816417336464,
            0.0359964519739151,
            0.14709769189357758,
            0.01356609258800745
        ],
        [
            -0.08591751754283905,
            0.010828730650246143,
            0.07167071849107742,
            0.06829750537872314,
            -0.12195166200399399,
            0.08674947917461395,
            -0.2079722285270691,
            -0.11300709843635559,
            0.23861774802207947,
            -0.17552891373634338,
            -0.030939286574721336,
            0.17652958631515503,
            0.03690291941165924,
            -0.00946845393627882,
            -0.08159992843866348,
            0.07675892859697342
        ],
        [
            -0.018186310306191444,
            -0.058246444910764694,
            -0.05034014582633972,
            -0.0570337288081646,
            0.06875571608543396,
            0.03146492317318916,
            0.0560346283018589,
            0.05470516160130501,
            -0.008783657103776932,
            -0.06325124949216843,
            0.05795935541391373,
            0.06501863896846771,
            -0.08089298754930496,
            -0.08331764489412308,
            0.07020116597414017,
            -0.02295721136033535
        ],
        [
            0.10255786776542664,
            -0.050397612154483795,
            0.05446775257587433,
            0.0647585317492485,
            0.14285306632518768,
            -0.07536277920007706,
            -0.014229321852326393,
            -0.017324406653642654,
            0.0475926510989666,
            0.06034458801150322,
            0.033968809992074966,
            -0.015059823170304298,
            -0.007900627329945564,
            0.048307761549949646,
            -0.10042385756969452,
            0.05622899532318115
        ],
        [
            0.02877441979944706,
            -0.10883080214262009,
            0.06282226741313934,
            -0.015026194974780083,
            -0.02712269313633442,
            -0.03868916258215904,
            0.033005520701408386,
            -0.006452548783272505,
            0.023209458217024803,
            0.036589302122592926,
            0.0341300368309021,
            -0.015691155567765236,
            0.03506019338965416,
            0.011406132951378822,
            0.12905339896678925,
            -0.07312168926000595
        ],
        [
            0.016291577368974686,
            0.07960651069879532,
            -0.03432442247867584,
            0.06285510957241058,
            0.1064470186829567,
            -0.08870918303728104,
            -0.0034052757546305656,
            0.0006749361054971814,
            0.0907345563173294,
            0.12171392887830734,
            0.07298560440540314,
            -0.035221487283706665,
            -0.05821598321199417,
            0.020291492342948914,
            0.12974241375923157,
            0.14257857203483582
        ],
        [
            0.10583307594060898,
            0.031909920275211334,
            -0.0015504831681028008,
            0.1242298036813736,
            0.06507901847362518,
            -0.19526736438274384,
            0.16644182801246643,
            0.031543999910354614,
            0.26150867342948914,
            -0.017210111021995544,
            0.0765155553817749,
            -0.009439460001885891,
            0.21274106204509735,
            0.07700665295124054,
            0.002623140811920166,
            -0.03376668691635132
        ],
        [
            0.12301096320152283,
            0.07701186090707779,
            0.038698624819517136,
            -0.041964657604694366,
            0.02387995645403862,
            0.07113168388605118,
            0.0030751365702599287,
            -0.06301801651716232,
            0.04278813675045967,
            0.013041926547884941,
            0.032099079340696335,
            -0.07296678423881531,
            -0.08476231247186661,
            -0.0022960826754570007,
            0.056505754590034485,
            0.05595971271395683
        ],
        [
            -0.010951756499707699,
            0.0037013862747699022,
            -0.041021641343832016,
            -0.02260849066078663,
            0.11536502093076706,
            0.03606869652867317,
            -0.04105095565319061,
            0.028338436037302017,
            0.089138463139534,
            -0.11652299761772156,
            0.015365995466709137,
            0.07697419077157974,
            0.006928596179932356,
            0.0024145108181983232,
            0.03802172839641571,
            0.07360919564962387
        ],
        [
            -0.010326480492949486,
            -0.025842469185590744,
            -0.07177352160215378,
            -0.21580630540847778,
            -0.009969118982553482,
            0.11379331350326538,
            -0.27173537015914917,
            -0.16455385088920593,
            -0.020179353654384613,
            -0.2951737344264984,
            0.04947805032134056,
            0.1582505702972412,
            0.08948847651481628,
            0.05133877694606781,
            -0.029997749254107475,
            0.11731559038162231
        ],
        [
            -0.03373225778341293,
            -0.0057947756722569466,
            0.07925459742546082,
            0.11045659333467484,
            0.18968656659126282,
            -0.09344834089279175,
            -0.0871373638510704,
            0.14162978529930115,
            -0.11148112267255783,
            0.1807444840669632,
            -0.05501784384250641,
            -0.017371296882629395,
            -0.05916991084814072,
            0.051500242203474045,
            0.010023090057075024,
            0.008266209624707699
        ],
        [
            0.022600654512643814,
            0.025114668533205986,
            0.15854474902153015,
            0.02878456935286522,
            -0.02331547439098358,
            -0.03761456534266472,
            -0.1634383350610733,
            -0.1364721655845642,
            0.17511610686779022,
            -0.05215751752257347,
            -0.04658852890133858,
            0.0834972932934761,
            -0.030390286818146706,
            -0.06522780656814575,
            -0.05985092744231224,
            0.04871155321598053
        ],
        [
            0.06793127208948135,
            0.06843540072441101,
            -0.08796275407075882,
            -0.027858620509505272,
            -0.05070473253726959,
            -0.024454662576317787,
            0.046051137149333954,
            -0.10173866152763367,
            0.05920641869306564,
            -0.119983971118927,
            -0.02395724132657051,
            0.10013408958911896,
            0.08055378496646881,
            -0.041149646043777466,
            0.06579993665218353,
            0.030256737023591995
        ],
        [
            0.0023427503183484077,
            0.01162724569439888,
            -0.09752220660448074,
            -0.008390582166612148,
            -0.09031625092029572,
            -0.08750742673873901,
            0.02657153643667698,
            -0.06419722735881805,
            0.11204421520233154,
            -0.02589455246925354,
            -0.04404871165752411,
            -0.032972030341625214,
            0.10555776208639145,
            -0.048525042831897736,
            0.07278568297624588,
            0.02627955563366413
        ],
        [
            0.06440843641757965,
            -0.04215618595480919,
            0.08567246794700623,
            0.03247414529323578,
            0.04414518550038338,
            -0.12320190668106079,
            0.08158207684755325,
            -0.04039076715707779,
            0.1498303860425949,
            0.008910655044019222,
            -0.09622841328382492,
            -0.1146252378821373,
            0.01788761466741562,
            0.01046416163444519,
            0.028946662321686745,
            -0.010902375914156437
        ],
        [
            0.03558264672756195,
            -0.04071908816695213,
            0.06771992146968842,
            0.015207155607640743,
            -0.06535139679908752,
            -0.07745684683322906,
            0.053090471774339676,
            -0.010812673717737198,
            0.07707834988832474,
            0.026986701413989067,
            -0.02831430919468403,
            0.06226533278822899,
            0.11990111321210861,
            -0.10359235107898712,
            0.08254603296518326,
            -0.1601536124944687
        ],
        [
            -0.04260385408997536,
            -0.1304543912410736,
            -0.1449207216501236,
            0.19053727388381958,
            0.015662023797631264,
            -0.11700650304555893,
            0.06294244527816772,
            -0.016036055982112885,
            -0.08167950063943863,
            -0.040797989815473557,
            -0.0910462737083435,
            0.002389030298218131,
            -0.027476076036691666,
            0.019841240718960762,
            -0.008014509454369545,
            -0.0193300973623991
        ],
        [
            0.11626683920621872,
            -0.14057548344135284,
            -0.08998200297355652,
            0.11453068256378174,
            -0.09724923223257065,
            -0.0026288435328751802,
            0.08521962910890579,
            -0.08256957679986954,
            0.209894597530365,
            -0.15151455998420715,
            -0.06542406976222992,
            0.11110205948352814,
            0.03918454796075821,
            -0.15391004085540771,
            0.1085352823138237,
            0.061301905661821365
        ],
        [
            -0.12372082471847534,
            0.02615087665617466,
            0.022204875946044922,
            0.060906585305929184,
            0.008432822301983833,
            -0.06731418520212173,
            0.08779589831829071,
            0.008214671164751053,
            0.036580488085746765,
            0.06377992779016495,
            0.029664477333426476,
            0.07539880275726318,
            0.04347005859017372,
            0.02560645341873169,
            0.05777151882648468,
            -0.09682878851890564
        ],
        [
            -0.07649040222167969,
            -0.12490488588809967,
            0.035554438829422,
            -0.05996956676244736,
            -0.04438058286905289,
            -0.00441367644816637,
            -0.006148612592369318,
            -0.14778974652290344,
            -0.1057015135884285,
            -0.0677022635936737,
            0.08231590688228607,
            -0.032502442598342896,
            0.08359310775995255,
            -0.050005942583084106,
            -0.05542416125535965,
            0.07002870738506317
        ],
        [
            0.0190658587962389,
            -0.16253618896007538,
            0.07521239668130875,
            0.042954280972480774,
            -0.013389769941568375,
            0.0070864236913621426,
            0.05722375586628914,
            -0.1276245266199112,
            0.1801396608352661,
            -0.11250381171703339,
            0.07484029978513718,
            0.13489028811454773,
            0.06794291734695435,
            -0.08931229263544083,
            0.11581505089998245,
            -0.0661945790052414
        ],
        [
            -0.0022950887214392424,
            -0.0788557156920433,
            0.0724179819226265,
            -0.006471705157309771,
            0.13704627752304077,
            0.004919068887829781,
            -0.07026409357786179,
            0.014247579500079155,
            0.04915880411863327,
            0.024969980120658875,
            0.05352829396724701,
            -0.07161134481430054,
            0.06372430175542831,
            -0.02485509216785431,
            -0.0331130288541317,
            -0.04322449117898941
        ],
        [
            0.0005717925378121436,
            0.005462537053972483,
            -0.01053727325052023,
            -0.12468437105417252,
            0.07468429207801819,
            -0.10865986347198486,
            -0.18636342883110046,
            -0.009189870208501816,
            -0.022534362971782684,
            -0.03548983857035637,
            -0.08283891528844833,
            0.04743747413158417,
            0.038296449929475784,
            0.037323448807001114,
            -0.10009019821882248,
            0.013216820545494556
        ],
        [
            0.046265073120594025,
            -0.13033682107925415,
            -0.04769449308514595,
            -0.05098032206296921,
            -0.04978710785508156,
            -0.07422024011611938,
            0.22228042781352997,
            0.08857934176921844,
            0.07536202669143677,
            0.22598877549171448,
            0.01621595025062561,
            0.017306581139564514,
            -0.04452765733003616,
            0.043566301465034485,
            0.06136573478579521,
            -0.19617591798305511
        ],
        [
            0.05012349784374237,
            -0.015292600728571415,
            -0.003099489025771618,
            0.138702854514122,
            0.07082638144493103,
            -0.25308337807655334,
            0.10356327891349792,
            -0.21402491629123688,
            -0.09483149647712708,
            -0.04940332844853401,
            0.1605735421180725,
            0.1987009048461914,
            0.06641094386577606,
            -0.17679636180400848,
            0.0756106972694397,
            0.06812717020511627
        ],
        [
            0.04103797301650047,
            -0.07474830746650696,
            0.1025608703494072,
            -0.023327697068452835,
            -0.05454850569367409,
            -0.08874952793121338,
            0.0726652517914772,
            -0.09320733696222305,
            0.09786529839038849,
            -0.09140542894601822,
            0.0742456242442131,
            -0.053578030318021774,
            0.06523628532886505,
            -0.06946877390146255,
            0.11110476404428482,
            0.03871902450919151
        ],
        [
            0.044940464198589325,
            -0.03881311044096947,
            -0.08600905537605286,
            -0.029218118637800217,
            -0.0901968851685524,
            -0.014869526028633118,
            0.10954432189464569,
            0.003635082393884659,
            0.016553590074181557,
            0.06778622418642044,
            -0.11033980548381805,
            -0.029867419973015785,
            0.017825448885560036,
            0.0201072096824646,
            0.22350017726421356,
            -0.03173352777957916
        ],
        [
            0.05898653343319893,
            -0.1571010798215866,
            0.18753032386302948,
            0.22251653671264648,
            0.01557142287492752,
            -0.042648494243621826,
            -0.01186465471982956,
            -0.11642768979072571,
            -0.01230594702064991,
            -0.07707531005144119,
            0.05572344735264778,
            0.1031622514128685,
            0.07004158198833466,
            -0.026259271427989006,
            -0.20282591879367828,
            -0.09007832407951355
        ],
        [
            0.00508114555850625,
            -0.03701641038060188,
            0.10758613049983978,
            0.028774969279766083,
            0.0923423171043396,
            -0.05933928117156029,
            0.004551034886389971,
            0.07133428752422333,
            0.012880639173090458,
            -0.001039318391121924,
            0.0658985823392868,
            -0.08011224865913391,
            -0.039249055087566376,
            -0.004458914045244455,
            0.03473660722374916,
            0.03873451426625252
        ],
        [
            0.09244073927402496,
            0.035072147846221924,
            0.07011263817548752,
            -0.0005531440256163478,
            0.039001695811748505,
            -0.010019027628004551,
            0.04130806773900986,
            -0.002566431649029255,
            -0.04818734526634216,
            -0.04358022287487984,
            0.08710794895887375,
            0.04876968264579773,
            -0.04043807461857796,
            -0.12006145715713501,
            0.047311000525951385,
            -0.013837635517120361
        ],
        [
            0.0649506077170372,
            0.043932363390922546,
            -0.04351168870925903,
            0.09120861440896988,
            0.01598045788705349,
            -0.19596748054027557,
            0.08041606098413467,
            -0.14361678063869476,
            -0.006555553991347551,
            0.14558884501457214,
            0.03261301666498184,
            -0.0047936649061739445,
            0.05034853518009186,
            -0.09672881662845612,
            0.10417869687080383,
            0.0486983060836792
        ],
        [
            -0.08755385130643845,
            -0.13105842471122742,
            0.08026114851236343,
            0.07867513597011566,
            0.04061620682477951,
            -0.022230837494134903,
            -0.17313314974308014,
            -0.038655735552310944,
            0.07072139531373978,
            -0.018323520198464394,
            0.18755872547626495,
            0.20514069497585297,
            0.09427431970834732,
            -0.15044254064559937,
            -0.03756232559680939,
            -0.06652285903692245
        ],
        [
            -0.12090364098548889,
            -0.11361224204301834,
            0.037687428295612335,
            0.12092195451259613,
            0.07801114022731781,
            -0.06371811777353287,
            -0.0035181455314159393,
            -0.082170769572258,
            0.1586248278617859,
            0.09230417758226395,
            -0.013956709764897823,
            -0.0229315385222435,
            0.0996881052851677,
            -0.0690697655081749,
            0.1653045266866684,
            -0.05229231342673302
        ],
        [
            0.04862387105822563,
            -0.08101732283830643,
            0.04423831030726433,
            0.0046632057055830956,
            0.023241396993398666,
            -0.07709050923585892,
            -0.01325421966612339,
            0.03279666230082512,
            -0.00748036801815033,
            0.0003056273271795362,
            0.04964202269911766,
            -0.029895609244704247,
            -0.11712680011987686,
            0.032542068511247635,
            0.03207355737686157,
            -0.07743355631828308
        ],
        [
            -0.05403764173388481,
            -0.05856214091181755,
            0.05679067224264145,
            0.024319102987647057,
            0.11577557027339935,
            -0.0911853089928627,
            -0.06519880145788193,
            0.05691612511873245,
            0.04175170138478279,
            0.10470622032880783,
            0.08329735696315765,
            -0.02899833396077156,
            0.12187516689300537,
            0.02692166343331337,
            -0.0700407549738884,
            -0.06356862187385559
        ],
        [
            0.11122698336839676,
            0.050784882158041,
            -0.01462800893932581,
            0.11762763559818268,
            -0.13079550862312317,
            -0.09129960089921951,
            0.10462614893913269,
            0.009981712326407433,
            0.0613810196518898,
            -0.006753853522241116,
            0.003039291361346841,
            -0.07571887224912643,
            -0.02639339677989483,
            0.02451673522591591,
            0.05385950207710266,
            0.08147777616977692
        ],
        [
            -0.05482988432049751,
            -0.051420096307992935,
            -0.03997410461306572,
            0.08114583790302277,
            -0.05069120600819588,
            -0.13173620402812958,
            0.08579013496637344,
            0.008853034116327763,
            -0.007733571343123913,
            0.04872159659862518,
            -0.00026018591597676277,
            -0.030008217319846153,
            0.051457230001688004,
            0.011792970821261406,
            0.010821538977324963,
            0.002967266831547022
        ],
        [
            0.023775452747941017,
            0.08702880144119263,
            0.16931666433811188,
            -0.03408398851752281,
            -0.013854525052011013,
            -0.01252670492976904,
            -0.04091411828994751,
            0.12449143826961517,
            -0.06846729665994644,
            0.028846601024270058,
            -0.007181576918810606,
            0.13937366008758545,
            -0.03823678940534592,
            -0.1118677407503128,
            0.06057719141244888,
            -0.10041998326778412
        ],
        [
            0.09080246835947037,
            0.05981479957699776,
            0.07062895596027374,
            -0.024066828191280365,
            -0.04181805998086929,
            0.01665494590997696,
            0.045190613716840744,
            -0.13531439006328583,
            -0.1356513500213623,
            0.11366692930459976,
            -0.020461058244109154,
            0.02624886855483055,
            -0.06973389536142349,
            0.042814649641513824,
            0.076864093542099,
            0.009503490291535854
        ],
        [
            0.022203657776117325,
            -0.04026586562395096,
            0.09091115742921829,
            0.08508260548114777,
            0.013867491856217384,
            0.08584681898355484,
            0.0253980103880167,
            -0.03327552229166031,
            -0.08822965621948242,
            -0.11510568112134933,
            0.017105454578995705,
            0.04575307294726372,
            -0.0444762296974659,
            -0.007284625433385372,
            0.0476052425801754,
            -0.06776323914527893
        ],
        [
            0.0008789795683696866,
            0.07940354198217392,
            0.07374804466962814,
            -0.05050608888268471,
            0.043172743171453476,
            0.09182750433683395,
            -0.052127908915281296,
            -0.06474867463111877,
            -0.13271594047546387,
            -0.06081894785165787,
            0.07120268791913986,
            0.11160779744386673,
            -0.035414647310972214,
            0.1497873216867447,
            -0.11268086731433868,
            0.13935522735118866
        ],
        [
            -0.02955647185444832,
            -0.027830472216010094,
            -0.0634923055768013,
            -0.07573723793029785,
            0.0977550745010376,
            -0.1060095876455307,
            0.08652118593454361,
            -0.06681470572948456,
            -0.0687389150261879,
            -0.05198846384882927,
            -0.011355375871062279,
            0.2240043580532074,
            -0.020591039210557938,
            -0.11822835355997086,
            0.06527342647314072,
            0.10474743694067001
        ],
        [
            -0.029380768537521362,
            0.0035708260256797075,
            0.011448049917817116,
            0.08084697276353836,
            0.06442425400018692,
            -0.03254013508558273,
            -0.048878587782382965,
            0.029688557609915733,
            -0.048848628997802734,
            0.0027342878747731447,
            -0.025685293599963188,
            0.06991448998451233,
            0.07910647988319397,
            0.05050664022564888,
            0.015455678105354309,
            -0.0008957262034527957
        ],
        [
            0.03448406234383583,
            -0.07843124866485596,
            0.10033507645130157,
            -0.0016444384818896651,
            -0.10468260198831558,
            0.03540810942649841,
            -0.008988565765321255,
            -0.0042729503475129604,
            -0.06439147144556046,
            -0.0926872193813324,
            -0.018549064174294472,
            0.11751162260770798,
            -0.00978371687233448,
            -0.1506536304950714,
            -0.020778872072696686,
            0.11435704678297043
        ],
        [
            -0.004466603975743055,
            0.05403250828385353,
            -0.00013626027794089168,
            0.0804596096277237,
            0.009530012495815754,
            -0.04358970373868942,
            -0.09834805130958557,
            -0.09977948665618896,
            0.08484677970409393,
            -0.009896868839859962,
            0.018334317952394485,
            0.12418822944164276,
            0.08072555065155029,
            -0.03416938707232475,
            -0.10873384028673172,
            -0.025588249787688255
        ],
        [
            -0.001043496304191649,
            -0.028606262058019638,
            0.0430341511964798,
            0.05273282527923584,
            -0.03950740396976471,
            -0.04604269191622734,
            -0.013183075934648514,
            -0.034417424350976944,
            -0.05321324244141579,
            0.055693164467811584,
            0.041766874492168427,
            -0.014883607625961304,
            -0.03795083984732628,
            -0.004286952316761017,
            0.08379893004894257,
            -0.007103091571480036
        ],
        [
            0.07807034254074097,
            0.07698287069797516,
            -0.09521529078483582,
            -0.06169888377189636,
            -0.06433676183223724,
            0.0208770539611578,
            0.029979409649968147,
            -0.08312900364398956,
            -0.08302010595798492,
            -0.04974664747714996,
            0.10185068100690842,
            -0.06448584794998169,
            0.0927267074584961,
            -0.056337155401706696,
            0.052988193929195404,
            0.04076443612575531
        ],
        [
            0.024861285462975502,
            0.038644738495349884,
            0.0024586522486060858,
            -0.007111379876732826,
            -0.060175053775310516,
            0.005471099633723497,
            -0.08212423324584961,
            0.06214243546128273,
            0.03982863202691078,
            -0.08896561712026596,
            -0.08848653733730316,
            -0.11522365361452103,
            -0.004690241068601608,
            0.11689776927232742,
            0.12346191704273224,
            0.023496046662330627
        ],
        [
            0.08251706510782242,
            -0.011358540505170822,
            -0.024893317371606827,
            0.05523233115673065,
            -0.025086944922804832,
            -0.015431277453899384,
            0.014630061574280262,
            -0.06189816817641258,
            0.017353568226099014,
            0.0753631442785263,
            -0.0815638080239296,
            -0.09063488990068436,
            -0.100924052298069,
            0.08040751516819,
            -0.05270988121628761,
            -0.058546580374240875
        ],
        [
            0.014010758139193058,
            -0.06547079980373383,
            -0.0473017618060112,
            -0.02654283680021763,
            0.051188863813877106,
            0.010740416124463081,
            0.017524922266602516,
            0.04020579531788826,
            0.0709981843829155,
            0.03999319300055504,
            0.023986658081412315,
            -0.12592703104019165,
            -0.05029483512043953,
            -0.04041551053524017,
            -0.0028558517806231976,
            -0.075271375477314
        ],
        [
            -0.07444653660058975,
            0.012765157967805862,
            0.058888696134090424,
            -0.014419060200452805,
            0.024874592199921608,
            0.03571370616555214,
            -0.07268651574850082,
            -0.057495009154081345,
            0.07238861918449402,
            -0.061426565051078796,
            0.09212196618318558,
            -0.061851754784584045,
            -0.018652040511369705,
            -0.0013278333935886621,
            -0.029570769518613815,
            -0.03083304688334465
        ],
        [
            0.09706674516201019,
            -0.08526943624019623,
            -0.04696311056613922,
            0.07788567245006561,
            0.025223517790436745,
            -0.02554810792207718,
            -0.09672769904136658,
            -0.024808993563055992,
            0.08549954742193222,
            -0.03180990740656853,
            -0.06076768785715103,
            0.09253885596990585,
            0.04405862092971802,
            0.10724429786205292,
            -0.06596988439559937,
            -0.10942748934030533
        ],
        [
            0.00694255530834198,
            0.003585150931030512,
            -0.08777052909135818,
            0.051279645413160324,
            0.038197942078113556,
            -0.032671622931957245,
            0.0455244816839695,
            0.11225833743810654,
            -0.09057633578777313,
            0.022787347435951233,
            -0.061676107347011566,
            -0.06021668389439583,
            0.05407410115003586,
            0.03857532516121864,
            -0.04548504203557968,
            0.08376028388738632
        ],
        [
            -0.10140611976385117,
            -0.004795158747583628,
            0.09532186388969421,
            -0.045906465500593185,
            0.031780652701854706,
            -0.040595393627882004,
            -0.06716479361057281,
            -0.04682229086756706,
            0.010206947103142738,
            0.04479527100920677,
            -0.06380175799131393,
            -0.011548650451004505,
            -0.032149288803339005,
            0.04785310477018356,
            -0.0020707729272544384,
            -0.010857902467250824
        ],
        [
            0.12172502279281616,
            0.03732723370194435,
            -0.06796622276306152,
            0.0681333914399147,
            0.11810151487588882,
            0.09709463268518448,
            -0.08169898390769958,
            -0.04671956226229668,
            0.020445387810468674,
            -0.07799173146486282,
            -0.12277129292488098,
            -0.0011455146595835686,
            -0.005651514045894146,
            -0.02122320607304573,
            0.09234826266765594,
            0.09051824361085892
        ],
        [
            0.06093701720237732,
            0.03065035492181778,
            0.02017790451645851,
            0.01914379373192787,
            -0.09113920480012894,
            0.016408979892730713,
            0.040363021194934845,
            -0.016083139926195145,
            0.08653188496828079,
            -0.010849924758076668,
            -0.010137188248336315,
            0.10308416932821274,
            0.0506582111120224,
            0.07246073335409164,
            0.10843801498413086,
            -0.0037951108533889055
        ],
        [
            0.08055489510297775,
            -0.10017295181751251,
            -0.06669507920742035,
            -0.0032365641091018915,
            -0.010556028224527836,
            0.07565373182296753,
            0.0915284976363182,
            0.08440656960010529,
            0.05604911595582962,
            -0.10713899880647659,
            0.07563414424657822,
            0.10947059839963913,
            0.1130862608551979,
            0.056668706238269806,
            -0.08831794559955597,
            -0.1257852017879486
        ],
        [
            0.08988656848669052,
            0.015162444673478603,
            -0.07530087977647781,
            -0.048526227474212646,
            -0.01651289500296116,
            0.03475038707256317,
            0.02760617807507515,
            0.0567827932536602,
            -0.025477491319179535,
            -0.03921373561024666,
            0.005474653095006943,
            0.09367696940898895,
            -0.01779879443347454,
            -0.05267913267016411,
            -0.034634992480278015,
            0.06516393274068832
        ],
        [
            0.03599786385893822,
            -0.05577584728598595,
            0.05656047537922859,
            0.06687171757221222,
            -0.11116934567689896,
            -0.0399516299366951,
            -0.00836655218154192,
            0.00818583182990551,
            0.08811987936496735,
            0.0030003751162439585,
            -0.02978755347430706,
            0.03146472945809364,
            0.049600616097450256,
            -0.04505673795938492,
            0.09353223443031311,
            -0.03245387598872185
        ],
        [
            -0.042941343039274216,
            -0.008069584146142006,
            0.12327886372804642,
            0.002325932728126645,
            0.035326335579156876,
            0.010529273189604282,
            -0.11395389586687088,
            0.050388872623443604,
            0.10665090382099152,
            0.09291887283325195,
            -0.08127006888389587,
            -0.07365822046995163,
            -0.10461708158254623,
            0.07163121551275253,
            0.07132978737354279,
            0.04048528894782066
        ],
        [
            -0.010264030657708645,
            -0.1085280254483223,
            -0.015071820467710495,
            -0.07674195617437363,
            -0.06649602204561234,
            -0.10459929704666138,
            0.08850298821926117,
            -0.028617210686206818,
            -0.05111907422542572,
            -0.029660474509000778,
            0.016289623454213142,
            0.0870724692940712,
            -0.05447355657815933,
            0.061938583850860596,
            -0.04209619387984276,
            0.11203356832265854
        ],
        [
