{
    "conv.conv.weight": [
        [
            [
                -0.13390134274959564,
                -0.06108502298593521,
                0.07082806527614594,
                0.05552054941654205,
                -0.03391261026263237,
                -0.0385265052318573,
                -0.04344109818339348,
                -0.1044161394238472,
                -0.07429952919483185,
                0.057062212377786636,
                0.0024904487654566765,
                0.086727574467659,
                0.020347919315099716,
                -0.03844553604722023,
                -0.035024940967559814,
                -0.05842746049165726,
                -0.12066478282213211,
                -0.028530700132250786,
                -0.07822658866643906,
                0.013207092881202698,
                -0.12863823771476746,
                -0.06224992871284485,
                0.047917794436216354,
                -0.057144295424222946,
                -0.11178916692733765,
                0.06171479821205139,
                0.09031934291124344,
                -0.11048266291618347,
                -0.13226518034934998,
                -0.08566390722990036,
                0.388089120388031
            ]
        ],
        [
            [
                0.029287105426192284,
                0.02928377315402031,
                0.00025901239132508636,
                -0.006941742263734341,
                0.03883149102330208,
                0.025168685242533684,
                -0.008772273547947407,
                0.08394160121679306,
                -0.0892857238650322,
                0.055410031229257584,
                -0.008179407566785812,
                -0.04725455865263939,
                -0.00030473360675387084,
                0.07603136450052261,
                0.03513627126812935,
                -0.04399070143699646,
                0.016077717766165733,
                -0.01343554351478815,
                0.00029458149219863117,
                -0.03570561856031418,
                -0.03899182379245758,
                -0.038695305585861206,
                -0.04254972189664841,
                -0.025826865807175636,
                0.015194703824818134,
                -0.11368057131767273,
                -0.0232849158346653,
                -0.0900411382317543,
                0.09227585792541504,
                0.014841746538877487,
                0.5032168626785278
            ]
        ],
        [
            [
                0.04057183489203453,
                0.0105541767552495,
                0.021417956799268723,
                -0.06548269838094711,
                0.010304826311767101,
                0.033446237444877625,
                -0.013303346931934357,
                -0.027894683182239532,
                0.11762892454862595,
                0.06959521770477295,
                -0.07547183334827423,
                0.15244826674461365,
                0.061581891030073166,
                -0.03853573277592659,
                -0.06379575282335281,
                -0.05416259914636612,
                0.02274521254003048,
                -0.08847533911466599,
                0.035810939967632294,
                -0.09491705894470215,
                0.10179303586483002,
                -0.029787320643663406,
                -0.15001390874385834,
                -0.17016983032226562,
                -0.07951764017343521,
                -0.10543673485517502,
                0.141342893242836,
                -0.016316639259457588,
                0.017664700746536255,
                -0.014072929508984089,
                -0.45056894421577454
            ]
        ],
        [
            [
                -0.039934445172548294,
                -0.02278548665344715,
                0.03077814169228077,
                -0.11068280786275864,
                -0.006673323921859264,
                0.07106945663690567,
                -0.07084300369024277,
                0.10152488201856613,
                -0.027431156486272812,
                0.1328343003988266,
                -0.05914577096700668,
                0.10142846405506134,
                -0.08599771559238434,
                0.144923597574234,
                0.11693792790174484,
                0.020035305991768837,
                -0.1330125331878662,
                -0.0010053250007331371,
                -0.03072984144091606,
                0.09650802612304688,
                -0.0203739944845438,
                -0.027975769713521004,
                0.033575013279914856,
                -0.07880944013595581,
                -0.023885460570454597,
                -0.04759925976395607,
                0.108498215675354,
                0.05731507018208504,
                0.12623979151248932,
                0.005130506586283445,
                -0.3907337486743927
            ]
        ],
        [
            [
                0.0975010022521019,
                -0.047066181898117065,
                -0.08346636593341827,
                0.006271387916058302,
                0.06342437118291855,
                0.07008770108222961,
                0.043081555515527725,
                0.09448815137147903,
                -0.12350822985172272,
                0.06281272321939468,
                -0.10788773745298386,
                -0.09348248690366745,
                -0.1378614902496338,
                0.04723549634218216,
                0.03891361132264137,
                -0.06161629036068916,
                -0.14363263547420502,
                -0.04929063841700554,
                0.11957761645317078,
                0.10361930727958679,
                -0.005901279393583536,
                0.07612650841474533,
                0.0371544323861599,
                -0.0874464139342308,
                0.11730115115642548,
                -0.07305707037448883,
                0.0398242212831974,
                0.0009062758763320744,
                0.10172633826732635,
                0.05925453454256058,
                -0.4606223702430725
            ]
        ],
        [
            [
                0.022608015686273575,
                -0.022011112421751022,
                0.032611217349767685,
                -0.006134111434221268,
                -0.021136650815606117,
                -0.02205526828765869,
                0.0067589664831757545,
                -0.028773639351129532,
                0.009576402604579926,
                0.0019004095811396837,
                -0.05233030766248703,
                0.033945102244615555,
                0.017532670870423317,
                0.015097317285835743,
                0.01828870363533497,
                -0.039960410445928574,
                -0.005513614043593407,
                0.040994297713041306,
                -0.00980327371507883,
                -0.04161340743303299,
                0.013293133117258549,
                -0.04471417888998985,
                -0.0354403480887413,
                -0.00504969572648406,
                -0.06351316720247269,
                -0.013717859983444214,
                -0.017383592203259468,
                0.0003947694494854659,
                0.017001939937472343,
                0.04608041048049927,
                0.024424245581030846
            ]
        ],
        [
            [
                -0.02846812643110752,
                0.02952028065919876,
                0.042329397052526474,
                -0.01582731306552887,
                0.0073154391720891,
                0.10146482288837433,
                -0.05193711817264557,
                0.0076654450967907906,
                -0.00979579146951437,
                -0.011729815043509007,
                0.04565621167421341,
                0.10576866567134857,
                0.08362289518117905,
                0.06470571458339691,
                -0.0038633691146969795,
                0.0025097564794123173,
                -0.0027893458027392626,
                0.006270595360547304,
                -0.09181878715753555,
                -0.008918331936001778,
                -0.07509519904851913,
                -0.0460013821721077,
                -0.08213852345943451,
                0.10375561565160751,
                -0.016297366470098495,
                0.08220727741718292,
                -0.030754446983337402,
                -0.03736323118209839,
                -0.002723733428865671,
                0.10565132647752762,
                0.2670880854129791
            ]
        ],
        [
            [
                0.008430960588157177,
                0.0251638051122427,
                0.0798482745885849,
                0.04669240117073059,
                0.07715144753456116,
                0.06519075483083725,
                0.032110221683979034,
                0.009114461950957775,
                0.027662767097353935,
                -0.10015542805194855,
                -0.06083061546087265,
                0.05473208427429199,
                -0.0063240667805075645,
                0.11049073934555054,
                0.04983869567513466,
                -0.014640255831182003,
                -0.0869273692369461,
                0.16409288346767426,
                -0.1119331568479538,
                -0.0469677560031414,
                -0.04659246280789375,
                -0.09063457697629929,
                -0.09858772903680801,
                0.06672488898038864,
                -0.16724315285682678,
                -0.02912348136305809,
                -0.12614573538303375,
                -0.056819550693035126,
                -0.07053901255130768,
                0.03272194787859917,
                -0.4169371724128723
            ]
        ],
        [
            [
                -0.05962057039141655,
                0.05615019053220749,
                -0.0453232042491436,
                0.007536664605140686,
                -0.06727681308984756,
                -0.09585435688495636,
                0.0645635724067688,
                -0.008856731466948986,
                0.030329057946801186,
                -0.1060669869184494,
                0.17164571583271027,
                -0.11730672419071198,
                0.0815543532371521,
                0.09585360437631607,
                0.05939300358295441,
                -0.01876792684197426,
                0.05905537307262421,
                0.11524026840925217,
                -0.13988956809043884,
                0.02617902308702469,
                -0.03684154897928238,
                -0.0722750648856163,
                0.09105940163135529,
                0.0506429485976696,
                0.04229969531297684,
                0.17179635167121887,
                0.06341416388750076,
                0.0447123758494854,
                -0.09360916167497635,
                0.109716035425663,
                -0.42318564653396606
            ]
        ],
        [
            [
                0.058320194482803345,
                -0.033746786415576935,
                0.0694696456193924,
                -0.014221258461475372,
                -0.02702697180211544,
                0.0009713852196000516,
                -0.05574776604771614,
                0.009675509296357632,
                -0.046756766736507416,
                0.03198045492172241,
                0.04890770837664604,
                0.07485867291688919,
                0.09734662622213364,
                -0.06315642595291138,
                -0.018230196088552475,
                0.0073472983203828335,
                0.1567620038986206,
                -0.07858600467443466,
                0.03033493459224701,
                -0.06432371586561203,
                -0.04113837704062462,
                -0.03136443346738815,
                -0.032723840326070786,
                0.07989533990621567,
                0.037976302206516266,
                0.0870697945356369,
                -0.0796891525387764,
                0.10117201507091522,
                0.019163008779287338,
                0.08095476031303406,
                -0.38974159955978394
            ]
        ],
        [
            [
                -0.055329885333776474,
                0.04145262762904167,
                -0.016929982230067253,
                0.05585954338312149,
                0.05227813497185707,
                -0.12394358962774277,
                0.07006295770406723,
                0.02591569535434246,
                0.01996898464858532,
                0.0256639551371336,
                0.046120986342430115,
                -0.08921787142753601,
                -0.0003915656416211277,
                -0.022549910470843315,
                0.014717341400682926,
                0.044518109411001205,
                0.13699409365653992,
                -0.017693042755126953,
                -0.02464691735804081,
                -0.03875909373164177,
                -0.04814445227384567,
                -0.08053641766309738,
                0.06890593469142914,
                -0.05789725482463837,
                -0.10324512422084808,
                -0.1270928531885147,
                -0.0133269177749753,
                -0.07259229570627213,
                -0.062453240156173706,
                -0.11169728636741638,
                0.24015970528125763
            ]
        ],
        [
            [
                0.01650354266166687,
                -0.002689085900783539,
                -0.02882128208875656,
                0.04108082503080368,
                -0.002919070888310671,
                -0.06675908714532852,
                0.06069548800587654,
                -0.05397041514515877,
                0.01920897141098976,
                -0.030183710157871246,
                -0.03292705491185188,
                -0.0576496347784996,
                0.007926766760647297,
                -0.025197943672537804,
                -0.04254479706287384,
                -0.03746158257126808,
                0.02190237306058407,
                0.03462731093168259,
                -0.0030216570012271404,
                -0.025274885818362236,
                -0.004130455665290356,
                -0.007950597442686558,
                -0.008904149755835533,
                0.047069236636161804,
                -0.02942076325416565,
                0.0620681457221508,
                0.015856532379984856,
                0.06261662393808365,
                0.07364004105329514,
                0.08705541491508484,
                0.03676402568817139
            ]
        ],
        [
            [
                0.06177536025643349,
                0.038482945412397385,
                -0.012544789351522923,
                0.026046253740787506,
                0.11744730919599533,
                0.17976130545139313,
                0.034735869616270065,
                0.05578264966607094,
                0.1211467832326889,
                -0.1383303552865982,
                0.04144906625151634,
                0.05832824483513832,
                -0.0618353933095932,
                -0.03401748836040497,
                0.01158206257969141,
                0.10657341778278351,
                -0.14144732058048248,
                0.005647299345582724,
                0.0591558963060379,
                0.043309979140758514,
                0.08595319092273712,
                0.11896280199289322,
                -0.026613684371113777,
                -0.044784512370824814,
                0.14195938408374786,
                -0.0022651145700365305,
                0.07817485928535461,
                0.07178598642349243,
                0.04085560888051987,
                -0.03211596980690956,
                0.46271568536758423
            ]
        ],
        [
            [
                0.002576751634478569,
                0.019896529614925385,
                0.05721285566687584,
                0.0020186647307127714,
                0.0417168028652668,
                0.042801789939403534,
                -0.061998896300792694,
                0.03480852022767067,
                -0.026817014440894127,
                0.062246888875961304,
                0.007359708193689585,
                0.07985299080610275,
                0.016606107354164124,
                -0.03534821793437004,
                -0.02816595323383808,
                0.056352172046899796,
                0.03709905594587326,
                -0.07135830819606781,
                0.03242634981870651,
                -0.04661105200648308,
                -0.033300697803497314,
                0.009844576939940453,
                -0.0522860512137413,
                0.010252081789076328,
                0.020527588203549385,
                -0.08026710152626038,
                -0.015754520893096924,
                -0.05020421743392944,
                0.047802310436964035,
                -0.046443067491054535,
                -0.01248937752097845
            ]
        ],
        [
            [
                0.06371705234050751,
                -0.02071666158735752,
                -0.037322789430618286,
                -0.06500747799873352,
                -0.0683925673365593,
                0.05588340386748314,
                -0.036256637424230576,
                -0.021196745336055756,
                -0.05553345009684563,
                0.03589927777647972,
                -0.08212608098983765,
                0.022787757217884064,
                0.02415708638727665,
                0.08182734996080399,
                -0.019869180396199226,
                -0.1080203503370285,
                -0.08098123222589493,
                0.0211628545075655,
                0.014344763942062855,
                0.020493628457188606,
                0.026950456202030182,
                0.023476792499423027,
                -0.0967424288392067,
                0.02619866281747818,
                0.05420948937535286,
                0.020733505487442017,
                -0.016158053651452065,
                -0.06797057390213013,
                -0.022174540907144547,
                -0.06713883578777313,
                0.2919226586818695
            ]
        ],
        [
            [
                -0.06481409817934036,
                0.024734091013669968,
                0.012008827179670334,
                0.11420584470033646,
                0.07490687817335129,
                0.06510154157876968,
                -0.02665296010673046,
                -0.04242147132754326,
                -0.026814637705683708,
                -0.0654856413602829,
                0.06727997213602066,
                -0.019350631162524223,
                -0.034860435873270035,
                -0.14214737713336945,
                -0.07732178270816803,
                0.0882718488574028,
                -0.08363576233386993,
                -0.05539070442318916,
                0.052944380789995193,
                -0.0060175638645887375,
                -0.02012747712433338,
                0.1215033009648323,
                0.036058299243450165,
                0.0249540526419878,
                0.0993025153875351,
                -0.05428668111562729,
                0.00821550190448761,
                -0.11410488188266754,
                0.0746680423617363,
                0.1300380975008011,
                -0.4584885537624359
            ]
        ]
    ],
    "conv.conv.bias": [
        0.04275130853056908,
        0.05657130479812622,
        0.0037875387351959944,
        0.19609403610229492,
        -0.1377408355474472,
        -0.13067804276943207,
        -0.17492954432964325,
        0.056591615080833435,
        -0.22456353902816772,
        0.24309344589710236,
        0.1259622573852539,
        0.10785576701164246,
        0.11546622961759567,
        -0.27845486998558044,
        0.2267746925354004,
        0.2485739141702652
    ],
    "gru.weight_ih_l0": [
        [
            0.21507598459720612,
            0.31703829765319824,
            -0.0891985148191452,
            -0.20196743309497833,
            -0.012368977069854736,
            0.03261306881904602,
            -0.09684118628501892,
            -0.22553572058677673,
            -0.044339437037706375,
            -0.12827935814857483,
            0.024509277194738388,
            -0.07510299980640411,
            0.1991947889328003,
            -0.1337532103061676,
            -0.04501241818070412,
            -0.3427882194519043,
            0.28304198384284973
        ],
        [
            -0.04205825552344322,
            0.05404944345355034,
            -0.055819131433963776,
            -0.016725750640034676,
            -0.04052815958857536,
            -0.10146966576576233,
            -0.03993745893239975,
            -0.06521487981081009,
            0.052295517176389694,
            -0.13606198132038116,
            -0.11243972182273865,
            0.034067049622535706,
            -0.08042984455823898,
            0.05099160596728325,
            0.07473506778478622,
            0.010562924668192863,
            0.036035940051078796
        ],
        [
            0.020645054057240486,
            -0.16756831109523773,
            0.10656008869409561,
            -0.11555301398038864,
            0.0894034206867218,
            0.17043308913707733,
            0.011441086418926716,
            0.13560353219509125,
            0.09228219836950302,
            -0.05639567971229553,
            -0.16656114161014557,
            -0.09690148383378983,
            -0.12138848751783371,
            0.02894529700279236,
            -0.04654659330844879,
            0.002897863509133458,
            -0.10384451597929001
        ],
        [
            0.020051447674632072,
            -0.039412084966897964,
            -0.03248745948076248,
            -0.14034898579120636,
            0.077400341629982,
            0.13446085155010223,
            0.19431650638580322,
            -0.09112179279327393,
            -0.10484375059604645,
            -0.04525545611977577,
            0.019753582775592804,
            -0.13496938347816467,
            -0.055700238794088364,
            -0.21979111433029175,
            -0.08339216560125351,
            0.03469175845384598,
            -0.1659480631351471
        ],
        [
            0.21697595715522766,
            0.15265080332756042,
            0.031425368040800095,
            0.4720112383365631,
            0.06730301678180695,
            -0.08482884615659714,
            -0.03963903337717056,
            0.25459277629852295,
            -0.23620715737342834,
            0.2728397846221924,
            -0.10835476219654083,
            0.3231467306613922,
            -0.15441268682479858,
            -0.23955892026424408,
            -0.017681283876299858,
            0.17900116741657257,
            1.1406621932983398
        ],
        [
            0.12943260371685028,
            0.05767424777150154,
            0.4180625379085541,
            -0.03794470056891441,
            -0.14351294934749603,
            -0.024843763560056686,
            -0.1601232886314392,
            0.4268898069858551,
            0.015050584450364113,
            0.07329781353473663,
            0.07952221482992172,
            -0.2338179349899292,
            0.021409621462225914,
            -0.28060057759284973,
            -0.13433170318603516,
            0.12650954723358154,
            1.253893494606018
        ],
        [
            0.013104677200317383,
            0.05007101967930794,
            -0.004435891751199961,
            0.0305569376796484,
            -0.021901387721300125,
            0.07750861346721649,
            -0.081387959420681,
            -0.030155889689922333,
            0.09528963267803192,
            -0.10273780673742294,
            -0.06932312250137329,
            0.0631372332572937,
            0.022111784666776657,
            -0.1037118136882782,
            0.08033252507448196,
            0.03453179821372032,
            -0.1726403683423996
        ],
        [
            -0.12100283056497574,
            -0.09822051227092743,
            0.17029529809951782,
            0.09808054566383362,
            0.18322838842868805,
            -0.11598503589630127,
            -0.07001809775829315,
            0.15019048750400543,
            0.2942955791950226,
            0.08284818381071091,
            -0.041075512766838074,
            0.03999822214245796,
            -0.0750509649515152,
            0.012725643813610077,
            -0.08431719243526459,
            0.15915043652057648,
            -0.10401204973459244
        ],
        [
            -0.1811351180076599,
            -0.2880546748638153,
            0.0245900209993124,
            0.3107037842273712,
            -0.004117442294955254,
            -0.09552537649869919,
            -0.22879886627197266,
            0.14721935987472534,
            0.18366526067256927,
            0.22625865042209625,
            -0.15922768414020538,
            0.0537416897714138,
            -0.20206397771835327,
            -0.18438561260700226,
            -0.029283810406923294,
            0.3955739736557007,
            -0.09520715475082397
        ],
        [
            -0.07513303309679031,
            -0.0955042615532875,
            0.11696628481149673,
            -0.14455455541610718,
            0.034268204122781754,
            0.32625728845596313,
            0.154054194688797,
            -0.08590882271528244,
            0.16626229882240295,
            -0.12556540966033936,
            -0.13170914351940155,
            0.0011916818330064416,
            0.025944367051124573,
            0.02685908041894436,
            -0.2229457050561905,
            0.023417813703417778,
            0.14749056100845337
        ],
        [
            -0.06462550163269043,
            0.024002915248274803,
            -0.010884646326303482,
            -0.013676710426807404,
            -0.008180491626262665,
            0.0687604546546936,
            0.08710560947656631,
            -0.10127553343772888,
            0.19610579311847687,
            -0.15654079616069794,
            0.10219018906354904,
            0.03747180849313736,
            0.13104818761348724,
            0.06830832362174988,
            0.004450308158993721,
            0.02430584467947483,
            -0.09090594947338104
        ],
        [
            -0.23425738513469696,
            -0.16423748433589935,
            0.04489417374134064,
            0.184065580368042,
            0.27493274211883545,
            -0.11700703203678131,
            0.13040564954280853,
            0.21572640538215637,
            0.08428842574357986,
            0.1285916566848755,
            0.02263791114091873,
            0.0590423047542572,
            -0.0874127671122551,
            -0.04181584343314171,
            0.0037609594874083996,
            0.05486944690346718,
            0.302545964717865
        ],
        [
            0.06758801639080048,
            0.0857272818684578,
            0.05006864666938782,
            -0.03352133557200432,
            -0.04364948719739914,
            0.056940462440252304,
            0.034089069813489914,
            0.10269661992788315,
            0.07221440225839615,
            0.08830095827579498,
            0.10498234629631042,
            -0.17090773582458496,
            0.04916052147746086,
            0.12809967994689941,
            -0.06703652441501617,
            -0.0072446586564183235,
            -0.09207421541213989
        ],
        [
            0.04689038544893265,
            -0.04875580593943596,
            -0.010307920165359974,
            0.08551845699548721,
            -0.16668003797531128,
            0.0076525150798261166,
            0.02452942356467247,
            -0.15685337781906128,
            -0.11598586291074753,
            -0.004262251779437065,
            -0.07891929149627686,
            -0.07007913291454315,
            0.2332785576581955,
            0.15347455441951752,
            -0.11135727167129517,
            -0.058273009955883026,
            -0.15546859800815582
        ],
        [
            0.028657564893364906,
            0.2661958932876587,
            -0.2576127052307129,
            -0.14832518994808197,
            -0.1774175763130188,
            0.12527118623256683,
            -0.0026212248485535383,
            -0.09042664617300034,
            -0.21927879750728607,
            -0.08732504397630692,
            -0.009080413728952408,
            0.14394737780094147,
            0.09724326431751251,
            0.13061316311359406,
            0.08494114875793457,
            -0.3238552212715149,
            -0.0065427739173173904
        ],
        [
            0.0347210131585598,
            -0.35367652773857117,
            -0.04921788349747658,
            0.005660585593432188,
            -0.12085359543561935,
            -0.28929567337036133,
            -0.15883731842041016,
            0.19911408424377441,
            -0.04534825310111046,
            -0.08820509910583496,
            0.27536892890930176,
            -0.11784067749977112,
            0.04061951860785484,
            0.33292636275291443,
            0.43390795588493347,
            -0.06301285326480865,
            0.15333731472492218
        ],
        [
            0.15204031765460968,
            0.011262048967182636,
            0.016633404418826103,
            0.15953600406646729,
            -0.22656485438346863,
            -0.14584241807460785,
            -0.05194617807865143,
            -0.18149396777153015,
            -0.19966654479503632,
            0.2196422666311264,
            0.1293201595544815,
            0.10337647050619125,
            0.10776576399803162,
            -0.20918826758861542,
            0.1485804170370102,
            0.4658258855342865,
            -0.4481378495693207
        ],
        [
            -0.15120376646518707,
            -0.2049335390329361,
            0.08014670014381409,
            0.1309620887041092,
            0.07741744816303253,
            0.027950165793299675,
            -0.0696171298623085,
            -0.09058552235364914,
            -0.002340182662010193,
            0.09559306502342224,
            0.03941364586353302,
            -0.064387746155262,
            -0.04544174298644066,
            0.1250559389591217,
            -0.1346769481897354,
            0.07520802319049835,
            -0.4251706004142761
        ],
        [
            -0.08526430279016495,
            -0.008251374587416649,
            -0.025922993198037148,
            -0.059830617159605026,
            -0.09212550520896912,
            -0.060209281742572784,
            0.04082540050148964,
            0.057156071066856384,
            0.08727822452783585,
            -0.18428339064121246,
            -0.05131067335605621,
            0.03686801716685295,
            -0.07262915372848511,
            0.1263691484928131,
            0.008435450494289398,
            -0.176365926861763,
            -0.19910065829753876
        ],
        [
            0.053395483642816544,
            -0.044676002115011215,
            0.07358407229185104,
            -0.03377799317240715,
            0.12834838032722473,
            0.22248589992523193,
            -0.01904257759451866,
            0.04861683398485184,
            0.16557113826274872,
            -0.01837795041501522,
            0.04918138310313225,
            -0.328093022108078,
            0.021477486938238144,
            0.2480580061674118,
            0.002667458262294531,
            0.09454143792390823,
            -0.05902478098869324
        ],
        [
            0.2439691126346588,
            0.1053914949297905,
            -0.17007185518741608,
            0.14900219440460205,
            0.13404767215251923,
            -0.3845672309398651,
            -0.2735224962234497,
            0.04643627256155014,
            -0.16366779804229736,
            0.2275717854499817,
            0.15366776287555695,
            0.30936169624328613,
            -0.08375899493694305,
            0.027959346771240234,
            0.22925257682800293,
            -0.08093201369047165,
            0.33404240012168884
        ],
        [
            -0.1824803650379181,
            -0.33085963129997253,
            0.19455184042453766,
            0.34432530403137207,
            0.06904999166727066,
            -0.25791752338409424,
            -0.19744624197483063,
            0.09519579261541367,
            0.29608410596847534,
            0.26802679896354675,
            -0.06819643825292587,
            0.14497384428977966,
            -0.24041329324245453,
            -0.12795932590961456,
            -0.07634163647890091,
            0.511727511882782,
            0.01430567167699337
        ],
        [
            0.15377521514892578,
            0.13981039822101593,
            0.07227259874343872,
            -0.3014550507068634,
            0.1990508735179901,
            0.05398331210017204,
            0.14913375675678253,
            0.024356238543987274,
            0.15103627741336823,
            -0.024465937167406082,
            0.009738747961819172,
            -0.3365287482738495,
            -0.02482707053422928,
            0.09386813640594482,
            -0.17779941856861115,
            -0.10079262405633926,
            -0.16180169582366943
        ],
        [
            0.0737544372677803,
            0.1110926941037178,
            0.0752662792801857,
            -0.12838102877140045,
            -0.09118511527776718,
            -0.18144023418426514,
            -0.013917759992182255,
            -0.17619092762470245,
            -0.15010790526866913,
            -0.22197949886322021,
            0.17473667860031128,
            -0.002388175344094634,
            -0.009320550598204136,
            0.08864831179380417,
            0.12408944219350815,
            -0.1329130083322525,
            0.49764204025268555
        ],
        [
            0.19582238793373108,
            0.234145849943161,
            0.17301331460475922,
            -0.03069084882736206,
            -0.15917843580245972,
            0.039774034172296524,
            -0.21577750146389008,
            0.4397765100002289,
            -0.10969073325395584,
            -0.07565773278474808,
            0.28195393085479736,
            0.0386262908577919,
            -0.08161306381225586,
            -0.16280217468738556,
            0.004570417571812868,
            0.11543507874011993,
            -0.1247297078371048
        ],
        [
            -0.04875676706433296,
            -0.15579335391521454,
            0.18214717507362366,
            0.06261713057756424,
            0.18731388449668884,
            -0.3130050599575043,
            -0.0697614848613739,
            0.1118357926607132,
            -0.042182713747024536,
            -0.12160439789295197,
            0.028905609622597694,
            -0.24870355427265167,
            -0.3568001091480255,
            -0.1504807323217392,
            0.09792008250951767,
            0.012565121985971928,
            -0.1155548244714737
        ],
        [
            0.02670072764158249,
            -0.0406624898314476,
            -0.18052701652050018,
            -0.19567692279815674,
            -0.034731898456811905,
            0.3001619577407837,
            0.1120905801653862,
            -0.31382524967193604,
            0.039734676480293274,
            -0.26923468708992004,
            -0.1537259966135025,
            0.03322107344865799,
            0.12631331384181976,
            0.19821755588054657,
            -0.1390787661075592,
            -0.27498582005500793,
            0.4167347550392151
        ],
        [
            0.10370463877916336,
            0.15479591488838196,
            -0.03004772588610649,
            -0.020471438765525818,
            -0.04154103621840477,
            0.2271355539560318,
            0.0405583456158638,
            -0.14110198616981506,
            -0.18802540004253387,
            0.02171728014945984,
            0.07259178906679153,
            0.1329037994146347,
            0.1556198000907898,
            -0.061542659997940063,
            0.01893167570233345,
            -0.20172785222530365,
            0.04795771464705467
        ],
        [
            -0.24084097146987915,
            -0.08911560475826263,
            0.10559439659118652,
            0.22979338467121124,
            0.046445462852716446,
            -0.11481057107448578,
            -0.07115671783685684,
            0.17156551778316498,
            0.35812458395957947,
            0.39647752046585083,
            -0.10546722263097763,
            0.13110335171222687,
            0.03283929079771042,
            0.018192969262599945,
            -0.005947530269622803,
            0.2587812840938568,
            -0.05630585178732872
        ],
        [
            0.047416578978300095,
            -0.046653274446725845,
            0.016889596357941628,
            -0.008134031668305397,
            0.0269229207187891,
            -0.021235499531030655,
            -0.01911499723792076,
            -0.0585951954126358,
            0.039526715874671936,
            -0.06326014548540115,
            -0.13219884037971497,
            -0.1023983433842659,
            -0.17793647944927216,
            -0.051103975623846054,
            0.03004305437207222,
            -0.04031330347061157,
            -0.31728124618530273
        ],
        [
            0.10314619541168213,
            0.09829540550708771,
            -0.02933545969426632,
            -0.32775819301605225,
            -0.01243352796882391,
            0.1014581248164177,
            0.16868789494037628,
            -0.07839863747358322,
            -0.046673763543367386,
            -0.28728729486465454,
            -0.02922581508755684,
            -0.17469538748264313,
            -0.005806113127619028,
            0.19117872416973114,
            -0.010187435895204544,
            -0.2811397910118103,
            -0.5032331347465515
        ],
        [
            -0.043183211237192154,
            0.1484593003988266,
            0.0618351474404335,
            0.0862698033452034,
            -0.14549191296100616,
            -0.022284287959337234,
            -0.04638085886836052,
            0.10196063667535782,
            0.03454476222395897,
            -0.09625125676393509,
            -0.23928716778755188,
            -0.0018446178874000907,
            -0.16708041727542877,
            -0.1064528301358223,
            -0.10465005785226822,
            0.2101515829563141,
            0.679249107837677
        ],
        [
            -0.003983165603131056,
            0.02949347533285618,
            -0.20090045034885406,
            -0.16028572618961334,
            -0.058040276169776917,
            0.07641562819480896,
            -0.0015343166887760162,
            -0.18640314042568207,
            -0.07398759573698044,
            -0.14012055099010468,
            -0.1501050740480423,
            -0.1487530618906021,
            0.12470052391290665,
            0.11985505372285843,
            -0.11347293108701706,
            -0.23642605543136597,
            -0.12905555963516235
        ],
        [
            0.051079269498586655,
            -0.00015105499187484384,
            0.0235865730792284,
            -0.27593687176704407,
            0.10849036276340485,
            0.2202928513288498,
            0.08882042020559311,
            -0.09646415710449219,
            0.15663321316242218,
            -0.37078821659088135,
            -0.06524986773729324,
            -0.12969225645065308,
            -0.05317075923085213,
            0.3512490689754486,
            -0.12736746668815613,
            -0.18194207549095154,
            -0.21248407661914825
        ],
        [
            0.04315504431724548,
            0.027004748582839966,
            -0.08722610771656036,
            -0.08164144307374954,
            0.05574699118733406,
            0.22871991991996765,
            0.011966617777943611,
            -0.07713635265827179,
            -0.018891381099820137,
            -0.04998352751135826,
            -0.23421865701675415,
            0.001430321135558188,
            -0.05836423113942146,
            0.05791936442255974,
            -0.1844811737537384,
            -0.004435550421476364,
            -0.2076309770345688
        ],
        [
            0.062168415635824203,
            0.0034568491391837597,
            0.0998820960521698,
            -0.12615899741649628,
            0.14470833539962769,
            -0.034896764904260635,
            0.0025304786395281553,
            -0.025675304234027863,
            0.10620330274105072,
            -0.14204764366149902,
            -0.20579126477241516,
            -0.0951983854174614,
            -0.11259884387254715,
            0.17951229214668274,
            -0.1545577496290207,
            -0.09006629139184952,
            0.047263003885746
        ],
        [
            0.03934694454073906,
            -0.07382294535636902,
            0.016831276938319206,
            -0.05063031241297722,
            -5.976059037493542e-05,
            -0.08621268719434738,
            -0.065584197640419,
            0.06307454407215118,
            0.014149813912808895,
            0.057199109345674515,
            0.09118784219026566,
            -0.16069652140140533,
            0.014566841535270214,
            -0.06871240586042404,
            0.152237206697464,
            0.0010634702630341053,
            -1.6268970966339111
        ],
        [
            0.03461531549692154,
            0.049488745629787445,
            0.07908362150192261,
            0.20034292340278625,
            -0.2027149200439453,
            -0.29632046818733215,
            -0.20669376850128174,
            0.0938895121216774,
            0.0003449482028372586,
            0.1894179731607437,
            0.2124636471271515,
            0.14571772515773773,
            0.08558691293001175,
            -0.1843206286430359,
            0.34031766653060913,
            0.11887162178754807,
            -0.506796658039093
        ],
        [
            -0.03198966383934021,
            0.11894942820072174,
            0.05204922333359718,
            -0.10346215218305588,
            -0.020019104704260826,
            0.03228231519460678,
            0.28059014678001404,
            0.0448775514960289,
            0.05447498708963394,
            -0.15197183191776276,
            0.049073997884988785,
            -0.08236438035964966,
            -0.06907068192958832,
            0.004023437853902578,
            -0.07354851812124252,
            0.08627603948116302,
            -0.060859717428684235
        ],
        [
            -0.09550561010837555,
            -0.051469869911670685,
            0.021764297038316727,
            -0.15509192645549774,
            0.16250622272491455,
            0.25191530585289,
            0.13973940908908844,
            0.016716452315449715,
            0.025340592488646507,
            -0.1498832404613495,
            -0.10180016607046127,
            -0.0824640765786171,
            -0.1362951397895813,
            0.0949070006608963,
            -0.1855623424053192,
            -0.00247176387347281,
            -0.1097286269068718
        ],
        [
            -0.10803502053022385,
            -0.20127929747104645,
            0.08135484158992767,
            0.003690625075250864,
            -0.039013102650642395,
            -0.11842774599790573,
            -0.0817984938621521,
            0.14730791747570038,
            0.08488096296787262,
            0.07402180135250092,
            -0.019826466217637062,
            0.14228446781635284,
            -0.06919071078300476,
            0.0740421712398529,
            -0.028273312374949455,
            0.11264639347791672,
            -0.12686586380004883
        ],
        [
            0.08887486159801483,
            0.042582958936691284,
            -0.0014622267335653305,
            -0.005724392831325531,
            -0.05488695949316025,
            -0.20980240404605865,
            -0.12185345590114594,
            0.09109805524349213,
            -0.045037925243377686,
            0.10366833209991455,
            0.10090722888708115,
            -0.09422994405031204,
            0.04802215099334717,
            -0.0932931900024414,
            0.17300346493721008,
            -0.03843462094664574,
            0.07975094020366669
        ],
        [
            -0.1151711568236351,
            -0.03319282829761505,
            -0.04482550173997879,
            -0.12218742817640305,
            0.051475007086992264,
            0.31799206137657166,
            0.18082062900066376,
            -0.059316955506801605,
            0.1578737199306488,
            -0.2695918679237366,
            -0.129339337348938,
            -0.13950861990451813,
            -0.010307609103620052,
            0.2961556613445282,
            -0.14350414276123047,
            -0.029999012127518654,
            -0.1603214591741562
        ],
        [
            0.043617695569992065,
            -0.006458505522459745,
            0.06152964010834694,
            0.07836868613958359,
            0.006598931737244129,
            -0.20047467947006226,
            -0.13861306011676788,
            -0.006273630075156689,
            0.10935744643211365,
            0.11311490833759308,
            0.014061723835766315,
            0.19585172832012177,
            0.06492588669061661,
            0.1724180281162262,
            0.10236756503582001,
            -0.05877813324332237,
            -0.006966928020119667
        ],
        [
            -0.040617864578962326,
            -0.0004814232524950057,
            0.015081092715263367,
            -0.049484845250844955,
            0.025351649150252342,
            0.1275022178888321,
            0.18279962241649628,
            -0.065958671271801,
            0.05529883876442909,
            -0.13633915781974792,
            -0.09285633265972137,
            0.04228544607758522,
            -0.03018820472061634,
            0.08727363497018814,
            -0.19124934077262878,
            -0.05403897538781166,
            0.005445451941341162
        ],
        [
            -0.06431000679731369,
            -0.061292629688978195,
            -0.043295130133628845,
            0.002072725212201476,
            0.01015289407223463,
            0.015367072075605392,
            -0.050245676189661026,
            -0.030528338626027107,
            0.02310032583773136,
            -0.011258191429078579,
            0.03296766057610512,
            0.038429588079452515,
            0.01303168572485447,
            -0.00045266596134752035,
            0.029080845415592194,
            -0.014330713078379631,
            -0.010931190103292465
        ],
        [
            0.17057403922080994,
            0.21057827770709991,
            -0.16267694532871246,
            -0.22710782289505005,
            -0.014574358239769936,
            0.07248498499393463,
            -0.06365614384412766,
            -0.07917667180299759,
            0.00761287659406662,
            -0.09110613167285919,
            0.0794864222407341,
            -0.21619626879692078,
            0.10747084766626358,
            0.19835396111011505,
            0.017620744183659554,
            -0.22070097923278809,
            0.011181839741766453
        ],
        [
            0.03880470618605614,
            0.07219647616147995,
            0.056385550647974014,
            0.05943603813648224,
            -0.08728097379207611,
            -0.28332415223121643,
            -0.1531306356191635,
            0.08657428622245789,
            -0.011485577560961246,
            0.0870390385389328,
            -0.011797559447586536,
            0.14893582463264465,
            -0.0011376180918887258,
            -0.05025701969861984,
            0.12030777335166931,
            0.056719522923231125,
            -1.8049254417419434
        ],
        [
            -0.012314848601818085,
            -0.02081439457833767,
            -0.03275061026215553,
            0.14852362871170044,
            -0.12808535993099213,
            -0.05423593148589134,
            -0.01588752120733261,
            0.005286762025207281,
            -0.03911930322647095,
            0.003308545332401991,
            0.07932403683662415,
            0.1777132749557495,
            0.0380108468234539,
            -0.03142767772078514,
            0.17495843768119812,
            0.0905042290687561,
            -0.218268483877182
        ],
        [
            -0.04006693512201309,
            -0.050780560821294785,
            0.06317462027072906,
            -0.01652991585433483,
            0.022320397198200226,
            -0.017964689061045647,
            0.01487389113754034,
            -0.037401728332042694,
            -0.0024007868487387896,
            -0.16859398782253265,
            -0.06261826306581497,
            -0.07666099071502686,
            -0.10667303949594498,
            0.051436424255371094,
            -0.029474010691046715,
            0.02019249089062214,
            -0.0699923038482666
        ],
        [
            0.022244583815336227,
            -0.08315999060869217,
            -0.05024977773427963,
            -0.11185148358345032,
            0.11355359107255936,
            0.05049455910921097,
            0.04928434267640114,
            -0.06710977852344513,
            0.023102371022105217,
            -0.1599586308002472,
            -0.11908737570047379,
            -0.08726968616247177,
            -0.09687390178442001,
            0.2023829072713852,
            -0.09784621745347977,
            -0.06606214493513107,
            -0.16345995664596558
        ],
        [
            -0.01933695189654827,
            0.01999598927795887,
            -0.043082963675260544,
            -0.009599115699529648,
            -0.011195003055036068,
            0.07827965170145035,
            -0.02397323213517666,
            0.05208304524421692,
            -0.05985499545931816,
            -0.07084635645151138,
            -0.035564254969358444,
            -0.1605721116065979,
            -0.04596041142940521,
            0.025499539449810982,
            -0.09347400069236755,
            -0.014077034778892994,
            -0.09539534151554108
        ],
        [
            0.10817454010248184,
            -0.048334915190935135,
            -0.17116528749465942,
            -0.16531717777252197,
            -0.09865426272153854,
            0.22957506775856018,
            0.008566830307245255,
            -0.469510555267334,
            0.13902606070041656,
            -0.02311377413570881,
            0.17052550613880157,
            0.011125119403004646,
            0.5311129689216614,
            0.2535203993320465,
            -0.09127727895975113,
            -0.20591041445732117,
            0.07491730153560638
        ],
        [
            0.06896387785673141,
            0.10372169315814972,
            -0.16667971014976501,
            -0.021808160468935966,
            0.01324697956442833,
            0.20480485260486603,
            0.12704917788505554,
            -0.1574980914592743,
            0.04877293482422829,
            -0.11277366429567337,
            -0.18731451034545898,
            0.10755085945129395,
            -0.011755319312214851,
            0.025428663939237595,
            -0.1481151133775711,
            0.006538546644151211,
            -0.03639330714941025
        ],
        [
            -0.03019309602677822,
            -0.04045544192194939,
            0.059886667877435684,
            -0.17364954948425293,
            0.07449765503406525,
            0.02758047729730606,
            0.10258252173662186,
            -0.140136256814003,
            0.15830136835575104,
            -0.23863986134529114,
            -0.12729935348033905,
            -0.12811079621315002,
            0.010200301185250282,
            0.2313532680273056,
            -0.11062432080507278,
            -0.22685065865516663,
            -0.23079022765159607
        ],
        [
            -0.037785641849040985,
            0.1668986827135086,
            0.04363080486655235,
            -0.01652774028480053,
            -0.15107569098472595,
            -0.02181866019964218,
            -0.14382974803447723,
            -0.03405348211526871,
            -0.05036235600709915,
            -0.04828116297721863,
            -0.13030077517032623,
            0.0017868735594674945,
            -0.07410739362239838,
            -0.02483285777270794,
            -0.0678805559873581,
            0.05580073595046997,
            0.013308975845575333
        ],
        [
            0.010079341009259224,
            0.002226827200502157,
            0.062066059559583664,
            -0.11914871633052826,
            0.03478676825761795,
            -0.07526370882987976,
            0.08390986919403076,
            0.14351704716682434,
            -0.02033616602420807,
            -0.09930601716041565,
            0.18120622634887695,
            -0.2039300799369812,
            -0.07497157901525497,
            -0.014787902124226093,
            0.18129244446754456,
            0.1008789911866188,
            -0.29149287939071655
        ],
        [
            -0.055442072451114655,
            0.08008775860071182,
            -0.03548088297247887,
            0.0644492506980896,
            -0.10915020853281021,
            0.06437847763299942,
            0.07909385859966278,
            -0.001153085962869227,
            -0.04519585147500038,
            0.10518864542245865,
            -0.028035122901201248,
            0.22163929045200348,
            0.13394904136657715,
            -0.07459555566310883,
            -0.05240241065621376,
            0.02834697812795639,
            0.016015855595469475
        ],
        [
            -0.03575669974088669,
            -0.11981570720672607,
            0.0037164806853979826,
            -0.11554355174303055,
            0.1909421980381012,
            0.21142016351222992,
            0.08426778763532639,
            -0.007344674319028854,
            0.028264474123716354,
            -0.17928041517734528,
            -0.11702422052621841,
            -0.07316829264163971,
            -0.1570875644683838,
            0.21587537229061127,
            -0.09446576237678528,
            -0.013778574764728546,
            -0.19850347936153412
        ],
        [
            0.10751844197511673,
            -0.09238696843385696,
            -9.768497693585232e-05,
            -0.14741097390651703,
            0.0559806153178215,
            0.02774582803249359,
            0.1323026418685913,
            -0.09855460375547409,
            0.07555052638053894,
            -0.08103008568286896,
            -0.09266738593578339,
            -0.12220490723848343,
            0.020710991695523262,
            0.24728581309318542,
            -0.04292728006839752,
            -0.19835421442985535,
            0.0012255142210051417
        ],
        [
            -0.23857702314853668,
            -0.29560786485671997,
            0.010139038786292076,
            0.13781040906906128,
            0.19901083409786224,
            0.1179080531001091,
            0.11800988018512726,
            0.0965048298239708,
            0.027737898752093315,
            0.08207820355892181,
            0.02741488441824913,
            -0.002519991248846054,
            -0.28974518179893494,
            0.08589177578687668,
            0.0175025537610054,
            0.1633344143629074,
            -0.1479472517967224
        ],
        [
            -0.09716802090406418,
            0.038512300699949265,
            0.14730525016784668,
            0.014515513554215431,
            0.21860462427139282,
            0.0065481397323310375,
            0.2436223030090332,
            0.17361831665039062,
            0.07815726846456528,
            0.00088613445404917,
            -0.02944052778184414,
            -0.17434854805469513,
            -0.1771055907011032,
            -0.17612893879413605,
            -0.24919873476028442,
            0.15990780293941498,
            -0.48032018542289734
        ],
        [
            0.0738162100315094,
            0.1017502024769783,
            0.0022586642298847437,
            -0.007695544045418501,
            -0.05408479645848274,
            -0.022672252729535103,
            0.006519376765936613,
            -0.10600278526544571,
            0.06376717239618301,
            -0.04508661851286888,
            0.028721826151013374,
            0.11356082558631897,
            0.15980887413024902,
            0.13341458141803741,
            0.05398755148053169,
            -0.19082514941692352,
            -0.20265507698059082
        ],
        [
            0.01982644572854042,
            -0.0017340679187327623,
            0.05615835636854172,
            0.11618182063102722,
            -0.08824232220649719,
            -0.22781920433044434,
            -0.13762465119361877,
            0.13278059661388397,
            -0.022689927369356155,
            0.182529479265213,
            0.24998565018177032,
            -0.042677734047174454,
            0.010633659549057484,
            -0.22112566232681274,
            0.3270847499370575,
            0.1693386435508728,
            -1.4622913599014282
        ],
        [
            -0.1587945520877838,
            -0.24021102488040924,
            0.1287146806716919,
            -0.003498729318380356,
            0.20956113934516907,
            0.13370831310749054,
            0.026727044954895973,
            0.05802888423204422,
            0.2616051733493805,
            -0.06667563319206238,
            -0.08114608377218246,
            -0.08087169378995895,
            -0.1626572459936142,
            0.15194393694400787,
            -0.12445862591266632,
            0.08892128616571426,
            -0.1862768977880478
        ],
        [
            0.10329971462488174,
            0.04656507819890976,
            -0.11170829087495804,
            -0.08358334004878998,
            -0.07379712164402008,
            0.010712839663028717,
            -0.02061605453491211,
            -0.06089773774147034,
            -0.06104963645339012,
            -0.06422638148069382,
            0.05474689230322838,
            -0.03397693112492561,
            0.13991805911064148,
            0.07015173882246017,
            0.07107115536928177,
            -0.1677253544330597,
            0.27820202708244324
        ],
        [
            -0.08300455659627914,
            -0.1474153995513916,
            0.12071900814771652,
            0.07464751601219177,
            0.10537683218717575,
            -0.08439892530441284,
            0.009055406786501408,
            0.12957866489887238,
            0.09501008689403534,
            0.0006638924241997302,
            -0.1039280965924263,
            0.04451350122690201,
            -0.16009113192558289,
            0.02744476869702339,
            -0.11969491839408875,
            0.09577273577451706,
            -0.0011098477989435196
        ],
        [
            -0.004615358076989651,
            -0.1318424940109253,
            0.06365253031253815,
            0.07879845798015594,
            0.18174882233142853,
            0.07331229746341705,
            0.01867789216339588,
            0.04269298166036606,
            0.10112807899713516,
            0.1402081549167633,
            0.057810477912425995,
            0.011014812625944614,
            -0.023285526782274246,
            0.0319846086204052,
            -0.020761940628290176,
            0.07162423431873322,
            0.25700053572654724
        ],
        [
            0.02774498239159584,
            0.012241162359714508,
            0.00925779715180397,
            -0.010842042975127697,
            -0.02676350250840187,
            -0.04794245585799217,
            -0.07893125712871552,
            0.0711856484413147,
            -0.016376182436943054,
            0.054866235703229904,
            0.09449933469295502,
            -0.1322743445634842,
            0.020052731037139893,
            -0.05695495754480362,
            0.1109735444188118,
            0.04009726643562317,
            -0.9555739760398865
        ],
        [
            -0.011931892484426498,
            0.08387482166290283,
            -0.04536372423171997,
            -0.015579448081552982,
            0.015905437991023064,
            0.19929398596286774,
            0.15553371608257294,
            -0.16529744863510132,
            -0.023419026285409927,
            -0.06040586531162262,
            0.03129624202847481,
            0.1724851131439209,
            0.04872194305062294,
            -0.07881324738264084,
            -0.0402972474694252,
            -0.027932392433285713,
            -0.027113087475299835
        ],
        [
            0.005432001780718565,
            -0.12733331322669983,
            0.03604315221309662,
            0.05581003427505493,
            0.16994237899780273,
            -0.05467859283089638,
            0.03838678076863289,
            0.05959027633070946,
            0.08034989982843399,
            0.019576553255319595,
            -0.03152097016572952,
            0.009687972255051136,
            -0.0907047912478447,
            -0.044195324182510376,
            0.032013192772865295,
            0.13164617121219635,
            0.19112542271614075
        ],
        [
            -0.11053116619586945,
            -0.22419127821922302,
            -0.0008976086392067373,
            0.0991578921675682,
            0.05624762549996376,
            0.05532049387693405,
            0.04675352945923805,
            0.09561780095100403,
            -0.06994637101888657,
            0.08705223351716995,
            0.004900400992482901,
            -0.033346887677907944,
            -0.14465317130088806,
            0.0012134540593251586,
            -0.0448148138821125,
            0.13875404000282288,
            -0.14301811158657074
        ],
        [
            0.07000681757926941,
            0.0561460517346859,
            -0.10753147304058075,
            -0.05926823616027832,
            -0.13842132687568665,
            -0.041336704045534134,
            -0.15905022621154785,
            0.043528538197278976,
            0.007424753159284592,
            -0.04088518023490906,
            -0.19915921986103058,
            -0.018253309652209282,
            0.0960974469780922,
            0.05542195960879326,
            -0.11333100497722626,
            -0.11312641948461533,
            0.23308812081813812
        ],
        [
            0.01609746180474758,
            -0.06109124422073364,
            0.001607219222933054,
            -0.19928023219108582,
            0.09795641899108887,
            0.027492918074131012,
            0.09258485585451126,
            -0.005509193520992994,
            0.047217026352882385,
            -0.19700680673122406,
            -0.11301471292972565,
            -0.16860616207122803,
            -0.05276428908109665,
            0.1840636283159256,
            -0.17334803938865662,
            -0.16802148520946503,
            0.5861510634422302
        ],
        [
            0.15192021429538727,
            0.1740662008523941,
            -0.04838450998067856,
            -0.14345906674861908,
            -0.04114920273423195,
            -0.07042554765939713,
            -0.03033270314335823,
            -0.009006149135529995,
            -0.07903817296028137,
            -0.010165822692215443,
            -0.03324441239237785,
            -0.0017836795886978507,
            0.15193167328834534,
            0.026284852996468544,
            -0.035048555582761765,
            -0.20318956673145294,
            0.006902382709085941
        ],
        [
            0.07297584414482117,
            0.08955766260623932,
            -0.08102895319461823,
            -0.04302564635872841,
            -0.017574762925505638,
            0.12075107544660568,
            -0.00651518115773797,
            -0.09154260903596878,
            -0.004556034691631794,
            -0.03195005655288696,
            0.08121662586927414,
            0.06498546153306961,
            0.1653996706008911,
            0.09548729658126831,
            0.08732017129659653,
            -0.16111357510089874,
            -0.5271672606468201
        ],
        [
            -0.04988500848412514,
            -0.1250694841146469,
            0.09123996645212173,
            0.09368225932121277,
            0.08874883502721786,
            -0.020835544914007187,
            -0.09729296714067459,
            0.05687510594725609,
            0.14525839686393738,
            0.0265030600130558,
            -0.03913026303052902,
            0.0537433922290802,
            -0.1233142539858818,
            0.09965953230857849,
            0.08135338127613068,
            0.17585253715515137,
            0.050822339951992035
        ],
        [
            -0.055116720497608185,
            -0.10583961755037308,
            0.08576811105012894,
            0.03927076980471611,
            0.09498437494039536,
            0.1473449170589447,
            0.016126222908496857,
            0.021109621971845627,
            0.09806189686059952,
            0.07491786777973175,
            0.010507592931389809,
            -0.054282814264297485,
            -0.01727485843002796,
            0.03319519758224487,
            -0.026791993528604507,
            0.13972167670726776,
            0.4254783093929291
        ],
        [
            0.09849673509597778,
            0.07787279784679413,
            -0.10570105165243149,
            -0.029945584014058113,
            -0.17190471291542053,
            0.021317515522241592,
            0.03338414430618286,
            -0.1182386726140976,
            -0.12469544261693954,
            -0.0606534443795681,
            0.12140244990587234,
            -0.06295941770076752,
            0.22967512905597687,
            -0.13646887242794037,
            0.07326945662498474,
            -0.09343079477548599,
            0.10823947191238403
        ],
        [
            -0.011817075312137604,
            -0.1983785778284073,
            0.042972467839717865,
            0.05549808219075203,
            -0.016381772235035896,
            -0.2342318445444107,
            -0.15869106352329254,
            0.18669821321964264,
            0.032757606357336044,
            0.05947550758719444,
            0.1528838574886322,
            -0.09647359699010849,
            -0.04615647718310356,
            0.09228317439556122,
            0.25182217359542847,
            0.0842810571193695,
            0.12064167112112045
        ],
        [
            0.06127933785319328,
            0.07049314677715302,
            -0.008102118037641048,
            -0.08601311594247818,
            -0.001177192316390574,
            -0.02882971800863743,
            -0.0004920261562801898,
            -0.021836327388882637,
            -0.04900069907307625,
            0.016486482694745064,
            0.05565629526972771,
            -0.11309988051652908,
            0.026041770353913307,
            -0.09239847958087921,
            0.05544241517782211,
            -0.05617862939834595,
            -0.4801047444343567
        ],
        [
            -0.046109944581985474,
            -0.1844923198223114,
            0.07260480523109436,
            0.03569552302360535,
            0.1613258272409439,
            0.11978469043970108,
            0.12470711022615433,
            0.03188818693161011,
            0.10980921983718872,
            0.038782067596912384,
            0.10105851292610168,
            0.01870037242770195,
            -0.06280412524938583,
            -0.022609520703554153,
            0.04788472503423691,
            0.12907549738883972,
            -0.2852124869823456
        ],
        [
            0.03538293391466141,
            0.12399712949991226,
            -0.1078900620341301,
            0.03901582211256027,
            -0.06713645905256271,
            0.1877700239419937,
            0.09351497888565063,
            -0.15424494445323944,
            -0.11964017152786255,
            -0.06823749840259552,
            0.020031284540891647,
            0.06525065004825592,
            0.08779248595237732,
            -0.024340245872735977,
            -0.03402470052242279,
            0.0021269856952130795,
            -0.2192685455083847
        ],
        [
            -0.08003520220518112,
            0.06644929200410843,
            0.11127503961324692,
            0.022956877946853638,
            -0.00562333595007658,
            -0.02824137918651104,
            -0.04014187678694725,
            -0.006830862257629633,
            0.07825670391321182,
            -0.006301211193203926,
            -0.06132860109210014,
            -0.030182698741555214,
            -0.13391722738742828,
            -0.05674136057496071,
            -0.020303115248680115,
            0.12074539065361023,
            -0.1174098402261734
        ],
        [
            0.035586822777986526,
            -0.182756707072258,
            -0.04860880598425865,
            -0.16988031566143036,
            0.1762750893831253,
            0.26424384117126465,
            0.11751598119735718,
            -0.1964654177427292,
            0.1357136368751526,
            -0.014130101539194584,
            0.02577669732272625,
            -0.1109142154455185,
            0.02863950841128826,
            0.1331881582736969,
            -0.13527946174144745,
            0.0025523286312818527,
            -0.26568838953971863
        ],
        [
            0.11450450867414474,
            0.08401839435100555,
            -0.21003460884094238,
            -0.11573443561792374,
            -0.13582617044448853,
            -0.005169621203094721,
            0.03339044004678726,
            -0.22604244947433472,
            -0.1319890022277832,
            -0.21130189299583435,
            -0.09801973402500153,
            -0.020955786108970642,
            0.09340961277484894,
            0.12449865788221359,
            -0.12431451678276062,
            -0.2117595076560974,
            -0.16454483568668365
        ],
        [
            -0.06091407313942909,
            -0.07881450653076172,
            0.10175713896751404,
            0.09097521752119064,
            0.049033019691705704,
            -0.030094435438513756,
            -0.10615380853414536,
            0.13804779946804047,
            0.15575766563415527,
            0.15902012586593628,
            0.008236833848059177,
            -0.0075804791413247585,
            -0.03684429079294205,
            0.011395210400223732,
            0.04174317792057991,
            0.15312409400939941,
            -0.3357798457145691
        ],
        [
            -0.034750282764434814,
            -0.15214650332927704,
            0.13014093041419983,
            -0.0930880755186081,
            0.1388043612241745,
            -0.02481292188167572,
            0.047154348343610764,
            0.008422242477536201,
            0.1278582364320755,
            -0.06544972211122513,
            0.11718018352985382,
            -0.05131557956337929,
            -0.06470197439193726,
            0.15294703841209412,
            0.08826059103012085,
            0.022304905578494072,
            -0.491706520318985
        ],
        [
            0.006467730738222599,
            0.14778244495391846,
            0.11873366683721542,
            0.04303810000419617,
            0.008443803526461124,
            -0.09348476678133011,
            0.03999456763267517,
            0.010388527996838093,
            0.04480432718992233,
            0.02047749236226082,
            0.040399208664894104,
            0.12609092891216278,
            -0.034658901393413544,
            -0.16696873307228088,
            0.0016822322504594922,
            0.1120879128575325,
            0.21115897595882416
        ],
        [
            -0.002283911220729351,
            -0.06650339066982269,
            -0.11889971792697906,
            -0.03570389747619629,
            0.012867349199950695,
            -0.02650941163301468,
            0.049193840473890305,
            -0.09050057083368301,
            -0.14469143748283386,
            -0.15947282314300537,
            -0.052209630608558655,
            -0.045127738267183304,
            -0.06469680368900299,
            0.02925729751586914,
            0.026404259726405144,
            -0.12939637899398804,
            0.4736006259918213
        ],
        [
            -0.10470099747180939,
            -0.14171330630779266,
            0.13169005513191223,
            0.05909239500761032,
            0.12088670581579208,
            -0.0940432995557785,
            -0.02194862626492977,
            0.10856177657842636,
            0.12437237054109573,
            0.09450487792491913,
            -0.050831884145736694,
            0.04525457322597504,
            -0.13046680390834808,
            0.008261467330157757,
            -0.03616361320018768,
            0.15437330305576324,
            0.34676089882850647
        ],
        [
            -0.13038355112075806,
            -0.173176571726799,
            0.06728804111480713,
            0.03650156408548355,
            0.1287137120962143,
            0.12842676043510437,
            0.1309783011674881,
            0.05462753400206566,
            -0.029246047139167786,
            0.05385087803006172,
            -0.005386107135564089,
            -0.055729642510414124,
            -0.17602571845054626,
            -0.06179650500416756,
            -0.08602520078420639,
            0.16461080312728882,
            0.09153609722852707
        ],
        [
            -0.012475554831326008,
            0.07501424849033356,
            -0.052969496697187424,
            -0.1309867650270462,
            -0.057453133165836334,
            0.07441218197345734,
            0.00526150269433856,
            -0.06430653482675552,
            0.045176006853580475,
            -0.06641732901334763,
            0.05174190178513527,
            -0.14536310732364655,
            0.1126386821269989,
            0.14741308987140656,
            0.060432109981775284,
            -0.16303402185440063,
            -0.0698038712143898
        ],
        [
            -0.07503917068243027,
            -0.08137227594852448,
            0.13448449969291687,
            0.12495286762714386,
            0.13106821477413177,
            0.05039398744702339,
            0.020775552839040756,
            0.0401739664375782,
            0.221506267786026,
            0.054321471601724625,
            -0.13216890394687653,
            0.10800375044345856,
            -0.10079863667488098,
            0.04729345813393593,
            -0.12485384196043015,
            0.11732802540063858,
            0.45710402727127075
        ],
        [
            -0.08421272039413452,
            -0.23905842006206512,
            0.031261324882507324,
            0.009307813830673695,
            0.13028475642204285,
            0.01081074122339487,
            0.03216705843806267,
            0.04904049262404442,
            0.07845035940408707,
            0.014099461026489735,
            0.02388438768684864,
            -0.06694727391004562,
            -0.06458372622728348,
            0.0933353379368782,
            -0.03453732654452324,
            0.030578354373574257,
            -0.3813466429710388
        ],
        [
            0.07296605408191681,
            0.2745509147644043,
            -0.022241419181227684,
            0.06421846896409988,
            -0.14644815027713776,
            0.05622986704111099,
            -0.043801549822092056,
            -0.04963318258523941,
            -0.06935462355613708,
            0.04206417128443718,
            0.08099918812513351,
            0.140032559633255,
            0.1520654410123825,
            -0.15376269817352295,
            0.09375760704278946,
            0.0359189435839653,
            -0.5764243006706238
        ]
    ],
    "gru.weight_hh_l0": [
        [
            0.05181382596492767,
            0.10728505998849869,
            0.17929507791996002,
            -0.016665097326040268,
            -0.2683701515197754,
            -0.06480233371257782,
            0.11641240864992142,
            0.15235860645771027,
            -0.09091734141111374,
            0.009401361458003521,
            0.23457252979278564,
            -0.06749817728996277,
            -0.007032373454421759,
            0.14846771955490112,
            0.0357549786567688,
            0.43002888560295105,
            -0.17407967150211334,
            0.05068042129278183,
            -0.22599168121814728,
            0.09037499874830246,
            -0.22467784583568573,
            0.04066694155335426,
            -0.04830104485154152,
            -0.16158527135849,
            -0.06616883724927902,
            -0.018083708360791206,
            -0.030161909759044647,
            -0.026848968118429184,
            -0.23581922054290771,
            -0.1706647425889969,
            -0.036657560616731644,
            0.06442490965127945
        ],
        [
            -0.0017205876065418124,
            0.15247498452663422,
            -0.15231311321258545,
            -0.03740118071436882,
            0.20695632696151733,
            -0.38778993487358093,
            0.30520886182785034,
            0.015286792069673538,
            0.30218157172203064,
            0.20697639882564545,
            -0.005527097266167402,
            0.002564449096098542,
            -0.1954856514930725,
            0.1591692864894867,
            -0.2788514196872711,
            -0.25317004323005676,
            -0.17961709201335907,
            -0.15097875893115997,
            -0.2737084925174713,
            -0.1500336080789566,
            -0.07851186394691467,
            0.15793555974960327,
            -0.3148123621940613,
            0.10994500666856766,
            0.07670864462852478,
            0.1338055431842804,
            0.14199766516685486,
            0.03533855080604553,
            0.17426972091197968,
            0.2858055830001831,
            -0.0821186825633049,
            0.3543933629989624
        ],
        [
            -0.1705211102962494,
            0.04213465750217438,
            0.12819251418113708,
            -0.09196725487709045,
            0.04895368963479996,
            -0.11998440325260162,
            0.04794337972998619,
            0.023802166804671288,
            0.27319177985191345,
            0.46090131998062134,
            0.008344127796590328,
            -0.007600059732794762,
            -0.02584196999669075,
            -0.0030249401461333036,
            0.21108777821063995,
            0.3580705225467682,
            -0.3328239619731903,
            -0.2679193913936615,
            -0.10953013598918915,
            -0.03192107379436493,
            0.20814605057239532,
            0.18615609407424927,
            -0.04769786447286606,
            -0.034902457147836685,
            0.0853874608874321,
            -0.039541084319353104,
            0.0831461176276207,
            -0.022340545430779457,
            0.2759262025356293,
            0.31649601459503174,
            -0.11872901767492294,
            -0.1372881531715393
        ],
        [
            -0.10346094518899918,
            -0.20183371007442474,
            0.04669800028204918,
            0.20364052057266235,
            -0.026074325665831566,
            1.543290615081787,
            0.18477876484394073,
            -0.039701882749795914,
            0.3222850263118744,
            0.15750759840011597,
            -0.09874727576971054,
            -0.04482758045196533,
            -0.189900204539299,
            -0.1551603227853775,
            -0.12133397907018661,
            1.1980361938476562,
            0.2511272132396698,
            0.1276063323020935,
            -0.11287222802639008,
            0.11249848455190659,
            0.14729486405849457,
            0.13385169208049774,
            0.13235457241535187,
            -0.08600330352783203,
            0.0487542487680912,
            0.28972360491752625,
            -0.09151391685009003,
            -0.1600455790758133,
            0.1701500564813614,
            -0.1185004934668541,
            -0.19137835502624512,
            -0.30972686409950256
        ],
        [
            -0.33678165078163147,
            0.22746552526950836,
            0.010047472082078457,
            1.0270417928695679,
            1.1319372653961182,
            1.4851655960083008,
            0.00456423033028841,
            -0.05473319813609123,
            -0.41860872507095337,
            -0.022784555330872536,
            0.23736324906349182,
            -0.5343616008758545,
            0.23177865147590637,
            -0.14165090024471283,
            0.253750205039978,
            0.2356991022825241,
            -0.07295674830675125,
            0.23570385575294495,
            -0.3402160108089447,
            1.5045133829116821,
            -0.5609020590782166,
            -0.025239363312721252,
            -0.3209178149700165,
            -0.16998937726020813,
            -0.3628792464733124,
            -0.2281639277935028,
            0.09679862856864929,
            -0.3294687867164612,
            -0.2848484218120575,
            -0.32129672169685364,
            -0.9602606296539307,
            -0.7636862993240356
        ],
        [
            -0.43614494800567627,
            0.5768349766731262,
            -0.5428008437156677,
            1.017743706703186,
            -1.2570581436157227,
            -0.5426114201545715,
            -0.15681730210781097,
            0.015449130907654762,
            -0.16582374274730682,
            0.41569897532463074,
            0.5813561677932739,
            -0.35224586725234985,
            -0.05629023164510727,
            -0.21475984156131744,
            0.3867645561695099,
            0.11695465445518494,
            -0.15941016376018524,
            -0.1818256974220276,
            0.029433615505695343,
            -0.21241620182991028,
            -0.10482657700777054,
            -0.14678166806697845,
            -1.075739860534668,
            -0.6032029390335083,
            -0.08201149851083755,
            0.04835135117173195,
            0.16452448070049286,
            -0.2823200821876526,
            -0.17630840837955475,
            -0.3082942068576813,
            -0.90671306848526,
            -0.36877110600471497
        ],
        [
            -0.07296091318130493,
            -0.18706482648849487,
            0.10774865746498108,
            -0.07902097702026367,
            -0.7067439556121826,
            -0.14333383738994598,
            0.13362058997154236,
            0.04008294641971588,
            -0.11060012876987457,
            0.16265498101711273,
            0.034856557846069336,
            0.14576584100723267,
            -0.18514403700828552,
            -0.024937840178608894,
            -0.026290535926818848,
            -0.002547425916418433,
            0.18405014276504517,
            -0.15706826746463776,
            0.07946126163005829,
            0.09292688220739365,
            0.02825889177620411,
            -0.15142512321472168,
            -0.05853410065174103,
            -0.03236042335629463,
            -0.13105976581573486,
            0.09999387711286545,
            0.04195926710963249,
            -0.14921078085899353,
            -0.011992259882390499,
            0.07526139169931412,
            -0.0570126548409462,
            -0.1157848909497261
        ],
        [
            0.031772829592227936,
            0.0014127781614661217,
            -0.0021424652077257633,
            -0.025310572236776352,
            -0.11775603890419006,
            -0.10002207010984421,
            -0.04826429858803749,
            -0.17418336868286133,
            -0.1005479022860527,
            -0.03676749765872955,
            -0.08770500123500824,
            -0.0703011155128479,
            0.049522873014211655,
            0.1579698920249939,
            0.10271323472261429,
            -0.28839537501335144,
            -0.03801411762833595,
            -0.07683325558900833,
            -0.1600761115550995,
            0.10909343510866165,
            -0.21361368894577026,
            0.11599874496459961,
            0.1144176498055458,
            0.17101231217384338,
            0.03310603275895119,
            0.04527902975678444,
            -0.10843400657176971,
            0.03307544067502022,
            -0.13105982542037964,
            0.05903543159365654,
            -0.21061986684799194,
            -0.24865929782390594
        ],
        [
            -0.09276242554187775,
            0.24208810925483704,
            -0.23313656449317932,
            0.1364867240190506,
            0.2843209207057953,
            0.09028639644384384,
            0.02266423963010311,
            -0.14703862369060516,
            -0.12629760801792145,
            -0.11195117980241776,
            -0.017719149589538574,
            -0.051778919994831085,
            -0.05767388269305229,
            0.06283669173717499,
            -0.07175268977880478,
            -0.6224318146705627,
            0.11628630757331848,
            -0.0016485376982018352,
            -0.07909885048866272,
            0.18383416533470154,
            -0.1698029488325119,
            -0.07642436027526855,
            -0.22116778790950775,
            -0.06890641152858734,
            0.10870390385389328,
            0.05339665338397026,
            0.019392400979995728,
            0.009484204463660717,
            -0.24375887215137482,
            -0.05836565047502518,
            -0.15052519738674164,
            -0.23601509630680084
        ],
        [
            0.29551947116851807,
            -0.38343849778175354,
            0.133106991648674,
            -0.021527396515011787,
            -0.16507750749588013,
            0.2532777786254883,
            0.3045937716960907,
            -0.19738130271434784,
            0.28546878695487976,
            0.9588093161582947,
            0.03871584311127663,
            0.0017042625695466995,
            -0.02973705343902111,
            0.18138909339904785,
            0.006143439561128616,
            -1.1783777475357056,
            -0.6258460879325867,
            0.0027655079029500484,
            -0.21815581619739532,
            -0.10089324414730072,
            0.059343453496694565,
            -0.0742478221654892,
            0.14107143878936768,
            0.16601355373859406,
            0.12369679659605026,
            0.24809393286705017,
            -0.07972002029418945,
            0.15600235760211945,
            -0.06995581835508347,
            -0.04862700775265694,
            -0.14264339208602905,
            0.2499164491891861
        ],
        [
            -0.03564772382378578,
            0.10415716469287872,
            -0.3703291714191437,
            -0.045289695262908936,
            -0.35652971267700195,
            0.21256598830223083,
            0.24069109559059143,
            -0.10841512680053711,
            0.3832733929157257,
            1.3611091375350952,
            -0.027222828939557076,
            0.3744053244590759,
            -0.40598103404045105,
            -0.1400185525417328,
            -0.003606098936870694,
            -0.580760657787323,
            -0.7071616649627686,
            -0.38981854915618896,
            -0.13032780587673187,
            -0.5719971060752869,
            0.03304833918809891,
            0.12960147857666016,
            -0.20114459097385406,
            -0.014917290769517422,
            0.34811386466026306,
            0.6629714369773865,
            -0.0798482671380043,
            0.19411823153495789,
            0.0732996016740799,
            0.7692074179649353,
            -0.3368690609931946,
            -0.4805077910423279
        ],
        [
            -0.07340709865093231,
            0.15977750718593597,
            0.07379218935966492,
            -0.0029748124070465565,
            0.08468534052371979,
            0.2516622841358185,
            0.06616228073835373,
            0.005140391644090414,
            -0.006774634122848511,
            0.028044596314430237,
            0.026311149820685387,
            0.017384832724928856,
            0.02863670140504837,
            0.1969478726387024,
            0.05426248162984848,
            0.13711373507976532,
            -0.14696036279201508,
            -0.08679576963186264,
            -0.011692781001329422,
            0.05932900682091713,
            -0.23005200922489166,
            -0.07738959044218063,
            -0.028460731729865074,
            -0.1034974455833435,
            -0.07178574800491333,
            -0.11998297274112701,
            0.017867928370833397,
            0.16378344595432281,
            0.0971483439207077,
            -0.20660974085330963,
            -0.29046356678009033,
            -0.005988295190036297
        ],
        [
            0.20618365705013275,
            -0.02286222204566002,
            0.020989244803786278,
            0.2090349942445755,
            0.6448580026626587,
            -0.06083371862769127,
            0.33401361107826233,
            -0.06995029002428055,
            0.034853994846343994,
            0.0842289999127388,
            -0.20759981870651245,
            0.1493978053331375,
            -0.13436610996723175,
            0.037920188158750534,
            -0.012402436695992947,
            -0.7614015340805054,
            -0.08435777574777603,
            -0.07948879152536392,
            0.007530637085437775,
            -0.06569243967533112,
            0.07504308968782425,
            -0.14656682312488556,
            -0.02907206118106842,
            0.09594974666833878,
            0.028137024492025375,
            0.07208403199911118,
            0.15598073601722717,
            0.05354396626353264,
            -0.05698340758681297,
            -0.0636385902762413,
            -0.03653997927904129,
            0.21354760229587555
        ],
        [
            0.03843590244650841,
            -0.0595008060336113,
            -0.04580233246088028,
            0.060489263385534286,
            -0.22423791885375977,
            -0.05218097195029259,
            -0.041817206889390945,
            0.07250222563743591,
            0.12998779118061066,
            0.18704989552497864,
            -0.0469978041946888,
            0.18092334270477295,
            0.01697518117725849,
            -0.02361583337187767,
            -0.13893911242485046,
            0.5745127201080322,
            -0.08350133895874023,
            -0.058284908533096313,
            0.0019351051887497306,
            -0.06025714427232742,
            -0.19276343286037445,
            -0.06919228285551071,
            0.08940090984106064,
            0.18064840137958527,
            -0.06072681024670601,
            -0.13336551189422607,
            -0.1304164081811905,
            0.14809028804302216,
            0.1081651970744133,
            0.08376400917768478,
            -0.05309050902724266,
            -0.21982967853546143
        ],
        [
            0.0385730043053627,
            -0.04828539863228798,
            0.05333717539906502,
            -0.012453775852918625,
            -0.2699033319950104,
            -0.16003353893756866,
            0.1116347387433052,
            0.12522892653942108,
            0.07679945975542068,
            0.1791229099035263,
            -0.019927460700273514,
            -0.059038348495960236,
            -0.14255160093307495,
            0.013918022625148296,
            -0.06733545660972595,
            0.38054919242858887,
            0.14836256206035614,
            0.07408712804317474,
            -0.17159363627433777,
            0.016540860757231712,
            -0.011769663542509079,
            -0.1265677511692047,
            -0.10337505489587784,
            -0.16413478553295135,
            0.042635418474674225,
            -0.23991692066192627,
            -0.18673047423362732,
            -0.044967759400606155,
            -0.26974302530288696,
            -0.007526541128754616,
            0.15967468917369843,
            -0.08267015218734741
        ],
        [
            -0.055003467947244644,
            -0.06180443614721298,
            -0.10540976375341415,
            -0.5310419201850891,
            -0.5666828155517578,
            0.1998300850391388,
            -0.10770158469676971,
            -0.13984477519989014,
            0.06380520761013031,
            0.42147693037986755,
            -0.1897566169500351,
            0.23085394501686096,
            -0.1751101016998291,
            -0.0011046214494854212,
            0.11350850015878677,
            1.8318654298782349,
            0.43130460381507874,
            0.0012900889851152897,
            -0.19112931191921234,
            -0.5015363097190857,
            0.13128390908241272,
            0.03896080330014229,
            -0.4159089922904968,
            -0.22517040371894836,
            0.09440402686595917,
            0.023931991308927536,
            -0.38822993636131287,
            -0.22253642976284027,
            0.15021851658821106,
            -0.05725197494029999,
            0.9344659447669983,
            0.18623754382133484
        ],
        [
            -0.1307213008403778,
            0.21332941949367523,
            -0.3557847738265991,
            -0.08961386978626251,
            -0.37136557698249817,
            0.5225861668586731,
            -0.1338842809200287,
            0.0005380474613048136,
            -0.23278070986270905,
            0.03594162315130234,
            -0.06577963382005692,
            -0.24043342471122742,
            0.11510724574327469,
            -0.33237677812576294,
            0.29590141773223877,
            1.234785795211792,
            0.3664383292198181,
            0.08834639936685562,
            0.29618412256240845,
            -0.4123572111129761,
            -0.26299700140953064,
            -0.4150834083557129,
            -0.04488745331764221,
            -0.3892982304096222,
            -0.4330363869667053,
            -0.26347750425338745,
            0.1503443419933319,
            -0.26827695965766907,
            -0.31482091546058655,
            -0.37513649463653564,
            -0.09064877778291702,
            -0.33548253774642944
        ],
        [
            -0.10051164031028748,
            -0.021306661888957024,
            -0.04971075803041458,
            0.1828482300043106,
            0.5203759670257568,
            0.06600753217935562,
            0.20967605710029602,
            -0.09308037161827087,
            -0.010090185329318047,
            0.21807335317134857,
            -0.009307808242738247,
            0.020527368411421776,
            -0.1004330962896347,
            0.07435781508684158,
            -0.11494990438222885,
            -0.40705063939094543,
            -0.17483027279376984,
            0.020136691629886627,
            -0.06447406113147736,
            0.2193608433008194,
            -0.07353726029396057,
            -0.06595335900783539,
            0.031375396996736526,
            -0.034264374524354935,
            0.11431015282869339,
            0.24999716877937317,
            -0.16907475888729095,
            0.208002507686615,
            0.23350778222084045,
            0.12466701865196228,
            0.06741620600223541,
            0.003400128334760666
        ],
        [
            0.012874861247837543,
            -0.04022460803389549,
            0.07726747542619705,
            -0.016517793759703636,
            -1.034231424331665,
            -0.2211163192987442,
            -0.010268144309520721,
            0.08587576448917389,
            0.143352672457695,
            0.33154457807540894,
            0.01752336695790291,
            -0.022886959835886955,
            -0.09827633202075958,
            0.050883740186691284,
            -0.13592106103897095,
            0.09102336317300797,
            -0.23459872603416443,
            0.005231318064033985,
            -0.031147604808211327,
            -0.24015894532203674,
            0.025233400985598564,
            0.13253195583820343,
            -0.15488272905349731,
            0.0617976188659668,
            -0.029791884124279022,
            0.28422248363494873,
            -0.04840148240327835,
            0.0021818203385919333,
            0.1641172468662262,
            -0.07606080174446106,
            -0.12971869111061096,
            0.12963958084583282
        ],
        [
            -0.08737052977085114,
            0.3225579857826233,
            0.035661179572343826,
            0.1538061797618866,
            0.43622061610221863,
            -0.18052184581756592,
            -0.2946297228336334,
            -0.21936678886413574,
            -0.12699083983898163,
            -0.06069149449467659,
            -0.3656030595302582,
            0.08378444612026215,
            -0.13237608969211578,
            -0.12172754853963852,
            0.20475652813911438,
            1.4719902276992798,
            -0.029987797141075134,
            0.16575247049331665,
            0.09995925426483154,
            -0.07922165840864182,
            -0.09805501252412796,
            0.0861082673072815,
            -0.04285894334316254,
            -0.05156557261943817,
            -0.2759525775909424,
            0.08510328829288483,
            0.21623313426971436,
            -0.4662485718727112,
            -0.09217816591262817,
            -0.2074466049671173,
            -0.22344930469989777,
            0.0979599878191948
        ],
        [
            -0.21411558985710144,
            -0.0693851113319397,
            0.1264452487230301,
            0.045455727726221085,
            -0.10566195100545883,
            1.025797724723816,
            0.060234472155570984,
            0.2529376149177551,
            -0.08875998109579086,
            0.002095242030918598,
            0.02602762170135975,
            -0.35651615262031555,
            0.1518189162015915,
            0.01924842596054077,
            0.27970412373542786,
            0.2064269334077835,
            -0.09603077918291092,
            0.38059407472610474,
            0.07349029928445816,
            0.4376022219657898,
            -0.150505930185318,
            -0.09507160633802414,
            0.08546004444360733,
            -0.1720656305551529,
            -0.21320992708206177,
            -0.12177273631095886,
            0.17615242302417755,
            -0.24754993617534637,
            -0.18213696777820587,
            -0.22004267573356628,
            0.1293649673461914,
            -0.3027838170528412
        ],
        [
            -0.003786265617236495,
            0.017415432259440422,
            0.10364346206188202,
            0.12792761623859406,
            0.23226025700569153,
            0.16830351948738098,
            -0.022666601464152336,
            0.05022675544023514,
            0.033203545957803726,
