{
    "conv.conv.weight": [
        [
            [
                -0.013645922765135765,
                -0.04704064875841141,
                -0.02926560863852501,
                -0.004366134759038687,
                -0.009491360746324062,
                0.0027143557090312243,
                -0.0013309110654518008,
                0.013747908174991608,
                -0.014780400320887566,
                -0.004860623273998499,
                0.0012478084536269307,
                0.08246050775051117,
                -0.015999261289834976,
                0.07667916268110275,
                -0.0121918935328722,
                0.03985751420259476,
                -0.028515411540865898,
                0.04078875482082367,
                -0.06751442700624466,
                0.05181033909320831,
                -0.02666483074426651,
                -0.022184574976563454,
                -0.05885819345712662,
                0.030686024576425552,
                -0.05111653730273247,
                0.058764610439538956,
                -0.01725866086781025,
                -0.031142106279730797,
                0.03323005884885788,
                0.10555152595043182,
                0.23251652717590332
            ]
        ],
        [
            [
                -0.015249760821461678,
                -0.04505211114883423,
                -0.032091863453388214,
                -0.00028933657449670136,
                -0.015805993229150772,
                0.009079831652343273,
                -0.008831050246953964,
                0.0196993425488472,
                -0.019162941724061966,
                -0.003443480934947729,
                3.36272714775987e-05,
                0.08104942739009857,
                -0.01557100098580122,
                0.07172179967164993,
                -0.0106887212023139,
                0.037603892385959625,
                -0.026172911748290062,
                0.030510926619172096,
                -0.06127767637372017,
                0.04405631124973297,
                -0.0213337242603302,
                -0.03609813377261162,
                -0.04635222628712654,
                0.014053892344236374,
                -0.04538601636886597,
                0.039518628269433975,
                -0.019636141136288643,
                -0.08356726914644241,
                -0.05108623206615448,
                -0.14372608065605164,
                -0.2837105393409729
            ]
        ],
        [
            [
                -0.019448546692728996,
                -0.05140100046992302,
                -0.02866530977189541,
                -0.009615695104002953,
                -0.005873981863260269,
                -0.005481011234223843,
                0.008943038992583752,
                0.003457877552136779,
                0.0034973635338246822,
                -0.016561515629291534,
                0.01813288778066635,
                0.07264844328165054,
                0.0005562932346947491,
                0.05991062521934509,
                -0.003762301290407777,
                0.03893158584833145,
                -0.01676766946911812,
                0.010463332757353783,
                -0.04872192442417145,
                0.027715463191270828,
                -0.017222249880433083,
                -0.04030178487300873,
                -0.042213838547468185,
                0.027523217722773552,
                -0.01945381984114647,
                0.03295297175645828,
                0.01959819905459881,
                -0.05345705896615982,
                0.04961715266108513,
                0.01917906291782856,
                0.031202444806694984
            ]
        ],
        [
            [
                -0.014415052719414234,
                -0.0442342646420002,
                -0.030379507690668106,
                -0.0007108734571374953,
                -0.013348512351512909,
                0.006860659457743168,
                -0.0038027723785489798,
                0.015074437484145164,
                -0.012088822200894356,
                -0.00898298341780901,
                0.008637197315692902,
                0.0723540261387825,
                -0.000793044688180089,
                0.05895809456706047,
                0.008359981700778008,
                0.02433842606842518,
                -0.0031207979191094637,
                0.008026205003261566,
                -0.031012248247861862,
                0.02521226927638054,
                0.0048362379893660545,
                -0.05172266438603401,
                -0.012647540308535099,
                0.003751611104235053,
                -0.02365448884665966,
                0.028106292709708214,
                0.014631116762757301,
                -0.05345264449715614,
                0.0035800300538539886,
                0.007729740347713232,
                0.04680689424276352
            ]
        ],
        [
            [
                -0.013627707958221436,
                -0.050109997391700745,
                -0.028297685086727142,
                -0.006998872850090265,
                -0.010450465604662895,
                -0.00052231689915061,
                0.002032877877354622,
                0.008764388039708138,
                -0.007784642279148102,
                -0.013205691240727901,
                0.010725371539592743,
                0.07094026356935501,
                -0.004111114889383316,
                0.05876621603965759,
                0.0020471778698265553,
                0.030525732785463333,
                -0.017554957419633865,
                0.013837913982570171,
                -0.0380394272506237,
                0.030339719727635384,
                -0.013750954531133175,
                -0.02988252229988575,
                -0.028042538091540337,
                0.016736945137381554,
                -0.014411047101020813,
                0.042185161262750626,
                0.014190682210028172,
                -0.048247504979372025,
                0.019571105018258095,
                -0.017850613221526146,
                0.0646914467215538
            ]
        ],
        [
            [
                -0.012703635729849339,
                -0.047720056027173996,
                -0.028191516175866127,
                -0.004328035283833742,
                -0.010815461166203022,
                0.001768378890119493,
                0.0002384680847171694,
                0.011050146073102951,
                -0.011868218891322613,
                -0.00868090707808733,
                0.008737562224268913,
                0.06819100677967072,
                0.003303517820313573,
                0.054265476763248444,
                0.013321428559720516,
                0.023312099277973175,
                0.00255013071000576,
                0.001175959361717105,
                -0.01532664429396391,
                0.017412684857845306,
                0.0036609491799026728,
                -0.04401841014623642,
                -0.00495328800752759,
                0.002424887614324689,
                0.015013253316283226,
                0.01705562323331833,
                0.013815761543810368,
                -0.06736613065004349,
                0.0220462828874588,
                -0.032479967921972275,
                0.10591857135295868
            ]
        ],
        [
            [
                -0.00972749013453722,
                -0.04943206161260605,
                -0.02466297522187233,
                -0.008032768964767456,
                -0.0046103959903120995,
                -0.004409478046000004,
                0.008258698508143425,
                0.0028600229416042566,
                -0.003719020402058959,
                -0.01851152628660202,
                0.014011991210281849,
                0.06408727914094925,
                -0.0027945854235440493,
                0.056153636425733566,
                -0.00010295710671925917,
                0.026560384780168533,
                -0.01939469575881958,
                0.016726015135645866,
                -0.046248044818639755,
                0.03548823297023773,
                -0.020439954474568367,
                -0.02774689346551895,
                -0.036802973598241806,
                0.01587066613137722,
                -0.031174689531326294,
                0.049738407135009766,
                -0.004533517174422741,
                -0.009401477873325348,
                0.010389227420091629,
                0.043441060930490494,
                0.022641589865088463
            ]
        ],
        [
            [
                -0.013549260795116425,
                -0.04848327860236168,
                -0.026892781257629395,
                -0.00724894879385829,
                -0.006874569226056337,
                -0.0038244808092713356,
                0.006684985477477312,
                0.00173719332087785,
                0.00010758862481452525,
                -0.020635822787880898,
                0.016216399148106575,
                0.063479945063591,
                0.006117192097008228,
                0.04792585223913193,
                0.01282406598329544,
                0.020061688497662544,
                -0.0031575621105730534,
                -0.0008184360340237617,
                -0.02771863341331482,
                0.011575921438634396,
                0.0004935169708915055,
                -0.05020025372505188,
                -0.01912856101989746,
                0.01319428626447916,
                -0.0169443991035223,
                0.030531737953424454,
                0.03500450775027275,
                -0.022516073659062386,
                0.021483032032847404,
                -0.05658578500151634,
                0.12060822546482086
            ]
        ],
        [
            [
                -0.008802338503301144,
                -0.04900491610169411,
                -0.02073495276272297,
                -0.009211808443069458,
                0.002839118242263794,
                -0.009917411021888256,
                0.01853324845433235,
                -0.004691740032285452,
                0.00773311173543334,
                -0.023205192759633064,
                0.023751623928546906,
                0.05823418125510216,
                0.010658876039087772,
                0.05049683526158333,
                0.010464181192219257,
                0.025241732597351074,
                -0.000817677064333111,
                0.00557304872199893,
                -0.03259628266096115,
                0.027620108798146248,
                -0.009611826390028,
                -0.041114382445812225,
                -0.02856680378317833,
                0.01662317104637623,
                -0.026891954243183136,
                0.034204136580228806,
                -0.00728186871856451,
                -0.015587486326694489,
                0.0017374398885294795,
                0.043884605169296265,
                0.020603781566023827
            ]
        ],
        [
            [
                -0.012378718703985214,
                -0.05059124901890755,
                -0.021785542368888855,
                -0.010672248899936676,
                -0.0002629453083500266,
                -0.008172657340765,
                0.013159776106476784,
                -0.0005501123960129917,
                0.002954239957034588,
                -0.01874992996454239,
                0.014674900099635124,
                0.07229923456907272,
                -0.006989325862377882,
                0.06821152567863464,
                -0.010921375826001167,
                0.049912914633750916,
                -0.028326233848929405,
                0.035070884972810745,
                -0.0564369261264801,
                0.060515109449625015,
                -0.027149369940161705,
                -0.0016610784223303199,
                -0.04512982815504074,
                0.054653141647577286,
                -0.02635873109102249,
                0.0820498913526535,
                -0.007768762297928333,
                0.013604373671114445,
                -0.042469389736652374,
                -0.024058131501078606,
                -0.04837314411997795
            ]
        ],
        [
            [
                -0.013453430496156216,
                -0.047702811658382416,
                -0.027738934382796288,
                -0.004819824825972319,
                -0.01074975822120905,
                0.0014734560390934348,
                -0.0003997779858764261,
                0.010080796666443348,
                -0.009080846793949604,
                -0.013784321956336498,
                0.009002802893519402,
                0.07213082909584045,
                -0.0061133853159844875,
                0.05936592444777489,
                0.0031567346304655075,
                0.0290056224912405,
                -0.01170235313475132,
                0.008862326852977276,
                -0.0391714908182621,
                0.03062411956489086,
                -0.006530268117785454,
                -0.04058237001299858,
                -0.01619497500360012,
                0.021370552480220795,
                -0.019845932722091675,
                0.05370073765516281,
                0.02411092445254326,
                -0.03838242590427399,
                0.07060540467500687,
                0.1804775446653366,
                -0.1316569745540619
            ]
        ],
        [
            [
                -0.015899701043963432,
                -0.045010894536972046,
                -0.030870703980326653,
                -0.0019675493240356445,
                -0.0135806268081069,
                0.0051498753018677235,
                -0.004386273678392172,
                0.012174934148788452,
                -0.010326017625629902,
                -0.014725602231919765,
                0.009276838041841984,
                0.06999155133962631,
                -0.0077172573655843735,
                0.06073226407170296,
                -0.009234138764441013,
                0.03468066081404686,
                -0.025695880874991417,
                0.021664898842573166,
                -0.05825876072049141,
                0.04063614085316658,
                -0.020646708086133003,
                -0.0407206229865551,
                -0.04269932955503464,
                0.009828303009271622,
                -0.03868752717971802,
                0.05494335666298866,
                0.0122300386428833,
                -0.007008800748735666,
                0.010167564265429974,
                0.03369398042559624,
                0.19268979132175446
            ]
        ],
        [
            [
                -0.015315188094973564,
                -0.048375897109508514,
                -0.02675717882812023,
                -0.007544711232185364,
                -0.006540850270539522,
                -0.004662982188165188,
                0.007833997718989849,
                0.0015756665961816907,
                0.001932831946760416,
                -0.021552305668592453,
                0.01687176711857319,
                0.06505431234836578,
                0.0017931845504790545,
                0.05175238102674484,
                0.0039541153237223625,
                0.031029004603624344,
                -0.013172957114875317,
                0.004629762377589941,
                -0.0362713523209095,
                0.02404077723622322,
                -0.008089729584753513,
                -0.0407375805079937,
                -0.024659529328346252,
                0.020242583006620407,
                -0.021037515252828598,
                0.02297702617943287,
                0.008356028236448765,
                -0.04721732810139656,
                -0.012016532942652702,
                0.008502297103404999,
                0.004576286766678095
            ]
        ],
        [
            [
                -0.017656788229942322,
                -0.045639194548130035,
                -0.02984645590186119,
                -0.0029199018608778715,
                -0.012299411930143833,
                0.002983249258249998,
                -0.000826929637696594,
                0.010236961767077446,
                -0.006348070688545704,
                -0.015794795006513596,
                0.011149098165333271,
                0.0701170414686203,
                -0.00678865984082222,
                0.061648499220609665,
                -0.011080947704613209,
                0.04804851487278938,
                -0.030739115551114082,
                0.02312815934419632,
                -0.05494371056556702,
                0.042428161948919296,
                -0.023401325568556786,
                -0.029880212619900703,
                -0.03874742612242699,
                0.020808350294828415,
                -0.01847577840089798,
                0.03950749337673187,
                0.013321423903107643,
                -0.013236001133918762,
                0.03744133561849594,
                0.06568638235330582,
                0.2049335390329361
            ]
        ],
        [
            [
                -0.015109872445464134,
                -0.046814143657684326,
                -0.028098659589886665,
                -0.006722715217620134,
                -0.005938117392361164,
                -0.003947328310459852,
                0.007296852767467499,
                0.002311489311978221,
                -0.0006608899566344917,
                -0.020145339891314507,
                0.016694528982043266,
                0.06286197900772095,
                0.005380604881793261,
                0.052673228085041046,
                0.004599176812916994,
                0.029972847551107407,
                -0.013291062787175179,
                0.013341172598302364,
                -0.03854967653751373,
                0.02470690943300724,
                -0.01021599117666483,
                -0.03970269113779068,
                -0.035020336508750916,
                0.014057952910661697,
                -0.014215673319995403,
                0.03724636510014534,
                0.03313416242599487,
                0.03545042499899864,
                0.07406064122915268,
                0.041302550584077835,
                -0.25509876012802124
            ]
        ],
        [
            [
                -0.012333350256085396,
                -0.04887380823493004,
                -0.025400754064321518,
                -0.008788533508777618,
                -0.003577552968636155,
                -0.0064108604565262794,
                0.010004770010709763,
                0.0006209224811755121,
                -0.0005861514946445823,
                -0.019142569974064827,
                0.017522506415843964,
                0.06105400249361992,
                0.007947420701384544,
                0.04924605414271355,
                0.01083989068865776,
                0.01966084912419319,
                -0.0007351060630753636,
                0.002206874778494239,
                -0.022799136117100716,
                0.02253631316125393,
                -0.0018162340857088566,
                -0.040268465876579285,
                -0.019693905487656593,
                0.00836319662630558,
                -0.005233443807810545,
                0.03560710698366165,
                0.014181903563439846,
                0.000690751476213336,
                0.01866576448082924,
                0.055575817823410034,
                0.1013500913977623
            ]
        ]
    ],
    "conv.conv.bias": [
        -0.005761607084423304,
        0.2003328502178192,
        -0.0834813043475151,
        -0.10920044034719467,
        0.0788261741399765,
        -0.519832193851471,
        -0.14184662699699402,
        0.26981690526008606,
        0.019791217520833015,
        -0.1502963751554489,
        0.16302144527435303,
        -0.49111315608024597,
        -0.4289107322692871,
        0.5648103356361389,
        -0.3066634237766266,
        0.728587806224823
    ],
    "norm.weight": [
        0.6311841607093811,
        0.9098658561706543,
        0.23463113605976105,
        0.7291054129600525,
        0.31376686692237854,
        0.6486499905586243,
        0.5361537337303162,
        0.6906256675720215,
        0.2739890515804291,
        0.6491467952728271,
        0.6282906532287598,
        0.7568542957305908,
        0.7258998155593872,
        0.678309440612793,
        0.6389440298080444,
        0.7346259355545044
    ],
    "norm.bias": [
        0.0021187174133956432,
        -0.07732831686735153,
        0.04585810378193855,
        0.19029244780540466,
        -0.0787709504365921,
        0.35290148854255676,
        0.19237807393074036,
        -0.20876897871494293,
        -0.025243118405342102,
        0.23829573392868042,
        -0.24245743453502655,
        0.17199715971946716,
        0.20830944180488586,
        -0.36593255400657654,
        0.32656919956207275,
        -0.1422085016965866
    ],
    "knob_to_h0.0.weight": [
        [
            -0.78611159324646
        ],
        [
            1.1805744171142578
        ],
        [
            0.8571555018424988
        ],
        [
            -0.052838776260614395
        ],
        [
            -0.6221097111701965
        ],
        [
            -0.5945035815238953
        ],
        [
            -0.6638574600219727
        ],
        [
            0.163485586643219
        ],
        [
            0.6107156872749329
        ],
        [
            0.25168055295944214
        ],
        [
            -0.026631347835063934
        ],
        [
            -0.8920073509216309
        ],
        [
            -0.6052924394607544
        ],
        [
            -0.30623960494995117
        ],
        [
            -0.4930517077445984
        ],
        [
            0.41329535841941833
        ],
        [
            0.8111106753349304
        ],
        [
            -0.6628521680831909
        ],
        [
            -1.0231194496154785
        ],
        [
            0.6194474697113037
        ],
        [
            0.12279941886663437
        ],
        [
            0.6095713973045349
        ],
        [
            0.14476878941059113
        ],
        [
            0.33426421880722046
        ],
        [
            0.3037760555744171
        ],
        [
            0.9355176091194153
        ],
        [
            -0.7656727433204651
        ],
        [
            -1.0025697946548462
        ],
        [
            -0.6135856509208679
        ],
        [
            0.38746246695518494
        ],
        [
            -0.9757574796676636
        ],
        [
            -0.19263902306556702
        ],
        [
            -0.08119900524616241
        ],
        [
            0.041058193892240524
        ],
        [
            0.6315709948539734
        ],
        [
            0.4199906587600708
        ],
        [
            -0.48615485429763794
        ],
        [
            0.07141042500734329
        ],
        [
            0.5790802240371704
        ],
        [
            0.237654909491539
        ],
        [
            -0.38351529836654663
        ],
        [
            -1.1238181591033936
        ],
        [
            0.5836851596832275
        ],
        [
            -0.3714870512485504
        ],
        [
            0.1858694702386856
        ],
        [
            -0.3714335858821869
        ],
        [
            -0.3835223913192749
        ],
        [
            0.6112070679664612
        ],
        [
            0.13137952983379364
        ],
        [
            0.9056887626647949
        ],
        [
            -0.1062357947230339
        ],
        [
            -0.6470537781715393
        ],
        [
            -0.44566524028778076
        ],
        [
            -0.4428143799304962
        ],
        [
            -0.7495167851448059
        ],
        [
            -0.7077059149742126
        ],
        [
            -0.9605458974838257
        ],
        [
            0.12038897722959518
        ],
        [
            0.1859576255083084
        ],
        [
            0.41588130593299866
        ],
        [
            0.6376107335090637
        ],
        [
            -0.6534000039100647
        ],
        [
            0.9325174689292908
        ],
        [
            0.6872565746307373
        ],
        [
            0.5833554267883301
        ],
        [
            0.027777064591646194
        ],
        [
            -0.5350435376167297
        ],
        [
            -0.6075668931007385
        ],
        [
            -0.7415258288383484
        ],
        [
            -0.8267499804496765
        ],
        [
            -0.40154674649238586
        ],
        [
            0.6480502486228943
        ],
        [
            -0.6052646040916443
        ],
        [
            0.03966537490487099
        ],
        [
            0.5865535140037537
        ],
        [
            0.7628904581069946
        ],
        [
            -0.5522060990333557
        ],
        [
            -1.0137369632720947
        ],
        [
            0.7717680335044861
        ],
        [
            -0.6557691097259521
        ],
        [
            -0.8117601871490479
        ],
        [
            0.12191478163003922
        ],
        [
            -0.7263455390930176
        ],
        [
            -0.2914052903652191
        ],
        [
            0.575087308883667
        ],
        [
            0.2242106795310974
        ],
        [
            0.0841689184308052
        ],
        [
            -0.6280362010002136
        ],
        [
            0.6785702109336853
        ],
        [
            0.838374137878418
        ],
        [
            -0.8409360647201538
        ],
        [
            0.7354184985160828
        ],
        [
            0.21064913272857666
        ],
        [
            0.3434678614139557
        ],
        [
            -0.3793547451496124
        ],
        [
            -0.207159623503685
        ],
        [
            0.7757624387741089
        ],
        [
            -0.5631159543991089
        ],
        [
            -0.36880919337272644
        ],
        [
            -0.7526521682739258
        ],
        [
            -0.22373852133750916
        ],
        [
            -0.271319717168808
        ],
        [
            0.9745154976844788
        ],
        [
            -0.7620857357978821
        ],
        [
            0.40686455368995667
        ],
        [
            0.6553735136985779
        ],
        [
            0.6038232445716858
        ],
        [
            -0.27777737379074097
        ],
        [
            -0.0659242495894432
        ],
        [
            -0.30256420373916626
        ],
        [
            0.300212562084198
        ],
        [
            0.4583010971546173
        ],
        [
            -0.2839656472206116
        ],
        [
            0.8930736780166626
        ],
        [
            0.9580477476119995
        ],
        [
            0.4088207185268402
        ],
        [
            0.21180203557014465
        ],
        [
            -0.7413124442100525
        ],
        [
            0.6053342819213867
        ],
        [
            -0.7340549230575562
        ],
        [
            -0.6635981798171997
        ],
        [
            0.9714890122413635
        ],
        [
            -0.18261057138442993
        ],
        [
            -1.1323493719100952
        ],
        [
            -0.49150633811950684
        ],
        [
            -0.4076633155345917
        ],
        [
            0.7996990084648132
        ],
        [
            -0.32287919521331787
        ]
    ],
    "knob_to_h0.0.bias": [
        -0.7920687794685364,
        -0.19915837049484253,
        -0.2802525758743286,
        -0.19168402254581451,
        -0.39316678047180176,
        -0.5869435667991638,
        0.3400423228740692,
        -0.41955292224884033,
        0.6855911016464233,
        0.5445830821990967,
        0.2970387637615204,
        0.26800447702407837,
        -0.31298601627349854,
        0.9500435590744019,
        -0.3386639356613159,
        0.6065086126327515,
        0.9045649170875549,
        -0.47958096861839294,
        -0.8459594249725342,
        0.2592867910861969,
        0.031021472066640854,
        0.007252752780914307,
        0.6841404438018799,
        0.8794843554496765,
        -0.3452741801738739,
        0.8260322213172913,
        0.831070065498352,
        -0.6019956469535828,
        0.8967064023017883,
        0.3302965462207794,
        0.6249409317970276,
        -0.013297959230840206,
        -0.5112068057060242,
        -0.02362395077943802,
        0.3585130274295807,
        0.038936860859394073,
        -0.027753295376896858,
        0.9780281782150269,
        0.48942163586616516,
        -0.5558938980102539,
        0.13655181229114532,
        -0.07326706498861313,
        -0.1033453717827797,
        -0.7409294247627258,
        0.7006857395172119,
        -0.28693506121635437,
        0.8937935829162598,
        0.6571325063705444,
        -0.3781323730945587,
        0.9794911742210388,
        0.6123780608177185,
        0.5557022094726562,
        0.2470063418149948,
        -0.6995636224746704,
        -0.27379000186920166,
        0.7409939169883728,
        -0.8428365588188171,
        -0.07477914541959763,
        -0.14303460717201233,
        0.1970025897026062,
        -0.2726224660873413,
        0.40386202931404114,
        -0.05747226998209953,
        0.4998636245727539,
        0.5307466387748718,
        -0.2853827178478241,
        -0.5886346101760864,
        -0.009474044665694237,
        -0.6988996267318726,
        -0.15816384553909302,
        0.7435809373855591,
        0.7013786435127258,
        -0.07094158977270126,
        1.0215559005737305,
        -0.7928093075752258,
        1.0829286575317383,
        -0.955827534198761,
        -0.3058970272541046,
        -0.2895209491252899,
        0.21950441598892212,
        0.46921899914741516,
        0.607454240322113,
        1.0512218475341797,
        0.1297559142112732,
        -0.7533461451530457,
        -0.9824305772781372,
        -0.48494482040405273,
        0.9068781733512878,
        -0.17763829231262207,
        -0.28712373971939087,
        -0.36860722303390503,
        0.5699612498283386,
        0.9141010642051697,
        0.3567793369293213,
        -0.2919566035270691,
        0.4172969162464142,
        -0.6938427686691284,
        0.10959272086620331,
        -0.10660822689533234,
        -0.0142129585146904,
        -0.033955447375774384,
        -0.5544663667678833,
        0.4410146474838257,
        -0.8946195840835571,
        0.23927029967308044,
        0.44340068101882935,
        -0.734552800655365,
        0.5178920030593872,
        -0.14125972986221313,
        0.8584974408149719,
        -0.6323366761207581,
        -0.7617883682250977,
        -0.46660739183425903,
        0.9045152068138123,
        -0.6642279028892517,
        0.633807897567749,
        -0.4013369381427765,
        -0.021795419976115227,
        -0.6172391772270203,
        0.0059017520397901535,
        -0.9584236145019531,
        -0.3472644090652466,
        0.5451971292495728,
        0.2866891324520111,
        -0.0875333920121193,
        0.1806112676858902,
        0.3079332709312439,
        0.1055029109120369
    ],
    "gru.weight_ih_l0": [
        [
            0.11175574362277985,
            -0.23742251098155975,
            -0.17520104348659515,
            0.16801442205905914,
            -0.06223352253437042,
            0.23796053230762482,
            0.21529848873615265,
            -0.19894607365131378,
            0.014114102348685265,
            0.03901001438498497,
            -0.24892359972000122,
            0.19602105021476746,
            0.11151839047670364,
            -0.20556391775608063,
            0.12796373665332794,
            -0.1956905722618103,
            -0.14971497654914856
        ],
        [
            -0.23291368782520294,
            0.3338578939437866,
            0.07883676141500473,
            0.0968865305185318,
            -0.08787301182746887,
            -0.022970110177993774,
            0.08664800971746445,
            -0.03907409682869911,
            -0.15751230716705322,
            0.22185435891151428,
            0.07020711153745651,
            -0.026357147842645645,
            -0.04527667164802551,
            -0.17838752269744873,
            0.17833946645259857,
            -0.11777305603027344,
            -0.187775656580925
        ],
        [
            -0.041795141994953156,
            0.1508893519639969,
            0.06535841524600983,
            -0.05178548023104668,
            0.024165939539670944,
            -0.10522396117448807,
            -0.0008006675052456558,
            0.07457016408443451,
            -0.06847100704908371,
            0.08124438673257828,
            0.24453702569007874,
            -0.10408112406730652,
            -0.09214425086975098,
            -0.09499997645616531,
            0.08653390407562256,
            -0.0014457997167482972,
            -0.02571929059922695
        ],
        [
            -0.046799175441265106,
            -0.39519602060317993,
            0.12811310589313507,
            0.15869955718517303,
            -0.12060493230819702,
            0.22584840655326843,
            0.004157887306064367,
            -0.1943342238664627,
            0.021826617419719696,
            0.15535618364810944,
            -0.12066357582807541,
            0.3434584438800812,
            0.21898962557315826,
            -0.18026818335056305,
            0.2053072452545166,
            -0.22893834114074707,
            -0.23531244695186615
        ],
        [
            -0.1692817062139511,
            -0.08901713788509369,
            0.2861277163028717,
            0.2671334445476532,
            -0.043866097927093506,
            0.1615881770849228,
            0.08177144825458527,
            -0.19781118631362915,
            -0.03951016068458557,
            0.3804776966571808,
            -0.18725217878818512,
            0.19033931195735931,
            0.25238460302352905,
            -0.3263165354728699,
            0.35924163460731506,
            -0.3061024844646454,
            -0.19446197152137756
        ],
        [
            -0.1434464305639267,
            -0.14113259315490723,
            0.005062722600996494,
            0.12515120208263397,
            -0.028659939765930176,
            0.10984203964471817,
            0.09167224168777466,
            0.004009757656604052,
            0.09354806691408157,
            0.15526367723941803,
            -0.16178923845291138,
            0.021618632599711418,
            0.036690060049295425,
            -0.10037977248430252,
            0.16238746047019958,
            -0.05547543242573738,
            -0.14452555775642395
        ],
        [
            -0.3454224169254303,
            0.059062935411930084,
            -0.11363696306943893,
            0.07847601175308228,
            -0.22319622337818146,
            0.12555962800979614,
            0.19592402875423431,
            -0.20673103630542755,
            -0.11625029891729355,
            0.1915985494852066,
            -0.0008012563921511173,
            0.09365156292915344,
            0.16190911829471588,
            -0.18576973676681519,
            0.21589812636375427,
            -0.10863562673330307,
            0.1316739320755005
        ],
        [
            -0.04868243262171745,
            -0.01962530054152012,
            -0.04269147664308548,
            0.02896096184849739,
            -0.12109415233135223,
            -0.022460978478193283,
            0.05878117308020592,
            -0.007517767138779163,
            -0.052401334047317505,
            0.018442079424858093,
            -0.1605387181043625,
            0.07932110875844955,
            0.021307459101080894,
            -0.05026343837380409,
            0.12493262439966202,
            -0.04839843884110451,
            0.1984630972146988
        ],
        [
            -0.08519329875707626,
            0.06593244522809982,
            0.135422483086586,
            -0.11161676049232483,
            -0.08901242911815643,
            0.09118867665529251,
            -0.006160351447761059,
            -0.11065130680799484,
            -0.05409514904022217,
            0.09562478214502335,
            0.1258641630411148,
            -0.04732903093099594,
            -0.053961556404829025,
            -0.06598379462957382,
            0.18116885423660278,
            -0.016330275684595108,
            -0.2191498577594757
        ],
        [
            -0.34198054671287537,
            0.14816874265670776,
            0.04225639998912811,
            0.2517396807670593,
            -0.14561431109905243,
            0.08961626142263412,
            0.16198191046714783,
            -0.23446159064769745,
            -0.11983927339315414,
            0.2674410045146942,
            -0.1764763593673706,
            0.0037135970778763294,
            0.17462386190891266,
            -0.2845759093761444,
            0.33820536732673645,
            -0.19631707668304443,
            -0.17531120777130127
        ],
        [
            -0.06293954700231552,
            -0.1029883548617363,
            0.08571002632379532,
            0.02619478665292263,
            0.1911407709121704,
            0.1045193001627922,
            -0.0712975487112999,
            -0.06075982749462128,
            0.16662590205669403,
            0.10575905442237854,
            -0.1600835770368576,
            0.14817753434181213,
            0.10562695562839508,
            -0.1437148004770279,
            0.06085784733295441,
            -0.16353216767311096,
            -0.08072274923324585
        ],
        [
            -0.0793578252196312,
            -0.29195064306259155,
            -0.08327935636043549,
            0.13314621150493622,
            -0.16019614040851593,
            0.20626816153526306,
            0.26714685559272766,
            -0.21705973148345947,
            -0.09092707931995392,
            0.18321113288402557,
            -0.0584137886762619,
            0.18980708718299866,
            0.153742715716362,
            -0.17314885556697845,
            0.4557236433029175,
            -0.22450436651706696,
            -0.149289071559906
        ],
        [
            0.03862834721803665,
            -0.060567088425159454,
            0.02847260981798172,
            0.09769929945468903,
            0.05691147968173027,
            0.0798119381070137,
            0.1235298290848732,
            -0.1480679214000702,
            0.08492125570774078,
            0.13760095834732056,
            -0.20100630819797516,
            0.1135815903544426,
            0.11195649206638336,
            -0.07441455870866776,
            0.05431745946407318,
            -0.261626273393631,
            -0.5171458125114441
        ],
        [
            0.37534573674201965,
            -0.4569206237792969,
            0.13346292078495026,
            -0.049297381192445755,
            -0.04621989652514458,
            0.27913138270378113,
            0.045409198850393295,
            -0.21660096943378448,
            0.12261982262134552,
            0.026743251830339432,
            -0.048880308866500854,
            0.3396315574645996,
            0.17103442549705505,
            -0.3086015284061432,
            0.25153449177742004,
            -0.24118416011333466,
            -0.019372714683413506
        ],
        [
            -0.11727647483348846,
            0.09189016371965408,
            0.2060089111328125,
            -0.004017057828605175,
            0.061999350786209106,
            -0.003003450110554695,
            0.21671223640441895,
            0.04172952100634575,
            -0.13831272721290588,
            0.18744181096553802,
            -0.002461846452206373,
            -0.10611552745103836,
            -0.00848210696130991,
            -0.05537605285644531,
            0.054532699286937714,
            0.060851797461509705,
            0.4172663688659668
        ],
        [
            0.06705392897129059,
            -0.03736484795808792,
            -0.04258149117231369,
            -0.009551526978611946,
            0.02117973193526268,
            -0.01701423153281212,
            -0.12940725684165955,
            0.09807495027780533,
            0.20100177824497223,
            -0.18326665461063385,
            -0.1714860051870346,
            0.026857230812311172,
            0.014827869832515717,
            0.10146461427211761,
            -0.1121271550655365,
            -0.009781001135706902,
            -0.013425515964627266
        ],
        [
            -0.1811618208885193,
            0.02617105469107628,
            0.04123573750257492,
            0.24373440444469452,
            -0.09708720445632935,
            0.16549856960773468,
            0.023437881842255592,
            -0.24759796261787415,
            -0.05323416367173195,
            0.18917955458164215,
            -0.15638649463653564,
            0.15540428459644318,
            0.12313426285982132,
            -0.07502152770757675,
            0.12512871623039246,
            -0.1431526243686676,
            -0.012485023587942123
        ],
        [
            0.02194351889193058,
            -0.0906878188252449,
            0.18532858788967133,
            0.09564007073640823,
            -0.0017625615000724792,
            0.17362014949321747,
            -0.12267079204320908,
            0.06675474345684052,
            0.12999501824378967,
            -0.1759503036737442,
            -0.08342158794403076,
            0.1647438257932663,
            0.02424066700041294,
            -0.14225660264492035,
            -0.1148320809006691,
            -0.1517866849899292,
            -0.006056284066289663
        ],
        [
            0.1796976923942566,
            -0.2721814513206482,
            -0.0005217887228354812,
            -0.03761216998100281,
            -0.03480171039700508,
            0.06830573827028275,
            -0.02518940344452858,
            -0.009544366970658302,
            -0.035429660230875015,
            0.03423184156417847,
            -0.1535792052745819,
            0.049174074083566666,
            0.1302047222852707,
            -0.003861544653773308,
            0.06664936989545822,
            -0.083973728120327,
            -0.27110257744789124
        ],
        [
            0.08161924034357071,
            -0.13515044748783112,
            -0.10862023383378983,
            0.1376703977584839,
            0.08912575244903564,
            0.06510324031114578,
            -0.05019460618495941,
            -0.11626587808132172,
            -0.013319555670022964,
            -0.04513893276453018,
            -0.15007248520851135,
            0.11294084787368774,
            0.1926550418138504,
            -0.052640967071056366,
            0.1198425441980362,
            -0.1021423414349556,
            0.08166996389627457
        ],
        [
            -0.036579158157110214,
            -0.03792795166373253,
            -0.24007560312747955,
            -0.017600029706954956,
            -0.051035076379776,
            -0.08610490709543228,
            0.04094711318612099,
            -0.03745873272418976,
            -0.06710352748632431,
            0.06942633539438248,
            0.15988337993621826,
            -0.16838398575782776,
            -0.010950709693133831,
            -0.1274489015340805,
            0.16349220275878906,
            -0.03982812166213989,
            0.15423902869224548
        ],
        [
            -0.12133369594812393,
            -0.10706528276205063,
            -0.22279535233974457,
            -0.14988663792610168,
            0.05266688019037247,
            0.09176160395145416,
            0.08254914730787277,
            -0.06125990301370621,
            -0.014629926532506943,
            -0.07929442822933197,
            0.01120612770318985,
            0.16278670728206635,
            0.023800238966941833,
            -0.016597963869571686,
            0.09623635560274124,
            -0.11790958046913147,
            -0.030905814841389656
        ],
        [
            0.0986752063035965,
            -0.21721480786800385,
            0.014740781858563423,
            0.094566710293293,
            0.030560191720724106,
            0.19353167712688446,
            -0.04155491665005684,
            -0.1223565861582756,
            0.14309489727020264,
            -0.22264273464679718,
            -0.27530577778816223,
            0.1807447373867035,
            0.15460483729839325,
            -0.022330138832330704,
            -0.10444100946187973,
            -0.10457299649715424,
            -0.23428183794021606
        ],
        [
            -0.047979939728975296,
            0.20699694752693176,
            0.1178191751241684,
            0.01437564380466938,
            0.050346873700618744,
            -0.10472535341978073,
            -0.0037335895467549562,
            0.06666826456785202,
            0.12775929272174835,
            -0.020243579521775246,
            0.07609239220619202,
            -0.1961272656917572,
            -0.10348940640687943,
            -0.03720251843333244,
            0.0015025691827759147,
            0.07685573399066925,
            0.41416582465171814
        ],
        [
            -0.17352816462516785,
            0.08142242580652237,
            0.05477610602974892,
            0.07675427198410034,
            -0.14578229188919067,
            0.11437435448169708,
            -0.009874891489744186,
            0.003369066398590803,
            -0.11986277252435684,
            -0.031547073274850845,
            -0.09623246639966965,
            0.11835353821516037,
            0.008393890224397182,
            -0.07285604625940323,
            -0.025295505300164223,
            -0.07686920464038849,
            -0.3617068827152252
        ],
        [
            -0.025314804166555405,
            0.059984780848026276,
            -0.04673868790268898,
            0.11327660828828812,
            -0.11226005107164383,
            0.1427244246006012,
            0.007362442556768656,
            -0.05870373547077179,
            -0.05896060913801193,
            0.17774750292301178,
            -0.12456473708152771,
            0.02129724621772766,
            0.1928521692752838,
            -0.19716493785381317,
            0.19773881137371063,
            -0.07142326235771179,
            -0.22431506216526031
        ],
        [
            -0.17523737251758575,
            0.06927640736103058,
            -0.05000822991132736,
            0.20974424481391907,
            -0.24114763736724854,
            0.13758906722068787,
            0.16327325999736786,
            -0.24693618714809418,
            -0.10236884653568268,
            0.18243980407714844,
            0.0072027998976409435,
            0.18287716805934906,
            0.14145898818969727,
            -0.2684067487716675,
            0.2770025134086609,
            -0.10839531570672989,
            0.0028321912977844477
        ],
        [
            0.1888427734375,
            -0.24272207915782928,
            -0.18516556918621063,
            0.02825063467025757,
            0.08475851267576218,
            0.22668911516666412,
            -0.17349444329738617,
            -0.06156512722373009,
            0.08397481590509415,
            -0.061093710362911224,
            -0.09772472828626633,
            0.11032333225011826,
            0.17755167186260223,
            0.04246343672275543,
            -0.08802548795938492,
            -0.026282314211130142,
            0.057002633810043335
        ],
        [
            0.1411813646554947,
            -0.14376410841941833,
            -0.27228060364723206,
            0.1542072296142578,
            -0.0674949586391449,
            0.22219401597976685,
            0.01211265567690134,
            -0.11512897163629532,
            -0.18160690367221832,
            -0.08079275488853455,
            -0.09056185185909271,
            0.19009444117546082,
            0.15221506357192993,
            -0.15684568881988525,
            -0.0348723866045475,
            -0.2207041233778,
            -0.005085483193397522
        ],
        [
            0.24052637815475464,
            -0.1248265728354454,
            -0.28705787658691406,
            -0.07317033410072327,
            -0.07421688735485077,
            0.05278029292821884,
            0.15385405719280243,
            -0.1496138870716095,
            -0.009212496690452099,
            -0.0014762819046154618,
            -0.09724822640419006,
            0.20789554715156555,
            0.05884930118918419,
            0.025271518155932426,
            0.08974748104810715,
            -0.06418495625257492,
            -0.0968293845653534
        ],
        [
            0.14949119091033936,
            -0.057058654725551605,
            -0.019872188568115234,
            0.0593804232776165,
            -0.106720469892025,
            -0.007813330739736557,
            -0.04987158998847008,
            -0.10509445518255234,
            -0.13105666637420654,
            -0.08026254177093506,
            0.08954564481973648,
            0.09045690298080444,
            0.026880567893385887,
            -0.11870831251144409,
            0.11757650971412659,
            -0.12999512255191803,
            -0.2857365608215332
        ],
        [
            -0.01954364776611328,
            0.13350379467010498,
            0.0007162469555623829,
            -0.3148674964904785,
            0.02035612054169178,
            -0.14185775816440582,
            -0.14216063916683197,
            0.15786059200763702,
            0.10666081309318542,
            -0.08473868668079376,
            0.04487626627087593,
            -0.11935093253850937,
            -0.223485067486763,
            0.1317787915468216,
            -0.1347825825214386,
            0.12665171921253204,
            0.5589497089385986
        ],
        [
            -0.05599085986614227,
            0.032279692590236664,
            -0.08619944751262665,
            0.1598723828792572,
            -0.06755620241165161,
            0.02594958245754242,
            0.13273201882839203,
            -0.14548249542713165,
            -0.039551544934511185,
            0.08215242624282837,
            -0.05465005338191986,
            0.08644656091928482,
            0.10806448012590408,
            -0.2161225825548172,
            0.23315706849098206,
            -0.18775483965873718,
            0.021472593769431114
        ],
        [
            0.08808105438947678,
            -0.06867843866348267,
            -0.1233687549829483,
            -0.21673794090747833,
            -0.14422443509101868,
            -0.10965316742658615,
            -0.12431324273347855,
            0.09084881842136383,
            -0.07553574442863464,
            -0.2780970335006714,
            0.16981443762779236,
            0.02168518304824829,
            -0.11726860702037811,
            0.18475645780563354,
            -0.1443050056695938,
            0.12345974147319794,
            0.20168042182922363
        ],
        [
            -0.13862068951129913,
            -0.05001557245850563,
            0.10912937670946121,
            0.05662587657570839,
            -0.02306152693927288,
            0.06403135508298874,
            0.033725857734680176,
            -0.03219189867377281,
            -0.020717252045869827,
            -0.020785953849554062,
            -0.10133100301027298,
            0.1621602475643158,
            0.014197885058820248,
            -0.009115600027143955,
            0.05951416492462158,
            -0.14975176751613617,
            0.2334071546792984
        ],
        [
            -0.061490755528211594,
            -0.12248370051383972,
            0.06155919283628464,
            -0.020383622497320175,
            -0.06872506439685822,
            0.23365990817546844,
            0.16574500501155853,
            -0.1590309739112854,
            -0.12884840369224548,
            -0.03649115934967995,
            0.057569198310375214,
            0.17453612387180328,
            0.17003515362739563,
            -0.21241210401058197,
            0.25735825300216675,
            -0.1412469744682312,
            -0.5280439257621765
        ],
        [
            0.010532103478908539,
            -0.22218407690525055,
            0.007396988570690155,
            0.11312371492385864,
            -0.05417272076010704,
            0.21958377957344055,
            -0.10990262031555176,
            -0.13034725189208984,
            -0.01802412047982216,
            -0.012734198942780495,
            -0.04112822934985161,
            0.15959031879901886,
            0.224706768989563,
            -0.11822815239429474,
            0.06755854189395905,
            -0.057932205498218536,
            -0.2921713590621948
        ],
        [
            -0.2664293348789215,
            0.13340367376804352,
            0.011059338226914406,
            0.0825817808508873,
            -0.17038340866565704,
            0.0848679319024086,
            0.31868958473205566,
            -0.19945749640464783,
            -0.40032023191452026,
            0.5187723636627197,
            0.01068938709795475,
            -0.004266324918717146,
            0.27228981256484985,
            -0.4028518795967102,
            0.457405686378479,
            -0.29498904943466187,
            -0.20333203673362732
        ],
        [
            -0.044138502329587936,
            -0.14843329787254333,
            -0.030171489343047142,
            0.16397157311439514,
            -0.046405620872974396,
            0.15971653163433075,
            0.05298841372132301,
            -0.2092670500278473,
            0.07134746760129929,
            0.19289803504943848,
            -0.2052149772644043,
            0.12074366956949234,
            0.1819811314344406,
            -0.20517219603061676,
            0.1691812127828598,
            -0.1895621120929718,
            -0.2252548784017563
        ],
        [
            0.22413183748722076,
            0.0234268419444561,
            -0.12525111436843872,
            -0.12225859612226486,
            0.009666352532804012,
            -0.06887707114219666,
            0.008954166434705257,
            0.032073721289634705,
            0.0017794108716771007,
            -0.1179758757352829,
            0.0536777563393116,
            0.0036784312687814236,
            -0.10154832154512405,
            0.10069496929645538,
            -0.15162304043769836,
            0.08986196666955948,
            0.2130584567785263
        ],
        [
            -0.017247814685106277,
            0.03620333597064018,
            0.02284553460776806,
            -0.12327499687671661,
            -0.07112503051757812,
            -0.01198839582502842,
            0.12075109779834747,
            0.06265489012002945,
            0.19565977156162262,
            -0.01402005460113287,
            0.0013345219194889069,
            -0.04863668605685234,
            -0.014925137162208557,
            -0.089622363448143,
            0.11220715194940567,
            0.04527173191308975,
            0.23651660978794098
        ],
        [
            -0.019584689289331436,
            -0.1559448093175888,
            -0.1224282830953598,
            -0.13702791929244995,
            -0.06411200761795044,
            -0.00858737900853157,
            -0.029259419068694115,
            -0.05298342928290367,
            0.03738657012581825,
            0.20299291610717773,
            0.02427489124238491,
            0.09775392711162567,
            0.10526257008314133,
            -0.028051331639289856,
            0.15129439532756805,
            -0.05155525729060173,
            -0.20389492809772491
        ],
        [
            -0.34037885069847107,
            0.156337708234787,
            -0.0057717422023415565,
            0.09574119746685028,
            0.042287636548280716,
            0.13166317343711853,
            0.08040682226419449,
            -0.21276718378067017,
            -0.08779990673065186,
            0.2755574584007263,
            -0.05867311358451843,
            0.010250082239508629,
            0.18744030594825745,
            -0.09738664329051971,
            0.2685853838920593,
            -0.16928763687610626,
            -0.231754332780838
        ],
        [
            -0.19664329290390015,
            0.1675718128681183,
            -0.08402738720178604,
            0.16841022670269012,
            0.0061410837806761265,
            0.16836823523044586,
            -0.07458946108818054,
            -0.1598115861415863,
            0.19738219678401947,
            0.009503633715212345,
            -0.14124813675880432,
            0.12604117393493652,
            0.2542230784893036,
            -0.1925172358751297,
            -0.0037684780545532703,
            -0.22334963083267212,
            -0.00045203210902400315
        ],
        [
            -0.18497587740421295,
            -0.11225591599941254,
            -0.06842461228370667,
            0.03345800191164017,
            0.08648229390382767,
            0.04848911613225937,
            0.03201672434806824,
            -0.2248423993587494,
            -0.06847036629915237,
            -0.0222901850938797,
            -0.017632534727454185,
            0.08802641928195953,
            0.10577833652496338,
            -0.12813737988471985,
            0.19123271107673645,
            -0.19571416079998016,
            -0.037270981818437576
        ],
        [
            0.04462992027401924,
            -0.14459972083568573,
            0.0960233137011528,
            -0.023216404020786285,
            0.008089503273367882,
            0.1549525409936905,
            -0.14553804695606232,
            -0.04561427980661392,
            0.11698348075151443,
            -0.0957086905837059,
            -0.06878985464572906,
            0.15360677242279053,
            0.13698770105838776,
            0.05906694009900093,
            -0.11407200992107391,
            -0.11054013669490814,
            -0.2546013593673706
        ],
        [
            -0.3703037202358246,
            0.08901609480381012,
            -0.06647380441427231,
            0.0170722845941782,
            -0.2552744150161743,
            0.10914067924022675,
            0.3856552839279175,
            -0.214943066239357,
            -0.15124301612377167,
            0.5015916228294373,
            -0.061951953917741776,
            -0.06278961896896362,
            0.13476328551769257,
            -0.14561226963996887,
            0.19176165759563446,
            -0.0698101669549942,
            -0.22224639356136322
        ],
        [
            0.12146735936403275,
            -0.1591978520154953,
            0.1492232084274292,
            0.10328906774520874,
            0.2328324317932129,
            0.2061719298362732,
            -0.17089834809303284,
            -0.13769085705280304,
            0.1150456890463829,
            -0.1430748850107193,
            -0.01827966794371605,
            0.1281658113002777,
            0.0884828269481659,
            -0.1488061547279358,
            0.010278874076902866,
            -0.12092430889606476,
            0.004305010661482811
        ],
        [
            0.059609584510326385,
            0.06428135931491852,
            0.1019047424197197,
            -0.01108200941234827,
            -0.018828557804226875,
            0.07840757071971893,
            0.06169293075799942,
            -0.08457212895154953,
            -0.024017103016376495,
            -0.057160634547472,
            -0.10745228081941605,
            0.03039558418095112,
            0.02554602175951004,
            -0.09731920808553696,
            0.15370261669158936,
            -0.0628785714507103,
            0.3257741928100586
        ],
        [
            -0.12131335586309433,
            0.033033985644578934,
            0.13158579170703888,
            0.1414543092250824,
            -0.1480618566274643,
            0.06526212394237518,
            -0.02881786786019802,
            -0.19760148227214813,
            -0.08613961189985275,
            0.13766127824783325,
            -0.08323464542627335,
            0.11021900177001953,
            0.10949906706809998,
            -0.039240676909685135,
            0.012097370810806751,
            -0.05915636569261551,
            -0.2376457154750824
        ],
        [
            0.20643669366836548,
            -0.20911701023578644,
            -0.2927555739879608,
            0.19235846400260925,
            0.29915568232536316,
            0.19455097615718842,
            -0.1316991001367569,
            -0.005174325779080391,
            0.3203701376914978,
            -0.12233200669288635,
            -0.3323361277580261,
            0.09350196272134781,
            0.1383686065673828,
            -0.05555815249681473,
            -0.28989270329475403,
            -0.042165178805589676,
            0.011464159935712814
        ],
        [
            -0.3534911274909973,
            0.07718996703624725,
            0.012869802303612232,
            0.36309725046157837,
            -0.06397250294685364,
            0.15573400259017944,
            -0.06035288795828819,
            -0.2086629569530487,
            -0.04646539315581322,
            0.24622979760169983,
            -0.3501666188240051,
            0.15595710277557373,
            0.23349063098430634,
            -0.274334192276001,
            0.10371532291173935,
            -0.14910590648651123,
            -0.3362710475921631
        ],
        [
            -0.07671622186899185,
            -0.026126133278012276,
            0.20287960767745972,
            0.16343778371810913,
            0.08081180602312088,
            0.036494702100753784,
            -0.06749492883682251,
            0.006410935893654823,
            -0.02207881212234497,
            0.1040780171751976,
            -0.23003925383090973,
            0.07389186322689056,
            -0.06664285063743591,
            -0.07575640082359314,
            -0.04675126448273659,
            -0.06386800110340118,
            -0.14273618161678314
        ],
        [
            0.22031323611736298,
            -0.35084986686706543,
            -0.1070440486073494,
            0.16647584736347198,
            -0.15219348669052124,
            0.20654645562171936,
            0.2170417457818985,
            -0.13822007179260254,
            -0.06413377076387405,
            -0.01630106009542942,
            -0.10521379858255386,
            0.3278810679912567,
            0.2963164448738098,
            -0.20285581052303314,
            0.07283937186002731,
            -0.24450956284999847,
            -0.25432059168815613
        ],
        [
            0.25051987171173096,
            -0.4635925590991974,
            0.21201305091381073,
            0.001212465576827526,
            0.03633326292037964,
            0.20150388777256012,
            -0.10724369436502457,
            0.026067407801747322,
            0.17154371738433838,
            -0.15511982142925262,
            -0.16501979529857635,
            0.3705485165119171,
            0.11842981725931168,
            -0.0018879557028412819,
            -0.19260801374912262,
            -0.0298844575881958,
            0.24676339328289032
        ],
        [
            -0.19340667128562927,
            -0.018470777198672295,
            0.21070721745491028,
            0.2896951138973236,
            0.03516384959220886,
            0.04148656502366066,
            0.21371276676654816,
            -0.285667359828949,
            -0.1655021607875824,
            0.2764427065849304,
            -0.01895708218216896,
            0.21626925468444824,
            0.23133470118045807,
            -0.3836948275566101,
            0.42789050936698914,
            -0.39832496643066406,
            -0.18757280707359314
        ],
        [
            -0.1829289197921753,
            -0.008793213404715061,
            -0.04387007653713226,
            0.05445758253335953,
            -0.1053285002708435,
            0.09718143194913864,
            0.006210735999047756,
            -0.1012720838189125,
            -0.08181846141815186,
            0.0423361137509346,
            -0.14905397593975067,
            0.1387854963541031,
            0.06706386059522629,
            -0.17576977610588074,
            0.16771574318408966,
            -0.05621529370546341,
            -0.17118042707443237
        ],
        [
            -0.33466610312461853,
            -0.01048181764781475,
            -0.371746301651001,
            -0.09334060549736023,
            -0.5166547894477844,
            0.1957634538412094,
            0.3228082060813904,
            -0.18806356191635132,
            -0.29057198762893677,
            0.27680665254592896,
            0.0532132089138031,
            0.11402793228626251,
            0.13889312744140625,
            -0.16836106777191162,
            0.1620282530784607,
            -0.15465933084487915,
            -0.005136796273291111
        ],
        [
            0.24321800470352173,
            -0.15561604499816895,
            -0.07898135483264923,
            0.012226971797645092,
            -0.10464987903833389,
            0.08839407563209534,
            0.0582619309425354,
            -0.036566730588674545,
            0.10967060923576355,
            -0.0005216866848058999,
            -0.048395562916994095,
            0.0834680125117302,
            -0.0175448190420866,
            0.1134236678481102,
            -0.06035401672124863,
            0.007516831159591675,
            0.05018678680062294
        ],
        [
            0.15322524309158325,
            -0.1658567190170288,
            0.1552506536245346,
            0.03315429762005806,
            0.12263502180576324,
            0.1293099969625473,
            -0.050461843609809875,
            0.0862712636590004,
            0.1509002149105072,
            -0.06500602513551712,
            -0.05224895849823952,
            0.09669455140829086,
            -0.07595642656087875,
            -0.05488454923033714,
            -0.12575377523899078,
            -0.028050867840647697,
            -0.2771112322807312
        ],
        [
            -0.17837689816951752,
            0.19083556532859802,
            0.4066300690174103,
            0.23124364018440247,
            0.1292070597410202,
            -0.018629560247063637,
            -0.05992304906249046,
            0.09633965790271759,
            0.13409948348999023,
            -0.16638733446598053,
            -0.16203731298446655,
            -0.02504521608352661,
            -0.13100431859493256,
            0.1757308691740036,
            -0.2550128698348999,
            0.08916569501161575,
            0.08216892182826996
        ],
        [
            0.06324241310358047,
            -0.14976686239242554,
            -0.07505051046609879,
            -0.009735779836773872,
            -0.013606435619294643,
            0.09382808208465576,
            0.15215174853801727,
            -0.23067112267017365,
            0.15163776278495789,
            0.08151275664567947,
            -0.07649033516645432,
            0.0900559276342392,
            0.16432882845401764,
            -0.1889849454164505,
            0.18881168961524963,
            -0.04791580140590668,
            -0.11588124930858612
        ],
        [
            0.17017604410648346,
            -0.3968401253223419,
            0.11171753704547882,
            0.026854010298848152,
            0.006695849820971489,
            0.38137492537498474,
            0.05002987012267113,
            -0.3338056802749634,
            0.08690641820430756,
            0.0028377058915793896,
            -0.05727500841021538,
            0.23547214269638062,
            0.215549498796463,
            -0.17863629758358002,
            0.03406650945544243,
            -0.10200591385364532,
            -0.18349015712738037
        ],
        [
            0.42935043573379517,
            -0.770750880241394,
            0.5313416123390198,
            0.22023847699165344,
            0.13000640273094177,
            0.8249382972717285,
            0.10315900295972824,
            -0.2468300610780716,
            0.1997884213924408,
            0.025660796090960503,
            -0.6292468309402466,
            0.8119434118270874,
            0.47821715474128723,
            -0.09099392592906952,
            -0.2973322868347168,
            -0.28513965010643005,
            -0.17963609099388123
        ],
        [
            -0.06170705333352089,
            -0.08714654296636581,
            -0.2467689961194992,
            -0.024407655000686646,
            -0.09183164685964584,
            -0.10160045325756073,
            0.049141108989715576,
            0.04166537523269653,
            -0.23534709215164185,
            0.0362296923995018,
            0.22978410124778748,
            -0.04129015654325485,
            0.005468559451401234,
            0.021372713148593903,
            0.208674356341362,
            0.07038290053606033,
            0.3335719406604767
        ],
        [
            -0.3334648311138153,
            0.12150102853775024,
            0.07954633235931396,
            0.246633842587471,
            0.1032862588763237,
            0.07969749718904495,
            0.1390136480331421,
            -0.2555306851863861,
            -0.022428544238209724,
            0.4143959879875183,
            -0.20167119801044464,
            0.07331360876560211,
            0.28203868865966797,
            -0.4207560122013092,
            0.45419609546661377,
            -0.34425172209739685,
            -0.008158468641340733
        ],
        [
            -0.08293340355157852,
            0.06367738544940948,
            0.08917110413312912,
            0.06475398689508438,
            0.3436412513256073,
            0.06649640202522278,
            -0.16291378438472748,
            0.0024110767990350723,
            0.055850233882665634,
            0.3885170519351959,
            -0.05734534189105034,
            0.06876389682292938,
            0.016084492206573486,
            -0.12507161498069763,
            0.15108194947242737,
            -0.10198557376861572,
            0.3099214732646942
        ],
        [
            -0.2491866648197174,
            0.24452857673168182,
            0.09759829193353653,
            0.02490333840250969,
            0.1418328434228897,
            -0.1594446748495102,
            0.2233283519744873,
            0.012045330367982388,
            -0.20860736072063446,
            0.10057148337364197,
            0.06840184330940247,
            -0.12162797152996063,
            -0.05860939994454384,
            -0.06921535730361938,
            0.10882188379764557,
            0.09483452886343002,
            0.1803889274597168
        ],
        [
            -0.1609429121017456,
            -0.09188634157180786,
            0.05873391777276993,
            0.25200793147087097,
            0.04869990795850754,
            0.2084050476551056,
            0.04880838468670845,
            -0.2120848149061203,
            0.0976424515247345,
            0.07832390815019608,
            -0.29048290848731995,
            0.27789661288261414,
            0.3197856843471527,
            -0.31330835819244385,
            0.21033397316932678,
            -0.329361230134964,
            -0.15830256044864655
        ],
        [
            -0.22183111310005188,
            -0.04953818768262863,
            -0.06197994947433472,
            0.21640118956565857,
            0.14564993977546692,
            0.18925489485263824,
            0.008823031559586525,
            -0.30216899514198303,
            0.10300692170858383,
            0.06352394074201584,
            -0.3236445188522339,
            0.2068287432193756,
            0.2927562892436981,
            -0.21957388520240784,
            0.14687323570251465,
            -0.24494123458862305,
            -0.17933210730552673
        ],
        [
            0.3496399223804474,
            -0.44746536016464233,
            -0.08432922512292862,
            -0.05154870077967644,
            -0.11769036948680878,
            0.16631442308425903,
            0.046814076602458954,
            -0.17655637860298157,
            0.008969421498477459,
            -0.01770920492708683,
            0.08531808853149414,
            0.2544824182987213,
            0.15079252421855927,
            -0.007436852436512709,
            -0.06259889900684357,
            0.018736479803919792,
            0.15260432660579681
        ],
        [
            0.2147340178489685,
            -0.14380057156085968,
            0.02392498031258583,
            -0.28902995586395264,
            -0.006979346740990877,
            0.12146469205617905,
            -0.04703515022993088,
            0.06594984978437424,
            0.037534140050411224,
            -0.21911725401878357,
            -0.06609628349542618,
            0.04574174806475639,
            0.08656507730484009,
            0.06843232363462448,
            -0.10030719637870789,
            0.10140649229288101,
            0.2958601415157318
        ],
        [
            -0.06975124031305313,
            0.018235065042972565,
            0.07084150612354279,
            -0.0023703956976532936,
            -0.16821372509002686,
            0.12900608777999878,
            -0.020382484421133995,
            -0.21334855258464813,
            0.028192926198244095,
            0.015664897859096527,
            -0.04577372595667839,
            0.11655682325363159,
            0.21685251593589783,
            -0.2721955478191376,
            0.2955383062362671,
            -0.2805929481983185,
            -0.0872521623969078
        ],
        [
            0.4874183237552643,
            -0.41782915592193604,
            -0.3674512505531311,
            0.2480078786611557,
            -0.06517446041107178,
            0.2302371859550476,
            0.011694889515638351,
            0.004236423410475254,
            -0.06643601506948471,
            -0.15374134480953217,
            0.16900227963924408,
            0.15771260857582092,
            0.1098526120185852,
            -0.06433723866939545,
            -0.13792529702186584,
            0.02068254165351391,
            -0.005052356049418449
        ],
        [
            -0.08443842083215714,
            -0.19573360681533813,
            -0.20431113243103027,
            0.1045384630560875,
            -0.06738495826721191,
            0.21430142223834991,
            0.12453967332839966,
            -0.20081183314323425,
            -0.10017397254705429,
            0.1275109499692917,
            -0.15928049385547638,
            0.11168249696493149,
            0.14909875392913818,
            -0.13467729091644287,
            0.12893091142177582,
            -0.16078419983386993,
            -0.2784922420978546
        ],
        [
            -0.08322588354349136,
            -0.1786736100912094,
            -0.10997068881988525,
            0.16298966109752655,
            -0.00905158556997776,
            0.048279356211423874,
            0.11740165203809738,
            -0.16370809078216553,
            -0.06116198003292084,
            0.13501030206680298,
            -0.141657292842865,
            0.19916974008083344,
            0.10817446559667587,
            -0.042450886219739914,
            0.04596129432320595,
            -0.07585175335407257,
            -0.3634738028049469
        ],
        [
            -0.01436479389667511,
            -0.28606653213500977,
            0.14551913738250732,
            0.20388910174369812,
            0.04294559359550476,
            0.2813749313354492,
            -0.05939974635839462,
            -0.16489075124263763,
            0.13307099044322968,
            0.08780449628829956,
            -0.15677666664123535,
            0.2966253161430359,
            0.1894158273935318,
            -0.27055272459983826,
            0.15276266634464264,
            -0.21223558485507965,
            -0.07972797751426697
        ],
        [
            0.003968721721321344,
            0.10332130640745163,
            0.05107186734676361,
            -0.029490984976291656,
            0.08642160147428513,
            0.045555658638477325,
            0.1786436140537262,
            -0.006141256541013718,
            -0.08045513927936554,
            -0.030121274292469025,
            -0.01765924133360386,
            -0.10472103953361511,
            -0.025452865287661552,
            -0.050274234265089035,
            0.08680861443281174,
            -0.10116580128669739,
            0.17555062472820282
        ],
        [
            -0.19557291269302368,
            0.053562991321086884,
            0.0073751164600253105,
            0.04620138928294182,
            -0.02885552868247032,
            0.10290136933326721,
            0.06563124805688858,
            -0.17358273267745972,
            -0.0632270947098732,
            0.14210860431194305,
            -0.13643017411231995,
            0.07418851554393768,
            0.1644333153963089,
            -0.14934025704860687,
            0.16543929278850555,
            -0.1917320191860199,
            0.09037318825721741
        ],
        [
            0.09254885464906693,
            -0.23687638342380524,
            -0.19558171927928925,
            0.11149134486913681,
            0.037784282118082047,
            0.17527587711811066,
            0.09037574380636215,
            -0.1128375306725502,
            -0.020339054986834526,
            0.11519420146942139,
            -0.1337030678987503,
            0.1899820864200592,
            0.1500236690044403,
            -0.015623070299625397,
            0.0727614015340805,
            -0.04055418446660042,
            -0.057329755276441574
        ],
        [
            0.23597294092178345,
            -0.2014266550540924,
            0.04347510263323784,
            -0.12845611572265625,
            0.04305540770292282,
            0.19842062890529633,
            -0.1204199567437172,
            -0.0012497081188485026,
            0.20929652452468872,
            -0.1822747141122818,
            -0.07716035097837448,
            0.1888476014137268,
            0.11276780068874359,
            -0.04100485518574715,
            -0.1365780383348465,
            -0.13789193332195282,
            0.16035418212413788
        ],
        [
            -0.07673383504152298,
            -0.21013467013835907,
            -0.028762424364686012,
            0.09095239639282227,
            -0.033204976469278336,
            0.33376818895339966,
            0.09232115745544434,
            -0.3622967600822449,
            0.006444132886826992,
            0.13665808737277985,
            -0.2298886626958847,
            0.3586072623729706,
            0.22137418389320374,
            -0.3685849606990814,
            0.35270988941192627,
            -0.2531648576259613,
            -0.2049950212240219
        ],
        [
            0.035887084901332855,
            -0.2913249135017395,
            0.07175146043300629,
            0.11985050141811371,
            -0.05849463865160942,
            0.1900809407234192,
            0.07486528158187866,
            -0.18014918267726898,
            0.10672584921121597,
            0.11205384880304337,
            0.017510533332824707,
            0.12731555104255676,
            0.18434326350688934,
            -0.1310579627752304,
            0.16593210399150848,
            -0.06614122539758682,
            -0.01829146221280098
        ],
        [
            0.11422031372785568,
            -0.2686004936695099,
            -0.15066097676753998,
            0.006943747401237488,
            -0.015105323866009712,
            0.12658517062664032,
            -0.05393049493432045,
            -0.14677660167217255,
            0.1980520784854889,
            -0.08089909702539444,
            -0.004130546934902668,
            0.051805950701236725,
            0.03946499526500702,
            -0.13438206911087036,
            -0.020371854305267334,
            -0.04540051147341728,
            0.10844024270772934
        ],
        [
            0.360649049282074,
            -0.13636884093284607,
            0.04077105224132538,
            -0.18480251729488373,
            0.06544184684753418,
            0.039849814027547836,
            -0.2814599871635437,
            0.18414071202278137,
            0.39724481105804443,
            -0.485863596200943,
            -0.12208744883537292,
            0.03384757786989212,
            -0.007391346152871847,
            0.3241288661956787,
            -0.49840885400772095,
            0.13049045205116272,
            -0.057534754276275635
        ],
        [
            -0.047109898179769516,
            -0.21569103002548218,
            -0.07651582360267639,
            0.10716921091079712,
            -0.11360698193311691,
            0.33907032012939453,
            0.10497812181711197,
            -0.31316235661506653,
            0.011339233256876469,
            0.2531113624572754,
            -0.16310328245162964,
            0.3521319031715393,
            0.23520396649837494,
            -0.4149169325828552,
            0.4639054834842682,
            -0.2952791750431061,
            -0.20285429060459137
        ],
        [
            -0.002829082077369094,
            -0.11176196485757828,
            0.020975200459361076,
            0.12067025154829025,
            0.07940118759870529,
            0.022106630727648735,
            0.11962299048900604,
            -0.08919797837734222,
            -0.07295973598957062,
            -0.021733175963163376,
            0.04015728086233139,
            0.05042986199259758,
            0.17603488266468048,
            -0.05506899580359459,
            0.1515137255191803,
            -0.13810761272907257,
            0.1964753419160843
        ],
        [
            0.49013909697532654,
            -0.3482415974140167,
            0.07270465791225433,
            0.0261510219424963,
            -0.059138935059309006,
            0.16225957870483398,
            -0.05000244826078415,
            -0.17200247943401337,
            0.062239497900009155,
            -0.16325929760932922,
            -0.15917634963989258,
            0.29737961292266846,
            0.08711063116788864,
            0.015249664895236492,
            -0.16380572319030762,
            -0.1122274398803711,
            0.1208510771393776
        ],
        [
            0.08960980921983719,
            0.030077723786234856,
            -0.13856077194213867,
            -0.010268868878483772,
            0.05107414349913597,
            0.014548279345035553,
            -0.1905980110168457,
            -0.032946180552244186,
            -0.022927207872271538,
            -0.05244576558470726,
            -0.0973048284649849,
            0.04267255216836929,
            -0.028770698234438896,
            0.10588713735342026,
            -0.08268219977617264,
            0.07150181382894516,
            0.02362457849085331
        ],
        [
            -0.11665108799934387,
            -0.05251195281744003,
            -0.12233548611402512,
            0.0061231753788888454,
            -0.2543700635433197,
            0.043863821774721146,
            0.35578465461730957,
            0.011430378071963787,
            -0.03104175440967083,
            0.21872086822986603,
            0.10101266950368881,
            0.007061111740767956,
            0.11248568445444107,
            -0.013971652835607529,
            0.20091918110847473,
            0.010231854394078255,
            -0.20207524299621582
        ],
        [
            -0.27719226479530334,
            0.19833600521087646,
            -0.09390898793935776,
            0.06091160699725151,
            -0.06092488765716553,
            -0.050843190401792526,
            -0.032788269221782684,
            -0.07874638587236404,
            -0.3280473053455353,
            0.18281438946723938,
            0.13410697877407074,
            -0.06995949149131775,
            -0.052566926926374435,
            -0.08570370823144913,
            0.14341653883457184,
            0.043598197400569916,
            -0.0032935836352407932
        ],
        [
            -0.16359610855579376,
            -0.030904320999979973,
            0.320132851600647,
            0.08486529439687729,
            -0.02192845568060875,
            0.18547780811786652,
            0.03846048563718796,
            -0.14764408767223358,
            0.03090646304190159,
            0.1797739565372467,
            -0.060341253876686096,
            0.026759816333651543,
            0.13676302134990692,
            -0.21395398676395416,
            0.20240509510040283,
            -0.12597668170928955,
            -0.41082054376602173
        ],
        [
            0.0508984737098217,
            -0.11694972962141037,
            -0.054769452661275864,
            0.18321293592453003,
            0.04292621091008186,
            0.2583135664463043,
            0.04358438774943352,
            -0.04770324379205704,
            -0.12490370124578476,
            0.24757874011993408,
            -0.09408970177173615,
            0.1340726763010025,
            0.19718076288700104,
            -0.18029554188251495,
            0.15736974775791168,
            -0.22666719555854797,
            -0.06349626183509827
        ],
        [
            0.386859267950058,
            -0.30365240573883057,
            -0.12679243087768555,
            -0.024342643097043037,
            -0.14392532408237457,
            0.12820248305797577,
            0.04155625030398369,
            0.03992954641580582,
            0.06581087410449982,
            -0.1341024935245514,
            0.05209241807460785,
            0.18206222355365753,
            0.04508395120501518,
            0.05416609346866608,
            -0.0070757558569312096,
            0.03797220066189766,
            0.19024477899074554
        ],
        [
            -0.36284199357032776,
            0.16015027463436127,
            0.2222660630941391,
            0.08146007359027863,
            -0.021101457998156548,
            0.15240372717380524,
            0.06287083774805069,
            -0.11220857501029968,
            -0.21210575103759766,
            0.3276826739311218,
            0.08208424597978592,
            0.031224718317389488,
            0.17047254741191864,
            -0.27234765887260437,
            0.38947269320487976,
            -0.24307522177696228,
            0.04856549948453903
        ],
        [
            0.3240390717983246,
            -0.308133989572525,
            0.1943398118019104,
            0.05082441866397858,
            0.10183291137218475,
            0.1294841468334198,
            -0.04415776953101158,
            -0.06964649260044098,
            0.225686177611351,
            -0.10863320529460907,
            -0.08602841198444366,
            0.2523628771305084,
            0.08978808671236038,
            0.16036121547222137,
            -0.27086150646209717,
            0.09421689808368683,
            0.029798444360494614
        ],
        [
            0.33777734637260437,
            -0.4240206480026245,
            -0.4047281742095947,
            0.07696221768856049,
            0.04502543434500694,
            0.19254329800605774,
            -0.04394909739494324,
            -0.07056736946105957,
            0.10306202620267868,
            -0.15809999406337738,
            -0.04435490444302559,
            0.15270774066448212,
            0.08335823565721512,
            -0.00021125056082382798,
            0.038355886936187744,
            -0.09419120103120804,
            -0.06072239205241203
        ],
        [
            -0.20578226447105408,
            0.008480660617351532,
            0.06071735545992851,
            0.1110546737909317,
            0.0062089827843010426,
            0.1017131432890892,
            -0.011771825142204762,
            -0.1854630559682846,
            -0.11070743948221207,
            0.07341006398200989,
            -0.05589772388339043,
            -0.017059480771422386,
            0.09273373335599899,
            -0.12396615743637085,
            0.15284943580627441,
            -0.10631144791841507,
            -0.13865293562412262
        ],
        [
            0.07158777117729187,
            0.06861422210931778,
            -0.17915107309818268,
            0.028574630618095398,
            -0.29108113050460815,
            0.026792118325829506,
            -0.015659086406230927,
            -0.21159236133098602,
            -0.07610669732093811,
            0.16521264612674713,
            0.08438202738761902,
            -0.0450897254049778,
            0.07609829306602478,
            -0.18732589483261108,
            0.16396410763263702,
            0.039734940975904465,
            -0.08460989594459534
        ],
        [
            -0.07226477563381195,
            -0.11668086051940918,
            -0.08868590742349625,
            0.2712666094303131,
            0.15624088048934937,
            0.1260443925857544,
            -0.03710212558507919,
            -0.19164511561393738,
            0.05707773566246033,
            -0.019890882074832916,
            -0.13125692307949066,
            0.13711488246917725,
            0.0841856449842453,
            -0.1701071709394455,
            0.0776854008436203,
            -0.1680237054824829,
            0.057155463844537735
        ],
        [
            0.12213470786809921,
            -0.22790507972240448,
            -0.09101267158985138,
            0.07068847864866257,
            -0.09253612160682678,
            0.12756051123142242,
            -0.030939875170588493,
            -0.163265198469162,
            -0.11878007650375366,
            0.04791587218642235,
            -0.10773064941167831,
            0.21856147050857544,
            0.16720189154148102,
            -0.10527743399143219,
            0.1351608783006668,
            -0.1434137225151062,
            -0.2230163961648941
        ],
        [
            0.010403376072645187,
            -0.0752905085682869,
            -0.05601995438337326,
            0.05882039666175842,
            -0.024628346785902977,
            0.1402050405740738,
            0.1409730464220047,
            -0.026525935158133507,
            -0.002154781948775053,
            0.08211982995271683,
            -0.11722610890865326,
            0.06967025995254517,
            0.12646366655826569,
            -0.08688769489526749,
            0.0854082778096199,
            -0.16331616044044495,
            -0.025540295988321304
        ],
        [
            0.028350437059998512,
            -0.5209990739822388,
            -0.037910569459199905,
            0.03157084062695503,
            -0.03973821550607681,
            0.19607095420360565,
            -0.052768364548683167,
            -0.08768996596336365,
            -0.07324118912220001,
            0.08651162683963776,
            -0.09237132221460342,
            0.2958500385284424,
            0.1082443818449974,
            -0.20818081498146057,
            0.15014193952083588,
            -0.09589141607284546,
            -0.4011455476284027
        ],
        [
            0.4894603490829468,
            -0.6181129813194275,
            -0.013306311331689358,
            0.18409889936447144,
            0.2351885885000229,
            0.4249638319015503,
            -0.16585592925548553,
            -0.13031865656375885,
            0.27394989132881165,
            -0.045549456030130386,
            -0.3713921904563904,
            0.6613385081291199,
            0.3156067132949829,
            -0.09471064060926437,
            -0.13367997109889984,
            -0.2507122755050659,
            0.017074402421712875
        ],
        [
            -0.14134185016155243,
            -0.14831896126270294,
            0.033653199672698975,
            0.105861134827137,
            0.062176819890737534,
            0.06804465502500534,
            0.07036080211400986,
            -0.07676641643047333,
            0.03388705849647522,
            0.08959335088729858,
            -0.13960185647010803,
            0.10613756626844406,
            0.21850767731666565,
            -0.07614528387784958,
            0.1094750240445137,
            -0.2080496996641159,
            -0.3285970687866211
        ],
        [
            -0.04775354266166687,
            -0.0683460608124733,
            -0.014874614775180817,
            0.10668379068374634,
            0.006211059633642435,
            0.08519915491342545,
            0.10102411359548569,
            -0.09855940192937851,
            0.051093295216560364,
            0.2462553083896637,
            -0.1423143446445465,
            0.15442627668380737,
            0.23035068809986115,
            -0.22864504158496857,
            0.18375329673290253,
            -0.09239443391561508,
            -0.34180670976638794
        ],
        [
            0.1728939414024353,
            -0.13735738396644592,
            0.037749744951725006,
            -0.07142680883407593,
            0.03428475558757782,
            0.09271961450576782,
            0.020757438614964485,
            -0.02158123254776001,
            -0.010247313417494297,
            -0.11014442890882492,
            -0.09308937191963196,
            0.16568373143672943,
            0.08180171251296997,
            0.000759006361477077,
            -0.04370256885886192,
            -0.04599917307496071,
            -0.04271022230386734
        ],
        [
            0.13704529404640198,
            -0.12448076158761978,
            0.1931096613407135,
            0.133439838886261,
            0.21083594858646393,
            0.17360323667526245,
            -0.15832769870758057,
            0.01880059577524662,
            0.27585524320602417,
            -0.021282268688082695,
            -0.545890748500824,
            0.0760386511683464,
            0.16482484340667725,
            0.0087933000177145,
            -0.12458272278308868,
            -0.07467960566282272,
            0.04408828541636467
        ],
        [
            -0.24023497104644775,
            0.03552228957414627,
            0.11542760580778122,
            0.4029749929904938,
            -0.1798790842294693,
            0.21969299018383026,
            0.15877358615398407,
            -0.23846767842769623,
            -0.18917948007583618,
            0.16499124467372894,
            -0.018148742616176605,
            0.19872823357582092,
            0.22511303424835205,
            -0.4646071791648865,
            0.6789149641990662,
            -0.22892749309539795,
            -0.09549719840288162
        ],
        [
            0.07526717334985733,
            -0.2040235549211502,
            -0.08054203540086746,
            0.07069721817970276,
            0.011594397015869617,
            0.17735424637794495,
            0.17344914376735687,
            -0.12242337316274643,
            0.1371675729751587,
            -0.0091208815574646,
            -0.06505385041236877,
            0.23779606819152832,
            0.17778615653514862,
            -0.07979930192232132,
            -0.003714751685038209,
            -0.024394378066062927,
            0.16754545271396637
        ],
        [
            0.4553976356983185,
            -0.11354803293943405,
            -0.07953835278749466,
            -0.4730498492717743,
            -0.11395631730556488,
            -0.13411851227283478,
            -0.0036384565755724907,
            0.28229695558547974,
            0.15699313580989838,
            -0.37331900000572205,
            0.16457775235176086,
            -0.09407156705856323,
            -0.2577234208583832,
            0.6218978762626648,
            -0.5694421529769897,
            0.5045694708824158,
            0.13760842382907867
        ],
        [
            -0.410206139087677,
            0.2845638692378998,
            -0.04308481141924858,
            -0.07117640972137451,
            -0.022243479266762733,
            0.08996105194091797,
            0.11864353716373444,
            -0.02668861113488674,
            -0.2432526797056198,
            0.37828513979911804,
            0.1508866846561432,
            -0.13155153393745422,
            0.10730873793363571,
            -0.25698789954185486,
            0.32923147082328796,
            -0.17049987614154816,
            0.057056304067373276
        ],
        [
            -0.019099920988082886,
            -0.03506054729223251,
            -0.16797354817390442,
            -0.04420546442270279,
            -0.0729924887418747,
            -0.029704805463552475,
            0.05126216262578964,
            -0.009998222813010216,
            -0.1982525736093521,
            0.10172583907842636,
            0.1806463897228241,
            0.0302236620336771,
            0.07273947447538376,
            0.02043326385319233,
            0.08416274189949036,
            0.027028730139136314,
            -0.06220017746090889
        ],
        [
            0.3397798538208008,
            -0.17529958486557007,
            -0.022254087030887604,
            -0.11429287493228912,
            0.01114318985491991,
            -0.07547897845506668,
            0.021660175174474716,
            0.041853100061416626,
            0.1993589997291565,
            -0.3552130460739136,
            0.01943695731461048,
            0.0750884860754013,
            -0.07118973881006241,
            0.12451299279928207,
            -0.29564452171325684,
            0.10976015776395798,
            -0.23270082473754883
        ],
        [
            -0.09580118209123611,
            -0.10076959431171417,
            0.10490606725215912,
            0.08639892935752869,
            -0.03093436174094677,
            0.03477812185883522,
            0.21366603672504425,
            -0.12389793992042542,
            0.007497955579310656,
            0.14887374639511108,
            -0.1331954151391983,
            0.026685575023293495,
            0.12999644875526428,
            -0.04595457762479782,
            0.056114304810762405,
            -0.05873451009392738,
            -0.07028615474700928
        ],
        [
            0.06930544972419739,
            -0.06250280141830444,
            -0.13188263773918152,
            0.009637207724153996,
            -0.13278456032276154,
            0.07673315703868866,
            -0.034128185361623764,
            -0.10066909343004227,
            -0.2184385061264038,
            0.10344599187374115,
            -0.14021088182926178,
            0.18768376111984253,
            0.05743730813264847,
            -0.08583439886569977,
            -0.024693431332707405,
            -0.09871750324964523,
