{
    "conv.conv.weight": [
        [
            [
                0.13635066151618958,
                -0.05146624520421028,
                0.10123179852962494,
                -0.049397990107536316,
                0.007746017072349787,
                0.021332064643502235,
                0.14098672568798065,
                0.06653066724538803,
                0.0022911960259079933,
                0.19480207562446594,
                0.05883590877056122,
                0.14709246158599854,
                0.18000757694244385,
                -0.056249506771564484,
                0.12299631536006927,
                -0.08484717458486557,
                0.011169536970555782,
                -0.04793105274438858,
                -0.1573929786682129,
                0.012304789386689663,
                -0.09144342690706253,
                -0.0942126214504242,
                -0.05336461216211319,
                -0.12416412681341171,
                -0.09650732576847076,
                -0.12564592063426971,
                -0.09591064602136612,
                0.0709756389260292,
                0.11007391661405563,
                -0.017468947917222977,
                -0.08642389625310898
            ]
        ],
        [
            [
                0.08292055130004883,
                0.06766455620527267,
                0.10313653945922852,
                -0.07341054081916809,
                -0.0914507657289505,
                -0.11131512373685837,
                -0.08288989216089249,
                -0.1429588496685028,
                0.1518564224243164,
                0.08275573700666428,
                -0.17201218008995056,
                -0.06434443593025208,
                -0.1311296671628952,
                -0.1376456618309021,
                -0.02688053622841835,
                -0.04624905064702034,
                0.08530677109956741,
                -0.1708763688802719,
                0.007268201094120741,
                -0.15811577439308167,
                -0.0972592681646347,
                0.025124749168753624,
                -0.009857162833213806,
                -0.09642931818962097,
                0.10533680766820908,
                0.09504817426204681,
                0.004490762483328581,
                0.04388585314154625,
                -0.09385985136032104,
                -0.1986897587776184,
                0.1106722354888916
            ]
        ],
        [
            [
                -0.04291950911283493,
                0.03278963640332222,
                -0.13424302637577057,
                0.0193443913012743,
                -0.12335222214460373,
                0.14605553448200226,
                0.05053512379527092,
                -0.04717284440994263,
                0.09175283461809158,
                0.15313848853111267,
                -0.05040278658270836,
                0.0992971882224083,
                -0.06365184485912323,
                0.022397391498088837,
                -0.021743817254900932,
                0.08360972255468369,
                -0.03154659643769264,
                0.1683751791715622,
                0.08526721596717834,
                -0.09689220786094666,
                0.015340117737650871,
                -0.12238002568483353,
                0.039100632071495056,
                0.09469772130250931,
                0.07474585622549057,
                -0.15127024054527283,
                -0.045936062932014465,
                -0.18497219681739807,
                -0.18856582045555115,
                -0.17497409880161285,
                -0.06363863497972488
            ]
        ],
        [
            [
                0.10818783938884735,
                -0.035597383975982666,
                0.15474483370780945,
                -0.07095877826213837,
                0.08891570568084717,
                0.006347691640257835,
                -0.11682217568159103,
                0.01870722509920597,
                -0.007816897705197334,
                0.08065057545900345,
                -0.09247048944234848,
                0.09302468597888947,
                -0.10330533236265182,
                -0.02778266929090023,
                0.09327004849910736,
                0.07892268896102905,
                0.13013023138046265,
                0.155697762966156,
                0.062066517770290375,
                -0.06733478605747223,
                0.09569495916366577,
                -0.15902774035930634,
                0.15477801859378815,
                -0.017748964950442314,
                -0.03876672685146332,
                0.12745381891727448,
                -0.16352738440036774,
                -0.0016591747989878058,
                -0.06521910429000854,
                0.04171710088849068,
                -0.05484632030129433
            ]
        ],
        [
            [
                -0.11496835947036743,
                -0.07621723413467407,
                -0.18216337263584137,
                -0.11153588443994522,
                -0.1103304773569107,
                -0.12859800457954407,
                -0.15424105525016785,
                -0.13500654697418213,
                0.14254765212535858,
                0.15363574028015137,
                -0.1315138190984726,
                0.003120312700048089,
                -0.05661233514547348,
                0.08655480295419693,
                -0.07979588210582733,
                -0.08668819069862366,
                -0.023649612441658974,
                -0.033581171184778214,
                -0.11775701493024826,
                0.11161904782056808,
                -0.04265019670128822,
                0.05506676807999611,
                -0.006317999213933945,
                0.03850802406668663,
                -0.1437966376543045,
                -0.12575753033161163,
                0.002798293484374881,
                -0.1260584592819214,
                -0.05912371352314949,
                0.05437082424759865,
                0.023235803470015526
            ]
        ],
        [
            [
                -0.1852119266986847,
                -0.20154567062854767,
                -0.11233732104301453,
                -0.17109493911266327,
                -0.006155618466436863,
                -0.05409844219684601,
                0.006924841087311506,
                -0.007485746406018734,
                0.003361963201314211,
                0.058524224907159805,
                -0.16817429661750793,
                -0.013575823977589607,
                0.053797755390405655,
                0.07351871579885483,
                -0.03394346684217453,
                -0.034459713846445084,
                0.1489642709493637,
                -0.1265951246023178,
                0.004964794032275677,
                0.14729581773281097,
                -0.03667489066720009,
                -0.1053433045744896,
                -0.04522072151303291,
                0.09642127901315689,
                0.08088450878858566,
                -0.10154960304498672,
                -0.1666569709777832,
                0.06276419013738632,
                -0.06878446787595749,
                0.11579758673906326,
                0.09177789837121964
            ]
        ],
        [
            [
                0.024007953703403473,
                0.16900430619716644,
                -0.046667542308568954,
                0.1856144815683365,
                -0.08345957845449448,
                -0.07546654343605042,
                -0.051535896956920624,
                0.03679432347416878,
                0.10000277310609818,
                0.07112299650907516,
                -0.030729081481695175,
                0.0027602931950241327,
                -0.1110980361700058,
                0.05022067576646805,
                -0.027850719168782234,
                -0.0035092339385300875,
                0.030912600457668304,
                -0.06427881121635437,
                -0.05309358239173889,
                -0.12543226778507233,
                0.06171909719705582,
                0.1292753964662552,
                0.11214522272348404,
                -0.04035734385251999,
                -0.1667763888835907,
                -0.049982283264398575,
                -0.02536141313612461,
                -0.02855781838297844,
                0.18089312314987183,
                0.08379099518060684,
                0.055610015988349915
            ]
        ],
        [
            [
                0.1199691891670227,
                -0.12924069166183472,
                0.16609886288642883,
                0.010875319130718708,
                0.09423434734344482,
                0.14986473321914673,
                -0.02338276617228985,
                0.1550009399652481,
                0.08715557307004929,
                -0.0617879219353199,
                -0.08010178804397583,
                0.11483541131019592,
                0.009569256566464901,
                -0.0987015813589096,
                0.1079072505235672,
                0.10414832830429077,
                0.08155015110969543,
                0.08209610730409622,
                0.017973972484469414,
                0.027151474729180336,
                -0.10051409900188446,
                0.11147783696651459,
                0.11178415268659592,
                -0.015613178722560406,
                -0.16291789710521698,
                0.04395788162946701,
                -0.04331177473068237,
                -0.07084030658006668,
                0.04791108891367912,
                0.05978012457489967,
                -0.020541580393910408
            ]
        ],
        [
            [
                -0.008589982986450195,
                -0.17815643548965454,
                -0.11369970440864563,
                -0.044126756489276886,
                0.15283198654651642,
                0.06853809207677841,
                -0.1057402640581131,
                0.06874456256628036,
                -0.10758119821548462,
                -0.07633781433105469,
                0.08573389798402786,
                0.059428226202726364,
                0.15906113386154175,
                0.07586473226547241,
                -0.13561733067035675,
                0.049507804214954376,
                0.16647285223007202,
                0.013317054137587547,
                0.17277005314826965,
                -0.11017460376024246,
                0.09097585827112198,
                -0.11689784377813339,
                -0.03593920171260834,
                0.09079407155513763,
                0.059639979153871536,
                0.07282659411430359,
                -0.14372724294662476,
                0.03974003717303276,
                -0.12470623105764389,
                -0.00849201250821352,
                -0.04292253032326698
            ]
        ],
        [
            [
                0.06529498845338821,
                0.01779661886394024,
                0.006038464140146971,
                0.1712854951620102,
                0.03575042262673378,
                0.06543674319982529,
                0.01014633197337389,
                0.13011924922466278,
                0.04755948856472969,
                0.045962538570165634,
                -0.10026420652866364,
                -0.05398298054933548,
                0.10003078728914261,
                0.07662609964609146,
                -0.1725015938282013,
                0.05643315985798836,
                -0.12304098904132843,
                -0.0921868160367012,
                0.13119006156921387,
                -0.03365889936685562,
                0.07157374918460846,
                0.05072401091456413,
                0.11781506985425949,
                -0.033971156924963,
                0.16146355867385864,
                0.07026068866252899,
                0.14588946104049683,
                0.14103302359580994,
                -0.13092626631259918,
                0.03632865846157074,
                0.04582850635051727
            ]
        ],
        [
            [
                -0.10932819545269012,
                -0.05145341902971268,
                0.03639383241534233,
                -0.11007993668317795,
                0.10159500688314438,
                -0.02315017580986023,
                0.10960443317890167,
                -0.02402719296514988,
                -0.10714510083198547,
                0.13124938309192657,
                -0.014801421202719212,
                0.09578844159841537,
                -0.16087959706783295,
                -0.09224723279476166,
                -0.020295938476920128,
                -0.14273840188980103,
                0.006963628344237804,
                0.054208189249038696,
                -0.08326088637113571,
                -0.1257135421037674,
                0.07994844019412994,
                -0.12535879015922546,
                0.006243153475224972,
                0.07795736193656921,
                0.08211106806993484,
                0.08616861701011658,
                -0.1443580538034439,
                -0.145497128367424,
                -0.04559348151087761,
                -0.10091416537761688,
                0.10802951455116272
            ]
        ],
        [
            [
                -0.14051391184329987,
                0.09926992654800415,
                -0.09622511267662048,
                0.006160927936434746,
                -0.14179056882858276,
                -0.07999573647975922,
                -0.025060756132006645,
                -0.06670372188091278,
                0.03595844283699989,
                -0.18467871844768524,
                -0.07277495414018631,
                -0.09560461342334747,
                0.08154155313968658,
                -0.16643135249614716,
                0.08928506076335907,
                0.03939144313335419,
                0.13575059175491333,
                -0.13824895024299622,
                0.11468274146318436,
                -0.00023461671662516892,
                -0.15881451964378357,
                0.14313161373138428,
                -0.06061401590704918,
                -0.013564670458436012,
                -0.10349579900503159,
                0.05759962275624275,
                -0.11260215938091278,
                0.15265366435050964,
                0.14273637533187866,
                0.035655342042446136,
                -0.009049637243151665
            ]
        ],
        [
            [
                0.17679964005947113,
                0.09603337943553925,
                -0.010306946001946926,
                0.09878227114677429,
                0.057108908891677856,
                -0.09190655499696732,
                -0.1315487176179886,
                0.0063249352388083935,
                0.16998779773712158,
                0.018669135868549347,
                -0.09453965723514557,
                -0.18657633662223816,
                0.05481225624680519,
                0.010392121970653534,
                0.10108521580696106,
                -0.11707419157028198,
                -0.13528069853782654,
                -0.10145025700330734,
                0.05266556143760681,
                0.1092686802148819,
                -0.041543617844581604,
                -0.06382875889539719,
                -0.03530114144086838,
                0.0810648649930954,
                0.025161411613225937,
                0.14227215945720673,
                -0.14913935959339142,
                -0.14082124829292297,
                0.19771721959114075,
                0.11612573266029358,
                0.0017274818383157253
            ]
        ],
        [
            [
                -0.2255990207195282,
                0.05758615583181381,
                0.09089180827140808,
                -0.14978504180908203,
                -0.04972314462065697,
                0.06819220632314682,
                -0.02983252890408039,
                -0.0820339098572731,
                -0.1432715505361557,
                0.13229809701442719,
                0.08682245761156082,
                -0.12496384233236313,
                -0.00724779162555933,
                -0.13165296614170074,
                0.08534526079893112,
                0.03340674564242363,
                -0.1436857283115387,
                0.14421582221984863,
                -0.10814449191093445,
                -0.11516713351011276,
                -0.0063925134018063545,
                -0.15520352125167847,
                0.039397768676280975,
                0.11396989971399307,
                -0.08400534838438034,
                0.11493058502674103,
                0.12050837278366089,
                -0.17117008566856384,
                -0.06413004547357559,
                -0.1148817390203476,
                0.10384264588356018
            ]
        ],
        [
            [
                -0.13478440046310425,
                -0.19331912696361542,
                0.008861775510013103,
                0.030098380520939827,
                -0.030343949794769287,
                -0.07625676691532135,
                0.031665969640016556,
                -0.02109581232070923,
                -0.10556060075759888,
                0.16414675116539001,
                0.13465765118598938,
                -0.031683940440416336,
                0.00017404754180461168,
                0.04575132951140404,
                -0.04906950891017914,
                -0.15894004702568054,
                -0.17515000700950623,
                0.03159018233418465,
                -0.13220815360546112,
                0.1517561674118042,
                -0.02568475343286991,
                -0.023682886734604836,
                -0.08522897213697433,
                -0.037094373255968094,
                0.05343785136938095,
                0.05310673266649246,
                -0.12319134175777435,
                -0.04990502446889877,
                0.008766734041273594,
                -0.04638613015413284,
                0.03899502381682396
            ]
        ],
        [
            [
                0.025969786569476128,
                0.13953620195388794,
                -0.058902937918901443,
                -0.03414023295044899,
                0.11195467412471771,
                0.1611921638250351,
                -0.011248454451560974,
                -0.08524863421916962,
                0.14562442898750305,
                -0.045959070324897766,
                -0.13134361803531647,
                0.01210502628237009,
                0.08059427887201309,
                -0.14205124974250793,
                -0.178365558385849,
                -0.11409188061952591,
                0.151337131857872,
                -0.13178709149360657,
                0.00028607912827283144,
                -0.1333220899105072,
                -0.08271151036024094,
                0.12971603870391846,
                0.011525197885930538,
                0.03782951459288597,
                -0.13373808562755585,
                -0.027999715879559517,
                -0.13209041953086853,
                0.08026695996522903,
                -0.10771948844194412,
                0.10614310204982758,
                0.06864385306835175
            ]
        ]
    ],
    "conv.conv.bias": [
        0.032260019332170486,
        0.09299621731042862,
        -0.06493771821260452,
        0.09165729582309723,
        0.15137550234794617,
        0.02917100302875042,
        0.18937860429286957,
        -0.16752134263515472,
        0.21470774710178375,
        0.2438013106584549,
        0.1394476443529129,
        0.08357728272676468,
        0.11024374514818192,
        -0.05055433511734009,
        -0.2209819108247757,
        -0.16592401266098022
    ],
    "gru.weight_ih_l0": [
        [
            -0.06004871428012848,
            0.06551415473222733,
            0.027656177058815956,
            -0.012274285778403282,
            -0.09384597837924957,
            0.13675950467586517,
            0.119693323969841,
            -0.13157112896442413,
            0.11716830730438232,
            0.053860269486904144,
            0.010276087559759617,
            0.0752624124288559,
            0.03891071677207947,
            -0.06004241481423378,
            -0.06197207048535347,
            -0.010219832882285118
        ],
        [
            0.15130501985549927,
            0.06903216987848282,
            0.06590698659420013,
            -0.1565568894147873,
            -0.004858303815126419,
            -0.017089910805225372,
            0.14025579392910004,
            -0.015013666823506355,
            0.09812717884778976,
            -0.032771699130535126,
            0.05681811273097992,
            0.02682586945593357,
            0.03521520271897316,
            -0.05226428061723709,
            0.038939282298088074,
            0.04284467548131943
        ],
        [
            0.024810904636979103,
            0.04831133410334587,
            -0.005265061743557453,
            0.01935647986829281,
            -0.05981513485312462,
            -0.10634789615869522,
            0.024006312713027,
            0.06255675107240677,
            0.17733605206012726,
            -0.01688842847943306,
            -0.02885434962809086,
            0.009261644445359707,
            -0.08505100756883621,
            0.06944481283426285,
            -0.02416367642581463,
            0.06773694604635239
        ],
        [
            -0.03919413685798645,
            -0.08249182999134064,
            -0.10769735276699066,
            -0.011006107553839684,
            -0.09840898215770721,
            0.029942724853754044,
            -0.023477828130126,
            -0.10859520733356476,
            0.08028025180101395,
            -0.13514412939548492,
            0.03415575996041298,
            0.12493066489696503,
            0.02865961566567421,
            0.07458033412694931,
            -0.041362568736076355,
            0.05643367022275925
        ],
        [
            0.12109445035457611,
            -0.053599197417497635,
            0.10882458835840225,
            0.08417874574661255,
            -0.11923341453075409,
            -0.15348735451698303,
            -0.006527975667268038,
            0.011350522749125957,
            0.044249508529901505,
            0.05938250198960304,
            -0.05998769402503967,
            -0.11332922428846359,
            -0.0031178148929029703,
            -0.09423137456178665,
            -0.14532431960105896,
            -0.12089982628822327
        ],
        [
            0.014895916916429996,
            0.021029649302363396,
            -0.02139037847518921,
            0.0003803945437539369,
            -0.1499118208885193,
            0.019514814019203186,
            0.0785793587565422,
            0.03476536646485329,
            0.02855668216943741,
            0.14365296065807343,
            0.016055889427661896,
            -0.08203574270009995,
            -0.023291174322366714,
            -0.16866710782051086,
            -0.06361650675535202,
            0.08059485256671906
        ],
        [
            0.06829246133565903,
            0.1486794352531433,
            0.14247822761535645,
            -0.050831086933612823,
            0.015095994807779789,
            0.16451537609100342,
            0.01388520933687687,
            -0.07468625158071518,
            -0.017136195674538612,
            -0.15979456901550293,
            0.2119191586971283,
            0.16130883991718292,
            0.04750771448016167,
            0.17143318057060242,
            -0.012049710378050804,
            0.08265238255262375
        ],
        [
            0.20148448646068573,
            0.062217142432928085,
            0.10461533069610596,
            0.08524161577224731,
            -0.014789042994379997,
            -0.17179621756076813,
            -0.11096857488155365,
            0.1726253628730774,
            -0.039039745926856995,
            -0.0024057331029325724,
            -0.13773518800735474,
            -0.10171529650688171,
            -0.05085063353180885,
            -0.11324785649776459,
            0.03716760501265526,
            0.04289209470152855
        ],
        [
            -0.06969404965639114,
            0.03189724311232567,
            0.008091093972325325,
            0.06690280139446259,
            -0.08342329412698746,
            -0.12936247885227203,
            -0.09074846655130386,
            0.12906672060489655,
            0.12116765230894089,
            0.003704845206812024,
            0.11858250200748444,
            -0.022900721058249474,
            0.01667589321732521,
            -0.01554145012050867,
            0.022034062072634697,
            -0.1572013944387436
        ],
        [
            0.06560409069061279,
            -0.036593105643987656,
            0.01757746934890747,
            0.058723099529743195,
            0.15593397617340088,
            -0.007767109200358391,
            0.1110626682639122,
            0.04136977717280388,
            0.08831197768449783,
            0.02267185039818287,
            0.010830848477780819,
            0.030094347894191742,
            0.02326064743101597,
            0.1394967883825302,
            0.041582681238651276,
            0.0216540414839983
        ],
        [
            -0.006108149420469999,
            0.10975593328475952,
            0.028855102136731148,
            -0.045353520661592484,
            0.006281187757849693,
            0.04386353865265846,
            -0.053809456527233124,
            -0.13549134135246277,
            0.04574564844369888,
            -0.060669321566820145,
            0.10709311813116074,
            0.10744565725326538,
            0.057923611253499985,
            0.07418027520179749,
            0.1927698403596878,
            -0.010514452122151852
        ],
        [
            0.14671814441680908,
            -0.18510878086090088,
            -0.046934835612773895,
            0.07580220699310303,
            -0.03978940472006798,
            -0.1450480818748474,
            0.0015689118299633265,
            0.025997743010520935,
            0.0231748279184103,
            0.08467338234186172,
            -0.027667997404932976,
            -0.09189491719007492,
            0.06344092637300491,
            -0.0871531069278717,
            -0.061718933284282684,
            0.016364192590117455
        ],
        [
            0.04592739790678024,
            -0.1451680064201355,
            0.11860118806362152,
            -0.034697361290454865,
            -0.01496894285082817,
            -0.12446165084838867,
            -0.0051256506703794,
            0.15223021805286407,
            0.10803641378879547,
            -0.0765560194849968,
            -0.1424059271812439,
            0.029500510543584824,
            0.08930739760398865,
            0.0009520318708382547,
            0.009163092821836472,
            0.051267366856336594
        ],
        [
            0.033938031643629074,
            0.03664940595626831,
            -0.12932133674621582,
            -0.008774744346737862,
            -0.0372048057615757,
            -0.05371760204434395,
            0.14627020061016083,
            0.05478394404053688,
            -0.029040250927209854,
            0.04285725951194763,
            -0.015840433537960052,
            0.011079484596848488,
            0.0006389973568730056,
            -0.10409064590930939,
            -0.18270905315876007,
            -0.01781219244003296
        ],
        [
            0.10373564064502716,
            0.027149474248290062,
            -0.09237393736839294,
            0.03642841801047325,
            -0.08277526497840881,
            -0.10242026299238205,
            0.1856454610824585,
            0.10718505829572678,
            0.1937231570482254,
            0.10641719400882721,
            0.08844472467899323,
            -0.1077524945139885,
            -0.017104381695389748,
            -0.2021113932132721,
            -0.06605839729309082,
            0.013723362237215042
        ],
        [
            -0.11734309047460556,
            -0.04622845724225044,
            0.005960326641798019,
            0.03247419372200966,
            0.09070594608783722,
            0.013830314390361309,
            0.13209733366966248,
            -0.03096967563033104,
            0.13297857344150543,
            0.12472277134656906,
            -0.0005295153823681176,
            0.1188112199306488,
            -0.08698688447475433,
            -0.03576318919658661,
            0.0368465855717659,
            -0.08586303889751434
        ],
        [
            -0.04506343975663185,
            0.09122338145971298,
            0.08389174938201904,
            -0.022518452256917953,
            -0.04117003455758095,
            0.06408239156007767,
            -0.0528060607612133,
            -0.13825350999832153,
            0.04004645347595215,
            0.04062551632523537,
            -0.021722083911299706,
            -0.06557842344045639,
            0.010814445093274117,
            0.07028419524431229,
            0.08277077227830887,
            -0.09615902602672577
        ],
        [
            0.08774935454130173,
            0.10277412086725235,
            0.07941356301307678,
            0.09767171740531921,
            -0.08786991238594055,
            0.04767858237028122,
            -0.0491497740149498,
            0.028708307072520256,
            0.0569765530526638,
            -0.016720911487936974,
            -0.007942021824419498,
            0.001705809379927814,
            0.03340642526745796,
            -0.059706658124923706,
            -0.12026455253362656,
            0.0909539982676506
        ],
        [
            -0.07378328591585159,
            0.13293325901031494,
            -0.06793668121099472,
            -0.027303246781229973,
            -0.04075254499912262,
            0.02654268965125084,
            -0.056999631226062775,
            -0.0650651752948761,
            -0.047934968024492264,
            -0.12945911288261414,
            0.005817040801048279,
            0.07436885684728622,
            0.08506648987531662,
            0.1215544119477272,
            0.043255776166915894,
            -0.010200166143476963
        ],
        [
            -0.1807081699371338,
            -0.0034047181252390146,
            -0.15523117780685425,
            0.03066641092300415,
            0.00666785566136241,
            0.22188279032707214,
            0.08310103416442871,
            0.03377567604184151,
            0.001982038840651512,
            -0.05725453421473503,
            -0.07628707587718964,
            0.2142125964164734,
            0.04500816389918327,
            -0.023369919508695602,
            -0.05620889365673065,
            -0.08255990594625473
        ],
        [
            0.038217924535274506,
            0.2074069082736969,
            0.2766842246055603,
            0.13049225509166718,
            0.1340663731098175,
            0.08761594444513321,
            -0.06806942820549011,
            -0.17033949494361877,
            -0.04329666122794151,
            -0.1436285823583603,
            0.07432559132575989,
            0.16912391781806946,
            -0.18096071481704712,
            0.12213382124900818,
            0.17494754493236542,
            -0.004064043052494526
        ],
        [
            -0.03515895828604698,
            0.12471137940883636,
            -0.0663236603140831,
            -0.11049888283014297,
            -0.030993979424238205,
            0.12993010878562927,
            -0.0447855144739151,
            -0.14430631697177887,
            -0.05847742781043053,
            0.05682889372110367,
            -0.06555991619825363,
            -0.01243316475301981,
            -0.04521361365914345,
            -0.10843485593795776,
            0.008390888571739197,
            0.053894270211458206
        ],
        [
            0.0360383503139019,
            -0.05584106221795082,
            -0.0020866040140390396,
            0.03208320960402489,
            0.0716129019856453,
            0.025926290079951286,
            -0.07193424552679062,
            0.008299985900521278,
            0.09477504342794418,
            -0.049022939056158066,
            -0.15205776691436768,
            -0.08363478630781174,
            -0.06205444037914276,
            -0.045517850667238235,
            0.06359697878360748,
            -0.02358580380678177
        ],
        [
            0.15498898923397064,
            0.034026339650154114,
            0.17661897838115692,
            0.03555358573794365,
            -0.07712966948747635,
            -0.026848169043660164,
            0.040843602269887924,
            -0.012284360826015472,
            0.061315614730119705,
            0.0415169894695282,
            -0.04795154929161072,
            -0.1335737556219101,
            -0.00012713934120256454,
            -0.05953374132514,
            0.07649502158164978,
            -0.06036846339702606
        ],
        [
            -0.005103951785713434,
            -0.0912361666560173,
            0.0706537589430809,
            0.03046707808971405,
            -0.09146902710199356,
            -0.012229353189468384,
            0.05160721391439438,
            -0.027607452124357224,
            0.06564077734947205,
            0.09720288217067719,
            0.07108093053102493,
            0.10090445727109909,
            0.03548961132764816,
            0.023482320830225945,
            0.03362046927213669,
            0.07575318217277527
        ],
        [
            0.1043153703212738,
            0.03196965530514717,
            0.10122530162334442,
            -0.023349246010184288,
            -0.12755608558654785,
            -0.005833129398524761,
            0.08137661218643188,
            0.07896726578474045,
            -0.06598430871963501,
            -0.085725799202919,
            -0.012356460094451904,
            0.04292010888457298,
            0.001567401341162622,
            -0.10603625327348709,
            -0.0037797228433191776,
            0.013238802552223206
        ],
        [
            0.11087285727262497,
            -0.02574697881937027,
            -0.07896095514297485,
            -0.05181265249848366,
            0.020285136997699738,
            -0.04914679750800133,
            -0.0017136032693088055,
            0.0064268033020198345,
            -0.059126630425453186,
            0.03260774165391922,
            0.02566472627222538,
            -0.13918165862560272,
            0.06844990700483322,
            -0.10671774297952652,
            0.015358958393335342,
            -0.14046217501163483
        ],
        [
            0.028994252905249596,
            -0.13952142000198364,
            0.003762659151107073,
            0.0029399357736110687,
            -0.023227998986840248,
            0.06338366866111755,
            -0.03867150470614433,
            -0.07172650843858719,
            0.0982169583439827,
            0.0031473489943891764,
            -0.08521673083305359,
            -0.09437951445579529,
            0.059513043612241745,
            -0.001884525641798973,
            -0.0926128476858139,
            -0.12104246020317078
        ],
        [
            0.05777190253138542,
            -0.11264500766992569,
            0.0506962351500988,
            0.11687607318162918,
            -0.06662438064813614,
            0.0712297335267067,
            0.013404248282313347,
            0.03663983568549156,
            0.1684858649969101,
            -0.022900432348251343,
            -0.08707764744758606,
            -0.0038691796362400055,
            0.11102031171321869,
            -0.1378382295370102,
            -0.15606771409511566,
            -0.05825672298669815
        ],
        [
            -0.06092173978686333,
            0.1654616892337799,
            0.023464322090148926,
            -0.12610119581222534,
            -0.06749358773231506,
            0.007993386127054691,
            0.022473925724625587,
            -0.08042188733816147,
            0.12733912467956543,
            0.06866501271724701,
            -0.07279912382364273,
            -0.06486779451370239,
            0.0569484606385231,
            -0.06067706272006035,
            0.030840618535876274,
            -0.1434641182422638
        ],
        [
            -0.0534491240978241,
            -0.08508259057998657,
            -0.04750968515872955,
            0.04607470706105232,
            -0.13766898214817047,
            -0.11191919445991516,
            0.025501659139990807,
            0.01895328238606453,
            0.08852735906839371,
            0.07282561808824539,
            -0.08473780751228333,
            0.06243845447897911,
            0.02178514376282692,
            -0.21704527735710144,
            0.000295749370707199,
            -0.15602287650108337
        ],
        [
            0.002142952522262931,
            -0.018860789015889168,
            0.0930590033531189,
            -0.0602949783205986,
            -0.0766012892127037,
            -0.15325073897838593,
            0.09035613387823105,
            -0.01623406633734703,
            -0.04426470771431923,
            0.12295697629451752,
            0.10811096429824829,
            0.09107743948698044,
            0.05210813879966736,
            -0.09239701926708221,
            0.028228310868144035,
            -0.0530947707593441
        ],
        [
            -0.00839477963745594,
            0.001284393249079585,
            -0.1617647260427475,
            -0.10342154651880264,
            0.16420809924602509,
            0.1160864382982254,
            0.13638465106487274,
            0.021115673705935478,
            -0.10303032398223877,
            -0.014430570416152477,
            0.11136406660079956,
            0.12186256051063538,
            0.11663509905338287,
            -0.005957707762718201,
            0.07212726026773453,
            0.059803206473588943
        ],
        [
            0.08505319058895111,
            -0.12818260490894318,
            -0.04041634500026703,
            0.11138327419757843,
            -0.035679642111063004,
            0.03497246652841568,
            -0.054854873567819595,
            -0.05983516573905945,
            0.188592329621315,
            0.17199334502220154,
            -0.008793734014034271,
            0.008797717280685902,
            0.08473466336727142,
            -0.04786084592342377,
            0.001582453609444201,
            -0.018476810306310654
        ],
        [
            0.10067395120859146,
            -0.03112967498600483,
            0.05437367036938667,
            0.13661931455135345,
            0.04717431962490082,
            0.11253631860017776,
            0.044446513056755066,
            -0.01424933597445488,
            0.10284178704023361,
            0.09357328712940216,
            -0.012556241825222969,
            -0.08007396757602692,
            -0.0428164079785347,
            -0.10125602781772614,
            0.06290461122989655,
            -0.014406594447791576
        ],
        [
            0.1413274109363556,
            -0.022223852574825287,
            0.1140415221452713,
            0.1220947653055191,
            -0.012654840014874935,
            -0.2476743906736374,
            0.013204260729253292,
            0.030125966295599937,
            0.11273964494466782,
            0.06972683221101761,
            0.13354100286960602,
            -0.17982527613639832,
            -0.02288975566625595,
            0.035078100860118866,
            0.024094166234135628,
            0.03505658730864525
        ],
        [
            0.005113991908729076,
            0.09509441256523132,
            0.11000338196754456,
            0.045242924243211746,
            -0.015622223727405071,
            0.0014228118816390634,
            -0.06277768313884735,
            -0.04471174627542496,
            -0.07032157480716705,
            -0.019078167155385017,
            0.09739220887422562,
            0.08442575484514236,
            0.0223972387611866,
            -0.030290009453892708,
            -0.11615599691867828,
            -0.004745735786855221
        ],
        [
            0.01573200896382332,
            -0.014216828159987926,
            -0.15370696783065796,
            -0.07561936974525452,
            0.041890647262334824,
            0.14011013507843018,
            0.11351917684078217,
            -0.04509952664375305,
            -0.06879457831382751,
            0.09901973605155945,
            -0.07929526269435883,
            -0.06319446861743927,
            0.06671317666769028,
            -0.05391212925314903,
            -0.1019291952252388,
            -0.038094788789749146
        ],
        [
            -0.14504118263721466,
            -0.06985402852296829,
            0.00878101959824562,
            -0.05851659178733826,
            0.055302198976278305,
            0.07991062104701996,
            0.10324318706989288,
            -0.031063226982951164,
            0.08665256202220917,
            -0.06738924980163574,
            -0.033136218786239624,
            0.16314366459846497,
            -0.025310717523097992,
            0.1075182557106018,
            -0.025063350796699524,
            0.022636855021119118
        ],
        [
            0.20731863379478455,
            0.034718602895736694,
            0.23486018180847168,
            0.0802997425198555,
            -0.12916061282157898,
            0.0014368321280926466,
            -0.05460885167121887,
            0.10405264794826508,
            0.15201778709888458,
            0.11710543930530548,
            0.02595428004860878,
            -0.18911351263523102,
            -0.0531575009226799,
            -0.03713599592447281,
            0.011056195013225079,
            -0.042508479207754135
        ],
        [
            0.07399128377437592,
            0.005235747899860144,
            0.11895046383142471,
            -0.0473245307803154,
            0.08556617051362991,
            0.10433491319417953,
            0.06940221786499023,
            0.011204591020941734,
            -0.04876738041639328,
            -0.052523091435432434,
            0.11812962591648102,
            -0.05590201914310455,
            0.020474903285503387,
            0.10161793977022171,
            0.1880115121603012,
            -0.050912924110889435
        ],
        [
            -0.009897098876535892,
            0.04000648111104965,
            0.004446872975677252,
            0.08983829617500305,
            0.15976226329803467,
            -0.03913349658250809,
            -0.02228686399757862,
            -0.14665423333644867,
            0.11505772173404694,
            -0.17570793628692627,
            0.023315852507948875,
            0.07655886560678482,
            -0.014826182276010513,
            0.08399290591478348,
            0.031707193702459335,
            -0.10084743797779083
        ],
        [
            0.07500994950532913,
            -0.045426949858665466,
            0.032986994832754135,
            0.027849899604916573,
            0.026570376008749008,
            0.07971730083227158,
            0.07237037271261215,
            0.050597380846738815,
            0.08033590763807297,
            0.0334647037088871,
            0.06092862784862518,
            0.11952337622642517,
            0.09936559200286865,
            -0.018987759947776794,
            -0.08028491586446762,
            -0.0504806749522686
        ],
        [
            -0.038996513932943344,
            0.09911882877349854,
            0.11595261096954346,
            -0.00026988337049260736,
            0.11954294890165329,
            0.0569300502538681,
            0.050331294536590576,
            0.08815281838178635,
            0.12659265100955963,
            -0.17469781637191772,
            0.10252596437931061,
            0.07493466883897781,
            -0.07497318089008331,
            0.17560088634490967,
            -0.029241641983389854,
            -0.06431781500577927
        ],
        [
            0.16011843085289001,
            -0.020827198401093483,
            -0.03583453223109245,
            0.1282033771276474,
            0.011619577184319496,
            0.08974407613277435,
            0.0018373853527009487,
            0.012519166804850101,
            0.12401815503835678,
            0.13151617348194122,
            -0.0837535411119461,
            0.020698020234704018,
            0.02718331292271614,
            -0.017392439767718315,
            -0.023018740117549896,
            -0.013696279376745224
        ],
        [
            0.01601935736835003,
            -0.06253182142972946,
            0.011965291574597359,
            -0.08195275813341141,
            0.11575619876384735,
            -0.07782737910747528,
            -0.008623088710010052,
            -0.16635280847549438,
            0.09977105259895325,
            0.019356349483132362,
            0.11148496717214584,
            0.13158966600894928,
            -0.02682732604444027,
            0.04679757356643677,
            -0.01932785101234913,
            -0.11243831366300583
        ],
        [
            0.08103251457214355,
            0.005331099499017,
            0.04648948833346367,
            -0.0035820151679217815,
            -0.07879642397165298,
            -0.11353185772895813,
            0.02058274671435356,
            0.109337218105793,
            -0.05798632651567459,
            0.13549499213695526,
            -0.05156059190630913,
            0.043962642550468445,
            0.09015559405088425,
            -0.0676003098487854,
            -0.04419096186757088,
            -0.12959198653697968
        ],
        [
            0.10433319956064224,
            0.07924342155456543,
            0.0750359371304512,
            0.05518299713730812,
            -0.028824934735894203,
            -0.026678981259465218,
            -0.04434927552938461,
            -0.06189900264143944,
            -0.06885921955108643,
            0.016801998019218445,
            -0.041996028274297714,
            0.022003741934895515,
            -0.10821831971406937,
            0.01473127119243145,
            0.052397649735212326,
            -0.07088198512792587
        ],
        [
            0.01890992745757103,
            -0.04438856244087219,
            -0.08296991884708405,
            -0.07687470316886902,
            -0.0026120259426534176,
            0.023489808663725853,
            0.011715159751474857,
            -0.14308656752109528,
            -0.08713588863611221,
            -0.07415757328271866,
            0.1370825171470642,
            -0.07392920553684235,
            -0.004531948361545801,
            -0.05035492032766342,
            -0.10686428099870682,
            0.05656672269105911
        ],
        [
            -0.04589067026972771,
            -0.07718310505151749,
            -0.16013002395629883,
            -0.04950657859444618,
            0.041161809116601944,
            0.09257855266332626,
            -0.04634987190365791,
            -0.1659579873085022,
            0.04719258099794388,
            -0.06234043836593628,
            0.04947679862380028,
            0.030703973025083542,
            -0.03559890389442444,
            0.07169094681739807,
            -0.1190355122089386,
            0.0082057761028409
        ],
        [
            0.03155697137117386,
            -0.16072246432304382,
            -0.04829154536128044,
            -0.02140076644718647,
            -0.08074825257062912,
            -0.0789373368024826,
            0.15508489310741425,
            0.023253457620739937,
            0.08179482072591782,
            0.07985543459653854,
            0.05534663423895836,
            -0.14947234094142914,
            0.17997819185256958,
            -0.06665610522031784,
            -0.1600402444601059,
            0.0427626371383667
        ],
        [
            -0.0335933193564415,
            0.0018381173722445965,
            0.12913298606872559,
            0.15978901088237762,
            -0.04875538870692253,
            -0.057344261556863785,
            -0.04459117352962494,
            -0.0682605728507042,
            0.09924168139696121,
            0.10922696441411972,
            -0.005649069789797068,
            -0.1707623451948166,
            0.03590884432196617,
            0.0272578876465559,
            0.009972330182790756,
            -0.11081257462501526
        ],
        [
            0.09137173742055893,
            -0.10310818254947662,
            0.026689188554883003,
            0.09348931163549423,
            -0.08051497489213943,
            -0.06443993747234344,
            -0.06231943890452385,
            -0.02637062780559063,
            -0.03171027824282646,
            0.11230575293302536,
            -0.037095192819833755,
            -0.008376761339604855,
            0.013456746004521847,
            -0.09625169634819031,
            -0.041562508791685104,
            -0.1314234882593155
        ],
        [
            0.0716702789068222,
            -0.057800281792879105,
            -0.11147873103618622,
            -0.00932411476969719,
            -0.020713355392217636,
            -0.09965672343969345,
            0.04948613792657852,
            -0.013313823379576206,
            0.025472426787018776,
            0.06021612510085106,
            0.10247879475355148,
            0.005224123131483793,
            0.11034976691007614,
            -0.20244866609573364,
            -0.020613431930541992,
            -0.12700872123241425
        ],
        [
            -0.05039837211370468,
            0.032818108797073364,
            -0.05302851274609566,
            -0.18865695595741272,
            0.18284468352794647,
            0.025399401783943176,
            0.12752453982830048,
            -0.07703176885843277,
            -0.05756291002035141,
            -0.04186223819851875,
            -0.014969785697758198,
            0.17585362493991852,
            0.01949493959546089,
            0.1268271505832672,
            0.050739821046590805,
            0.07677541673183441
        ],
        [
            0.004538457375019789,
            0.12603197991847992,
            0.05081512778997421,
            -0.022625649347901344,
            -0.03053899295628071,
            0.0949476808309555,
            -0.07801903784275055,
            -0.09119411557912827,
            0.0068468754179775715,
            -0.16493968665599823,
            -0.0006304953712970018,
            -0.05201004818081856,
            -0.18120995163917542,
            0.2111387699842453,
            -0.03764759376645088,
            0.05298895761370659
        ],
        [
            -0.07895460724830627,
            -0.054735418409109116,
            -0.14647434651851654,
            -0.031082777306437492,
            0.05256280303001404,
            -0.10959812998771667,
            0.1707310974597931,
            -0.07769223302602768,
            0.10156049579381943,
            -0.028158381581306458,
            0.023551099002361298,
            0.02927788719534874,
            0.18774768710136414,
            -0.11307528614997864,
            -0.010631594806909561,
            -0.10434818267822266
        ],
        [
            0.1865578293800354,
            -0.10682912915945053,
            0.1333087682723999,
            0.09548066556453705,
            0.050883229821920395,
            0.009430896490812302,
            -0.07912327349185944,
            -0.06353545188903809,
            -0.10257794708013535,
            -0.17475704848766327,
            0.13132943212985992,
            0.02858777344226837,
            -0.16078896820545197,
            0.016413545235991478,
            -0.002426029182970524,
            0.12345682084560394
        ],
        [
            -0.03809359669685364,
            -0.08391812443733215,
            -0.017690489068627357,
            0.1442573070526123,
            -0.11490990221500397,
            -0.02597963623702526,
            0.08261742442846298,
            0.06320927292108536,
            0.08037593960762024,
            -0.08302795141935349,
            -0.1276782751083374,
            -0.1073961853981018,
            0.045682232826948166,
            -0.08552137762308121,
            -0.10747070610523224,
            -0.07036492973566055
        ],
        [
            0.012449610978364944,
            0.04688771814107895,
            -0.06704046577215195,
            -0.00653959671035409,
            0.02845466136932373,
            0.08577540516853333,
            -0.08177877962589264,
            0.04144107177853584,
            0.004483419004827738,
            -0.05398513004183769,
            -0.04588129371404648,
            -0.025066133588552475,
            -0.0333988331258297,
            0.033675938844680786,
            -0.04718712717294693,
            -0.10614967346191406
        ],
        [
            -0.05475230515003204,
            -0.09397080540657043,
            0.11754725128412247,
            0.15125752985477448,
            0.01980491168797016,
            0.04025658592581749,
            -0.12984512746334076,
            0.16097545623779297,
            -0.035127170383930206,
            0.08957358449697495,
            0.0747673287987709,
            -0.003095499472692609,
            -0.06856630742549896,
            0.004801581613719463,
            -0.01918310858309269,
            -0.16161346435546875
        ],
        [
            -0.00014116620877757668,
            0.21039579808712006,
            0.05016222596168518,
            -0.025583216920495033,
            0.07770055532455444,
            0.14507396519184113,
            0.1423557698726654,
            -0.18655170500278473,
            -0.07069049775600433,
            0.08581554889678955,
            0.17198321223258972,
            0.026480842381715775,
            -0.12173140794038773,
            0.1857384890317917,
            0.09316481649875641,
            -0.041259896010160446
        ],
        [
            -0.11116451770067215,
            -0.030094077810645103,
            -0.12932945787906647,
            -0.14376555383205414,
            -0.03343936800956726,
            -0.035494521260261536,
            0.12830789387226105,
            -0.0012540195602923632,
            -0.061092473566532135,
            -0.05311771482229233,
            0.07236132025718689,
            0.10648062825202942,
            -0.0324074849486351,
            0.025872213765978813,
            0.08137927949428558,
            0.05335298925638199
        ],
        [
            -0.11482612788677216,
            -0.007981406524777412,
            0.13393117487430573,
            -0.08477817475795746,
            0.11200785636901855,
            0.09694515913724899,
            -0.003915033768862486,
            -0.11073928326368332,
            0.04772569611668587,
            -0.07413487881422043,
            0.12234963476657867,
            0.05616816133260727,
            -0.04054560139775276,
            -0.08221357315778732,
            -0.07169602811336517,
            0.007326590362936258
        ],
        [
            0.05330986529588699,
            0.0971246287226677,
            0.16955097019672394,
            0.08394137024879456,
            -0.10505170375108719,
            0.03584214299917221,
            0.08102910965681076,
            -0.10336655378341675,
            0.12660248577594757,
            -0.0979420393705368,
            -0.08325714617967606,
            0.012005254626274109,
            -0.03792303055524826,
            -0.05665400251746178,
            -0.07202093303203583,
            -0.038999658077955246
        ],
        [
            0.029780641198158264,
            0.048100028187036514,
            -0.02344651333987713,
            0.0441177673637867,
            0.006977103650569916,
            -0.04190927371382713,
            0.031039999797940254,
            0.019104711711406708,
            -0.029434669762849808,
            0.13914145529270172,
            0.023645251989364624,
            -0.09785953909158707,
            0.017112547531723976,
            -0.013146201148629189,
            -0.22718873620033264,
            0.055891018360853195
        ],
        [
            -0.07259874045848846,
            -0.0323064848780632,
            -0.0703037679195404,
            -0.07012352347373962,
            -0.0721842497587204,
            -0.0358722023665905,
            0.07683888077735901,
            -0.04042801633477211,
            0.010856325738132,
            0.039061252027750015,
            0.031708408147096634,
            0.10766272246837616,
            0.02827603556215763,
            -0.008113157004117966,
            0.09013870358467102,
            -0.07334763556718826
        ],
        [
            -0.11184628307819366,
            0.1581873893737793,
            -0.13283559679985046,
            -0.07781060039997101,
            -0.022905627265572548,
            0.10007189959287643,
            -0.037268951535224915,
            -0.045621320605278015,
            -0.09021051228046417,
            0.01805080659687519,
            -0.05643070489168167,
            0.01488321553915739,
            0.12901906669139862,
            0.03408249467611313,
            -0.03455293923616409,
            0.12749846279621124
        ],
        [
            -0.033727750182151794,
            0.10782258212566376,
            -0.1899978369474411,
            -0.007614504545927048,
            0.11555138975381851,
            0.0581757053732872,
            0.14192573726177216,
            -0.04739874601364136,
            0.07813968509435654,
            0.25906792283058167,
            0.14057262241840363,
            0.007925156503915787,
            0.09014007449150085,
            -0.13757231831550598,
            -0.15880338847637177,
            5.5026761401677504e-05
        ],
        [
            0.07830878347158432,
            0.09975963085889816,
            -0.00181534793227911,
            0.10315191745758057,
            0.15195822715759277,
            0.026520593091845512,
            -0.017775297164916992,
            -0.10111654549837112,
            0.018421202898025513,
            -0.10033886134624481,
            0.06718596816062927,
            0.008306197822093964,
            0.04416664317250252,
            -0.07761283218860626,
            0.07595831155776978,
            0.031032521277666092
        ],
        [
            -0.10977330058813095,
            0.0008146212785504758,
            -0.09570123255252838,
            0.07273750007152557,
            0.04342103749513626,
            -0.004381115082651377,
            0.09428678452968597,
            -0.06462857872247696,
            0.11467710882425308,
            0.13364972174167633,
            0.01144313346594572,
            0.006986063905060291,
            -0.010257938876748085,
            -0.10382799059152603,
            -0.1810809075832367,
            -0.04108577221632004
        ],
        [
            -0.005712841171771288,
            -0.08165176957845688,
            0.005015156231820583,
            0.0896376445889473,
            0.029203396290540695,
            -0.008695650845766068,
            -0.09036603569984436,
            -0.02997424453496933,
            0.05777200311422348,
            0.0906885489821434,
            0.011347663588821888,
            0.07841259241104126,
            -0.02666555903851986,
            -0.03478340432047844,
            -0.07876802980899811,
            -0.03259974718093872
        ],
        [
            0.005044036079198122,
            -0.017998026683926582,
            0.12873589992523193,
            0.07994449883699417,
            0.027387505397200584,
            0.18207283318042755,
            0.13108375668525696,
            -0.04955971613526344,
            0.08487837016582489,
            -0.009554198943078518,
            -0.05564836785197258,
            0.046539969742298126,
            -0.038828667253255844,
            -0.030815253034234047,
            -0.1404493749141693,
            -0.2259599268436432
        ],
        [
            0.2561768591403961,
            0.004766319412738085,
            -0.013682342134416103,
            0.036934323608875275,
            -0.1422949880361557,
            -0.2152167111635208,
            -0.017877867445349693,
            -0.02067292481660843,
            0.028057429939508438,
            0.11179382354021072,
            0.013101727701723576,
            -0.06144056096673012,
            0.006779448129236698,
            -0.0825507640838623,
            -0.037217527627944946,
            0.03684953600168228
        ],
        [
            -0.26575547456741333,
            -0.1172579675912857,
            -0.24067823588848114,
            0.19359846413135529,
            -0.12169016152620316,
            0.06769166886806488,
            0.03841203823685646,
            0.08149838447570801,
            0.018488049507141113,
            0.1355866640806198,
            -0.11186967045068741,
            0.12677150964736938,
            -0.020530926063656807,
            -0.15114685893058777,
            -0.12307979166507721,
            -0.09849100559949875
        ],
        [
            0.06719837337732315,
            0.04570041224360466,
            -0.047942012548446655,
            -0.18798105418682098,
            0.14715583622455597,
            -0.09302011132240295,
            0.02713693678379059,
            -0.11673055589199066,
            0.044668588787317276,
            0.12599118053913116,
            0.166934996843338,
            0.08962681144475937,
            0.025426967069506645,
            0.012275625951588154,
            -0.10179387778043747,
            -0.13059841096401215
        ],
        [
            -0.061804793775081635,
            0.06139865890145302,
            0.07182250171899796,
            0.06877625733613968,
            0.14256609976291656,
            0.11215747147798538,
            -0.059389520436525345,
            -0.11680492013692856,
            0.10809312760829926,
            0.04830522462725639,
            0.15796083211898804,
            0.17801621556282043,
            0.03225206211209297,
            -0.072161465883255,
            0.0036914984229952097,
            0.05831092968583107
        ],
        [
            -0.09150643646717072,
            0.11984506249427795,
            -0.24922439455986023,
            0.032878290861845016,
            0.1137571632862091,
            0.14771029353141785,
            0.12868371605873108,
            -0.14184093475341797,
            -0.04825973138213158,
            0.20563094317913055,
            0.06864012777805328,
            -0.002861660672351718,
            0.07653199136257172,
            -0.06107880547642708,
            -0.11635720729827881,
            -0.109747514128685
        ],
        [
            0.29858580231666565,
            0.14494359493255615,
            0.25704634189605713,
            -0.10541539639234543,
            0.05542755126953125,
            -0.23964166641235352,
            -0.046208400279283524,
            -0.13068132102489471,
            -0.015101300552487373,
            0.04787205904722214,
            0.22313128411769867,
            -0.1637367606163025,
            0.15567822754383087,
            -0.009590178728103638,
            -0.0003220875805709511,
            0.01450095884501934
        ],
        [
            0.10593690723180771,
            0.10584349930286407,
            0.025803470984101295,
            0.12517456710338593,
            0.12270919978618622,
            0.10040411353111267,
            0.07357734441757202,
            0.039454732090234756,
            0.09068488329648972,
            0.11232803761959076,
            0.12395796924829483,
            0.061186984181404114,
            -0.009301120415329933,
            -0.12011934071779251,
            -0.06587754189968109,
            0.027505632489919662
        ],
        [
            -0.06069422513246536,
            0.1346549689769745,
            -0.10575605183839798,
            0.10573630779981613,
            0.10424574464559555,
            -0.02687087096273899,
            -0.0010318831773474813,
            -0.11754859983921051,
            0.02395123988389969,
            0.040121208876371384,
            0.09340561926364899,
            0.06948019564151764,
            0.10516560822725296,
            -0.011703764088451862,
            0.05386347323656082,
            0.014324781484901905
        ],
        [
            -0.16221219301223755,
            0.12957122921943665,
            0.12564611434936523,
            -0.05209135636687279,
            0.1689596176147461,
            0.12337324768304825,
            0.029486458748579025,
            0.03693731874227524,
            0.037244830280542374,
            0.0010217734379693866,
            0.018320029601454735,
            0.1237189918756485,
            -0.0006046307389624417,
            0.04680700972676277,
            -0.08499409258365631,
            0.014167963527143002
        ],
        [
            -0.07731584459543228,
            0.14706021547317505,
            -0.06693262606859207,
            0.014469726011157036,
            -0.04530494287610054,
            0.07354705035686493,
            -0.0063476269133389,
            -0.07586181908845901,
            -0.06206279993057251,
            0.015553011558949947,
            -0.05409177392721176,
            -0.013123812153935432,
            0.12648822367191315,
            0.039697710424661636,
            0.013682067394256592,
            0.09411247819662094
        ],
        [
            0.31677788496017456,
            -0.014496402814984322,
            0.2901858687400818,
            -0.04218918830156326,
            0.0818546935915947,
            -0.1885145753622055,
            0.02647319994866848,
            0.09442449361085892,
            -0.043388690799474716,
            -0.014370112679898739,
            0.02327800914645195,
            -0.056898269802331924,
            -0.03750983253121376,
            -0.0707201361656189,
            -0.004581529181450605,
            -0.015348016284406185
        ],
        [
            -0.05989457666873932,
            -0.006261168979108334,
            -0.1208055168390274,
            -0.07816927134990692,
            0.17188924551010132,
            0.07586057484149933,
            -0.004287063144147396,
            0.064692422747612,
            0.040541619062423706,
            0.1190292090177536,
            -0.03394196555018425,
            0.04456367343664169,
            -0.004278948064893484,
            -0.02165590040385723,
            -0.02680947817862034,
            -0.022743800655007362
        ],
        [
            0.04110844060778618,
            0.16795852780342102,
            0.03356630355119705,
            0.06042550876736641,
            0.0947590097784996,
            0.18297810852527618,
            0.07014434039592743,
            -0.1016155555844307,
            0.20145072042942047,
            -0.014700180850923061,
            0.1292921006679535,
            0.13345912098884583,
            0.14404837787151337,
            0.035192713141441345,
            -0.18441185355186462,
            -0.17244867980480194
        ],
        [
            0.008004492148756981,
            0.16759087145328522,
            -0.17394763231277466,
            0.11768190562725067,
            0.08989113569259644,
            -0.00013576883065979928,
            0.01858840137720108,
            -0.15646643936634064,
            0.018355604261159897,
            0.09214447438716888,
            -0.030882444232702255,
            0.1217428520321846,
            -0.0678856298327446,
            -0.027466293424367905,
            0.016968511044979095,
            -0.0775783434510231
        ],
        [
            -0.02154150791466236,
            0.1689298003911972,
            -0.2535911202430725,
            -0.10265164822340012,
            0.08238872140645981,
            0.044119082391262054,
            0.13721045851707458,
            0.01188904419541359,
            0.01426736731082201,
            0.09488143026828766,
            0.08380286395549774,
            0.10028102993965149,
            0.03959039971232414,
            -0.09833923727273941,
            0.051849108189344406,
            -0.004660626873373985
        ],
        [
            -0.032838109880685806,
            0.0998820960521698,
            -0.12137656658887863,
            0.020514413714408875,
            0.1105370968580246,
            0.04425809532403946,
            0.12375270575284958,
            -0.013953839428722858,
            0.04281233251094818,
            -0.07135813683271408,
            0.18020083010196686,
            0.13779695332050323,
            0.06613738089799881,
            0.0845363661646843,
            0.06902676820755005,
            -0.04493892192840576
        ],
        [
            -0.06475780159235,
            0.018462054431438446,
            -0.14049836993217468,
            0.07337108999490738,
            0.04284294322133064,
            0.03653368353843689,
            0.1504622846841812,
            0.016691945493221283,
            0.13154439628124237,
            0.3131512999534607,
            0.1340479999780655,
            -0.05594755709171295,
            0.00885013397783041,
            0.02125765010714531,
            -0.13143008947372437,
            -0.17713843286037445
        ],
        [
            0.16798503696918488,
            0.14480715990066528,
            0.07792451232671738,
            0.008596684783697128,
            0.08241310715675354,
            -0.05544115975499153,
            -0.035959430038928986,
            -0.13106104731559753,
            0.028773346915841103,
            0.05772911012172699,
            -0.06741876900196075,
            -0.021888550370931625,
            0.13542045652866364,
            0.040813323110342026,
            -0.12548932433128357,
            0.08962436020374298
        ],
        [
            -0.043065253645181656,
            -0.04488307982683182,
            -0.014513019472360611,
            0.008511155843734741,
            0.0020142709836363792,
            -0.03057243302464485,
            0.015064605511724949,
            0.03181953355669975,
            0.0375576950609684,
            0.0312331672757864,
            -0.005221996456384659,
            0.06667804718017578,
            0.17734193801879883,
            0.15668632090091705,
            -0.12148218601942062,
            0.10967928171157837
        ],
        [
            0.01716885343194008,
            0.12753430008888245,
            0.03287024796009064,
            0.0006640736828558147,
            0.0915399044752121,
            0.04166495427489281,
            -0.04220002889633179,
            -0.004700337536633015,
            0.08956775814294815,
            -0.0170070119202137,
            -0.012138274498283863,
            -0.02328205294907093,
            0.10866373032331467,
            0.035600900650024414,
            -0.05546160414814949,
            -0.04805227741599083
        ],
        [
            -0.0640922412276268,
            0.05103915184736252,
            -0.14767879247665405,
            0.07122412323951721,
            0.038198377937078476,
            0.13604934513568878,
            0.2184363156557083,
            0.011385614983737469,
            0.10376804322004318,
            0.1777028888463974,
            0.0935148149728775,
            0.01333241630345583,
            0.042094867676496506,
            -0.009702086448669434,
            -0.10530015081167221,
            -0.17941036820411682
        ],
        [
            0.07239345461130142,
            0.03651704266667366,
            0.213471919298172,
            0.1355704665184021,
            0.27263012528419495,
            0.044805895537137985,
            0.0348137691617012,
            -0.17087963223457336,
            0.03197365254163742,
            -0.056080762296915054,
            0.24136045575141907,
            0.12155446410179138,
            -0.03929150477051735,
            0.1069333478808403,
            -0.010150767862796783,
            -0.1376209706068039
        ],
        [
            0.08446592092514038,
            0.03356019780039787,
            0.012395287863910198,
            0.007385715376585722,
            -0.02531413361430168,
            0.0067488206550478935,
            0.13798068463802338,
            0.04502926394343376,
            0.17132146656513214,
            -0.010725723579525948,
            0.03562704846262932,
            -0.03775062412023544,
            -0.07327855378389359,
            -0.039614222943782806,
            0.01924416981637478,
            -0.13524436950683594
        ],
        [
            0.11841264367103577,
            -0.09410764276981354,
            0.016528410837054253,
            -0.015671271830797195,
            -0.08121570944786072,
            -0.12258715182542801,
            0.08948864042758942,
            -0.0638008639216423,
            -0.06656066328287125,
            0.17861226201057434,
            -0.02060506120324135,
            -0.03554718196392059,
            0.09544382989406586,
            0.05721148103475571,
            -0.0712580606341362,
            -0.0906660184264183
        ],
        [
            -0.07989052683115005,
            0.0029417364858090878,
            -0.134229838848114,
            -0.02628936618566513,
            0.11681428551673889,
            -0.005133785307407379,
            -0.003611569991335273,
            0.042467519640922546,
            -0.01776699721813202,
            0.09726352244615555,
            0.0033864129800349474,
            0.07411423325538635,
            0.07752367854118347,
            -0.08816544711589813,
            -0.020956730470061302,
            -0.1347963958978653
        ],
        [
            0.15245458483695984,
            0.050186887383461,
            -0.08947514742612839,
            -0.08644893765449524,
            -0.01537629310041666,
            0.04667956754565239,
            0.07271300256252289,
            -0.03300502151250839,
            0.15580260753631592,
            -0.018020449206233025,
            0.05222683399915695,
            -0.01270272210240364,
            0.04661465436220169,
            0.11467371881008148,
            -0.1077568382024765,
            -0.03415901958942413
        ],
        [
            -0.0386301726102829,
            0.14020764827728271,
            -0.2705512046813965,
            -0.16223441064357758,
            0.04824424535036087,
            0.013631668873131275,
            0.14082114398479462,
            0.04110084846615791,
            0.10533259063959122,
            0.16627570986747742,
            0.12908825278282166,
            0.1324390321969986,
            0.13455398380756378,
            0.036546871066093445,
            -0.1633838266134262,
            0.052282147109508514
        ],
        [
            -0.057952821254730225,
            0.12622064352035522,
            0.006108010187745094,
            -0.042471397668123245,
            0.09278073906898499,
            0.0859871357679367,
            -0.05002906918525696,
            -0.12263607978820801,
            -0.02958405204117298,
            -0.07612892985343933,
            0.09834105521440506,
            0.0546996109187603,
            0.036165785044431686,
            0.030776776373386383,
            -0.03158722072839737,
            -0.04421185329556465
        ],
        [
            0.13589182496070862,
            -0.08478663861751556,
            0.0985092744231224,
            0.03884182125329971,
            -0.03443243354558945,
            -0.15795505046844482,
            0.12703831493854523,
            -0.10517443716526031,
            0.1475481241941452,
            -0.028715772554278374,
            0.12489784508943558,
            0.03729674220085144,
            -0.057063907384872437,
            -0.025840314105153084,
            -0.03207666426897049,
            0.03785894066095352
        ],
        [
            0.07179605215787888,
            0.09975173324346542,
            0.18723049759864807,
            -0.0053914799354970455,
            0.05458539351820946,
            0.02023027278482914,
            0.08526235073804855,
            -0.03521483764052391,
            -0.03861084207892418,
            0.09687599539756775,
            0.059609755873680115,
            -0.0206958819180727,
            0.07277881354093552,
            0.11201371252536774,
            0.04458068311214447,
            -0.008049230091273785
        ],
        [
            0.16902518272399902,
            0.0841466411948204,
            0.1882639080286026,
            0.03916848450899124,
            0.031586676836013794,
            -0.06447351723909378,
            0.01655663177371025,
            0.04333901405334473,
            0.08676144480705261,
            -0.08213939517736435,
            0.0621878020465374,
            -0.111009880900383,
            0.05192188173532486,
            -0.06306184083223343,
            0.003380551002919674,
            0.030932407826185226
        ],
        [
            -0.022385505959391594,
            0.10454679280519485,
            -0.1580790877342224,
            -0.04006684198975563,
            -0.008913126774132252,
            0.006818362511694431,
            -0.07655664533376694,
            -0.05292787775397301,
            -0.0535145178437233,
            -0.0463540144264698,
            0.06961826235055923,
            0.027611926198005676,
            -0.08281316608190536,
            -0.02985086664557457,
            -0.12382764369249344,
            -0.004798701498657465
        ],
        [
            -0.017758358269929886,
            0.050942979753017426,
            -0.06606454402208328,
            0.052782971411943436,
            -0.0615285187959671,
            0.10647084563970566,
            0.008002442307770252,
            -0.011605780571699142,
            0.017889047041535378,
            0.10542722046375275,
            0.13115194439888,
            0.058151837438344955,
            0.16182784736156464,
            0.0006275744526647031,
            -0.12626932561397552,
            -0.06814578175544739
        ],
        [
            0.09162944555282593,
            0.03168696537613869,
            -0.10844086855649948,
            -0.03169294074177742,
            0.10048254579305649,
            -0.06846974790096283,
            0.09847276657819748,
            -0.09462980180978775,
            -0.018727976828813553,
            0.013474728912115097,
            -0.008462606929242611,
            0.039644427597522736,
            0.12880727648735046,
            -0.0463293120265007,
            -0.11844959110021591,
            -0.05477540194988251
        ],
        [
            -0.06430590897798538,
            -0.05442523583769798,
            -0.04858547821640968,
            0.11269357800483704,
            -0.10256098955869675,
            0.1340472549200058,
            -0.05673673376441002,
            0.09782417118549347,
            -0.05456366389989853,
            0.01950942352414131,
            0.007602223195135593,
            -0.030598927289247513,
            -0.0605800487101078,
            0.0901641771197319,
            0.013269782066345215,
            0.05727456137537956
        ],
        [
            -0.0926288440823555,
            -0.0846015140414238,
            0.062274832278490067,
            0.14360058307647705,
            0.1256294846534729,
            0.09641825407743454,
            -0.009287148714065552,
            -0.1412075310945511,
            -0.02513563260436058,
            -0.049363940954208374,
            -0.034419503062963486,
            0.0962279886007309,
            0.13543744385242462,
            0.06957308202981949,
            -0.09668552875518799,
            -0.1658650040626526
        ],
        [
            -0.24731840193271637,
            -0.008226314559578896,
            0.014827784150838852,
            0.12013445049524307,
            0.03516116365790367,
            0.1292358934879303,
            0.13641628623008728,
            0.047060318291187286,
            0.06537704914808273,
            0.23009702563285828,
            -0.06712070852518082,
            0.14058920741081238,
            -0.06751186400651932,
            -0.011798401363193989,
            -0.2039593756198883,
            -0.18299564719200134
        ],
        [
            0.0012621583882719278,
            0.026570726186037064,
            -0.12199707329273224,
            -0.017997227609157562,
            0.0015729223378002644,
            0.18148460984230042,
            -0.05690239369869232,
            -0.07680589705705643,
            0.022958599030971527,
            -0.07063131779432297,
            0.1788119673728943,
            0.05579127371311188,
            0.15221434831619263,
            0.10340406000614166,
            0.07647006958723068,
            0.06508627533912659
        ],
        [
            0.20688731968402863,
            -0.05480925366282463,
            0.06930200755596161,
            0.09301608055830002,
            -0.05227202922105789,
            -0.09583254158496857,
            -0.08501861989498138,
            -0.04433240368962288,
            0.08726164698600769,
            -0.03699302300810814,
            -0.04792514070868492,
            -0.06845667958259583,
            0.009218971244990826,
            -0.129841610789299,
            -0.08067463338375092,
            0.08188336342573166
        ],
        [
            0.0910833477973938,
            0.020105136558413506,
            0.03652822971343994,
            -0.07832091301679611,
            -0.008177638053894043,
            -0.012224975973367691,
            0.145597904920578,
            -0.13180771470069885,
            0.06396444141864777,
            0.061671968549489975,
            -0.0231959018856287,
            0.15990427136421204,
            0.0790259912610054,
            -0.006175911519676447,
            0.010607503354549408,
            -0.11205215007066727
        ],
        [
            0.1978522539138794,
            0.12973937392234802,
            0.15894776582717896,
            0.03666821867227554,
            0.1500767320394516,
            0.03329388424754143,
            -0.1986301988363266,
            0.04634355381131172,
            -0.0014567857142537832,
            -0.06988517940044403,
            0.13434144854545593,
            0.16874295473098755,
            -0.02333165518939495,
            0.003509215312078595,
            0.08820219337940216,
            -0.08591484278440475
        ],
        [
            0.0942244827747345,
            0.152009978890419,
            0.0747813731431961,
            0.06246432662010193,
            0.2420053333044052,
            0.12816466391086578,
            0.08067342638969421,
            -0.11689066886901855,
            0.030234169214963913,
            -0.006361046340316534,
            0.19002240896224976,
            0.30152878165245056,
            -0.00909714587032795,
            -0.019364673644304276,
            -0.07408110797405243,
            -0.043442144989967346
        ],
        [
            0.29730868339538574,
            -0.16919788718223572,
            0.35032907128334045,
            0.04403289407491684,
            -0.08087980002164841,
            -0.15388405323028564,
            -0.12840482592582703,
            0.09587648510932922,
            0.013681990094482899,
            -0.028201302513480186,
            0.10111675411462784,
            -0.0788039043545723,
            -0.09523665904998779,
            8.327925752382725e-05,
            0.01945355348289013,
            -0.12225910276174545
        ],
        [
            0.10955321043729782,
            0.14843332767486572,
            -0.17176467180252075,
            0.06560181081295013,
            0.05673425272107124,
            -0.01809796318411827,
            0.058109864592552185,
            0.03147303685545921,
            0.10212559998035431,
            0.10736189037561417,
            0.09783697873353958,
            0.07425934076309204,
            0.21153217554092407,
            -0.016971824690699577,
            0.039677444845438004,
            -0.16386766731739044
        ],
        [
            0.14146706461906433,
            0.09075424820184708,
            0.18699315190315247,
            -0.015416163951158524,
            0.0046714856289327145,
            0.13784004747867584,
            0.007636526133865118,
            -0.0635744258761406,
            -0.01832386665046215,
            -0.1140098050236702,
            0.09819161146879196,
            -0.013692679814994335,
            -0.010938797146081924,
            0.003597850212827325,
            0.027575546875596046,
            -0.0511866956949234
        ],
        [
            -0.166565403342247,
            -0.11401424556970596,
            -0.22528116405010223,
            0.02709403820335865,
            -0.023245487362146378,
            0.039168670773506165,
            0.0714089497923851,
            -0.10812555998563766,
            0.12427105009555817,
            0.1320207417011261,
            0.13793045282363892,
            0.09702625870704651,
            0.004981454461812973,
            -0.09638715535402298,
            -0.048325181007385254,
            -0.20657117664813995
        ],
        [
            -0.15065383911132812,
            0.014972598291933537,
            -0.12255305796861649,
            0.04451454430818558,
            0.0012340001994743943,
            -0.035013407468795776,
            0.110665462911129,
            -0.048567261546850204,
            -0.014119728468358517,
            -0.01898544281721115,
            0.05258785933256149,
            0.15790429711341858,
            -0.16234168410301208,
            -0.04194898158311844,
            -0.07929892838001251,
            -0.1179216131567955
        ],
        [
            0.061888888478279114,
            -0.08779749274253845,
            0.10304485261440277,
            0.12165935337543488,
            -0.08410876244306564,
            -0.1135445088148117,
            -0.010122797451913357,
            0.22369910776615143,
            0.03107503429055214,
            0.07641921937465668,
            -0.17911477386951447,
            -0.18354888260364532,
            -0.06079002842307091,
            -0.12275729328393936,
            -0.19766026735305786,
            -0.12425302714109421
        ],
        [
            -0.10319305211305618,
            -0.07642436772584915,
            -0.17915093898773193,
            0.12837520241737366,
            -0.0011744805378839374,
            0.03684527799487114,
            -0.013686001300811768,
            -0.05455100163817406,
            0.013067842461168766,
            0.10090441256761551,
            -0.0657416358590126,
            0.05191560462117195,
            0.024989629164338112,
            -0.036809682846069336,
            -0.09413386881351471,
            -0.21281780302524567
        ],
        [
            0.1408553123474121,
            0.049312055110931396,
            0.19391512870788574,
            0.05993063002824783,
            0.05093614012002945,
            -0.1293581873178482,
            0.0887192040681839,
            -0.058150675147771835,
            0.22581717371940613,
            0.0666092038154602,
            0.042972203344106674,
            -0.1257053166627884,
            -0.08643340319395065,
            0.0019385480554774404,
            -0.014412997290492058,
            -0.0025665166322141886
        ],
        [
            0.03892134130001068,
            0.1207219585776329,
            -0.1357005089521408,
            0.016658727079629898,
            0.12436327338218689,
            0.11163336038589478,
            0.035228122025728226,
            0.003324648831039667,
            -0.024384254589676857,
            0.013712502084672451,
            -0.054327644407749176,
            -0.018945731222629547,
            -0.1569359004497528,
            0.08086461573839188,
            -0.1635492891073227,
            0.005934024695307016
        ],
        [
            0.16694092750549316,
            -0.04482274502515793,
            0.18523360788822174,
            0.08033893257379532,
            0.08029275387525558,
            -0.011459958739578724,
            0.12509074807167053,
            -0.10205872356891632,
            -0.013260959647595882,
            -0.029782216995954514,
            0.014085186645388603,
            0.05115571990609169,
            0.06673432886600494,
            -0.15852217376232147,
            -0.015852706506848335,
            -0.09780780971050262
        ],
        [
            -0.09242305159568787,
            0.08850939571857452,
            -0.23130837082862854,
            0.12096183001995087,
            0.0695318728685379,
            0.13154473900794983,
            -0.027703601866960526,
            0.0032482764218002558,
            -0.022760935127735138,
            0.086137555539608,
            0.11226209253072739,
            -0.09258367866277695,
            0.1368538737297058,
            0.055809054523706436,
            -0.1497919261455536,
            -0.12327781319618225
        ],
        [
            0.03731831908226013,
            0.15420064330101013,
            -0.014806567691266537,
            0.07908838987350464,
            0.043905481696128845,
            0.052922945469617844,
            0.1266799420118332,
            -0.2066534161567688,
            0.154591366648674,
            0.0761566311120987,
            0.033155884593725204,
            -0.019946586340665817,
            0.07597331702709198,
            0.21407267451286316,
            0.03605121374130249,
            -0.057571955025196075
        ],
        [
            -0.18180899322032928,
            -0.027347391471266747,
            -0.16098162531852722,
            0.1088741272687912,
            0.06139330193400383,
            0.0006900572334416211,
            0.09586368501186371,
            0.08880205452442169,
            0.14626598358154297,
            0.3257664740085602,
            -0.13898567855358124,
            0.03259625285863876,
            -0.03747861832380295,
            -0.13456839323043823,
            -0.07121099531650543,
            -0.06927881389856339
        ],
        [
            -0.0033416247460991144,
            -0.02534444071352482,
            -0.08448003232479095,
            -0.03543509915471077,
            0.05638070032000542,
            0.07318268716335297,
            -0.09912339597940445,
            0.03174930065870285,
            -0.044919203966856,
            0.07149997353553772,
            0.03793954476714134,
            0.024148544296622276,
            0.08755528926849365,
            -0.012001198716461658,
            -0.034980811178684235,
            0.07968191802501678
        ],
        [
            -0.11705672740936279,
            0.0672714039683342,
            -0.011685265228152275,
            -0.13309140503406525,
            0.11235496401786804,
            -0.035125482827425,
            -0.04113275185227394,
            -0.04567457735538483,
            -0.09947001188993454,
            -0.0698818489909172,
            -0.02155195362865925,
            -0.07925036549568176,
            -0.0542326495051384,
            -0.07755262404680252,
            0.0874936506152153,
            0.01718965917825699
        ],
        [
            -0.016389042139053345,
            -0.10038843005895615,
            0.10844364017248154,
            -0.09612119942903519,
            0.029437998309731483,
            -0.041062332689762115,
            -0.10852599143981934,
            -0.07768400013446808,
            0.04224351420998573,
            0.02394728921353817,
            -0.003637612797319889,
            0.12174134701490402,
            0.06259161978960037,
            0.09331028163433075,
            -0.02228536084294319,
            0.1200055480003357
        ],
        [
            0.12578047811985016,
            0.06677599996328354,
            -0.07545031607151031,
            -0.007902812212705612,
            0.10162726044654846,
            0.023032143712043762,
            -0.09554670006036758,
            0.10422351211309433,
            0.09684602171182632,
            0.13386282324790955,
            0.08366575092077255,
            -0.07431294769048691,
            -0.11626352369785309,
            0.07554256916046143,
            -0.08268149942159653,
            -0.09300658106803894
        ],
        [
            -0.03650667890906334,
            -0.0922856479883194,
            0.01361563429236412,
            -0.10814303904771805,
            0.031354643404483795,
            -0.11568223685026169,
            -0.03312058001756668,
            -0.05237669497728348,
            0.011571192182600498,
            0.015223373658955097,
            0.04489901289343834,
            0.015356711111962795,
            -0.008813579566776752,
            -0.10257211327552795,
            0.07925055921077728,
            0.11922580003738403
        ],
        [
            -0.07995502650737762,
            -0.044084880501031876,
            -0.10204403847455978,
            0.059902746230363846,
            -0.012317651882767677,
            -0.10200167447328568,
            -0.06971389800310135,
            0.02804054133594036,
            -0.13297982513904572,
            -0.1052420362830162,
            0.004218130838125944,
            0.1073327362537384,
            -0.04413234815001488,
            -0.07946662604808807,
            0.07196566462516785,
            0.07149460911750793
        ],
        [
            -0.06545723974704742,
            0.004073575139045715,
            0.029077639803290367,
            -0.04264960065484047,
            -0.12268514931201935,
            -0.1491430103778839,
            0.1313627064228058,
            -0.05579797178506851,
            -0.11748262494802475,
            0.08879522234201431,
            0.01630379445850849,
            0.021192483603954315,
            -0.013153300620615482,
            0.06947917491197586,
            -0.11774197965860367,
            0.09735868126153946
        ],
        [
            0.02227945439517498,
            -0.04425439238548279,
            0.06660635024309158,
            -0.004730751272290945,
            0.06314118951559067,
            -0.1017291247844696,
            0.07503481209278107,
            -0.07330279797315598,
            0.06821036338806152,
            0.13011427223682404,
            0.04956245794892311,
            -0.08985447138547897,
            0.05758662894368172,
            -0.09664323180913925,
            -0.025082966312766075,
            -0.07738249748945236
        ],
        [
            0.08119676262140274,
            0.0947134718298912,
            -0.03665807470679283,
            0.12912492454051971,
            -0.11417767405509949,
            0.04335326328873634,
            0.10290300846099854,
            0.03287820145487785,
            -0.09764549881219864,
            0.10134301334619522,
            0.0650281012058258,
            -0.13241468369960785,
            0.0644696056842804,
            -0.1295590102672577,
            -0.06504542380571365,
            0.03239978104829788
        ],
        [
            -0.05900660157203674,
            0.01391885057091713,
            -0.08491310477256775,
            0.11529389023780823,
            -0.10633590817451477,
            -0.11663550138473511,
            0.07712651044130325,
            0.06950326263904572,
            0.029881566762924194,
            -0.0351472869515419,
            -0.07179786264896393,
            -0.03373271971940994,
            -0.0694824606180191,
            -0.03807175159454346,
            0.06628452241420746,
            0.05835697427392006
        ],
        [
            0.13320821523666382,
            0.007242899853736162,
            0.00025255439686588943,
            -0.03967123106122017,
            0.012733425945043564,
            -0.11856968700885773,
            0.08501588553190231,
            0.12736022472381592,
            0.10431546717882156,
            0.05735959857702255,
            -0.03321034833788872,
            0.0897374153137207,
            0.10742320120334625,
            -0.08397340774536133,
            -0.10431207716464996,
            0.03566070646047592
        ],
        [
            -0.04601886495947838,
            -0.07651618123054504,
            -0.07941579818725586,
            0.026137471199035645,
            0.08971898257732391,
            0.02015676349401474,
            -0.1065458357334137,
            0.11115408688783646,
            0.0004438474716152996,
            0.11045458167791367,
            0.11848308145999908,
            0.0659894123673439,
            -0.08987607061862946,
            0.0028267232701182365,
            0.045650139451026917,
            -0.09023302048444748
        ],
        [
            0.10521296411752701,
            0.0024055279791355133,
            0.08757276833057404,
            -0.13109543919563293,
            -0.0842554122209549,
            0.11402967572212219,
            -0.012775114737451077,
            -0.04287046566605568,
            -0.11352322995662689,
            -0.049507759511470795,
            0.008671265095472336,
            -6.745823338860646e-05,
            -0.14231088757514954,
            0.01596108078956604,
            0.01956189237535,
            0.033184222877025604
        ],
        [
            -0.026535090059041977,
            -0.05386590585112572,
            -0.07087592780590057,
            -0.038507819175720215,
            -0.12579359114170074,
            -0.01187196746468544,
            -0.11548596620559692,
            -0.07326187938451767,
            -0.02991434559226036,
            0.04884060099720955,
            0.0937357023358345,
            0.10116858780384064,
            0.10147053003311157,
            0.020055731758475304,
            -0.11368952691555023,
            0.048573389649391174
        ],
        [
            0.0043589212000370026,
            -0.08149319142103195,
            -0.06436623632907867,
            0.09177489578723907,
            -0.07834018021821976,
            -0.09782873839139938,
            0.05131729319691658,
            -0.039332300424575806,
            -0.14136815071105957,
            -0.11013665050268173,
            -0.12067300826311111,
            0.049911774694919586,
            0.10099375993013382,
            -0.03461984917521477,
            0.045684684067964554,
            0.08365005254745483
        ],
        [
            0.03739909827709198,
            -0.0733921155333519,
            -0.06511367857456207,
            0.07593309134244919,
            -0.08576078712940216,
            -0.015678508207201958,
