{
    "conv.conv.weight": [
        [
            [
                -0.014190196059644222,
                -0.014964022673666477,
                -0.024975614622235298,
                0.005380584858357906,
                -0.018155939877033234,
                0.01497386209666729,
                0.031473174691200256,
                -0.032257869839668274,
                0.014005201868712902,
                0.0021848261822015047,
                0.028973398730158806,
                -0.015461993403732777,
                -0.019073637202382088,
                -0.012005696073174477,
                -0.008269029669463634,
                -0.005365858320146799,
                -0.033422719687223434,
                0.02379591390490532,
                0.009530971758067608,
                0.033185530453920364,
                0.005661975126713514,
                -0.08061424642801285,
                -0.013084325939416885,
                -0.01763773150742054,
                -0.006401425693184137,
                0.00878720823675394,
                0.0590045340359211,
                0.0008007615688256919,
                -0.06254164129495621,
                -0.003309884574264288,
                0.015545434318482876
            ]
        ],
        [
            [
                -0.009783079847693443,
                -0.015058972872793674,
                -0.024680329486727715,
                0.005486069712787867,
                -0.013945946469902992,
                0.011310369707643986,
                0.03205261752009392,
                -0.03460484743118286,
                0.013581709004938602,
                0.0008908878662623465,
                0.027225662022829056,
                -0.025322431698441505,
                -0.01723664067685604,
                -0.02243930473923683,
                -0.012348880991339684,
                -0.012157498858869076,
                -0.04043899476528168,
                0.008271378464996815,
                0.005125262308865786,
                0.02167801558971405,
                0.002782340394333005,
                -0.07072947919368744,
                -0.005596584640443325,
                0.005901419557631016,
                0.025221949443221092,
                0.008188172243535519,
                0.07053429633378983,
                -0.043525904417037964,
                -0.016498936340212822,
                0.04115527123212814,
                -0.008403598330914974
            ]
        ],
        [
            [
                -0.009829382412135601,
                -0.010658202692866325,
                -0.024398397654294968,
                0.009874378331005573,
                -0.017776763066649437,
                0.02004249580204487,
                0.03066573292016983,
                -0.026594199240207672,
                0.01366983912885189,
                0.009249869734048843,
                0.029692161828279495,
                -0.008141088299453259,
                -0.01533415261656046,
                -0.0029324234928935766,
                -0.0021784286946058273,
                0.006415461655706167,
                -0.028356820344924927,
                0.035301387310028076,
                0.010947088710963726,
                0.04125647991895676,
                0.007912157103419304,
                -0.06131133809685707,
                0.001745214918628335,
                0.019543154165148735,
                0.04365779459476471,
                0.04476766660809517,
                0.11095929890871048,
                0.03688908740878105,
                -0.05867297947406769,
                -0.10190872102975845,
                -0.011914503760635853
            ]
        ],
        [
            [
                -0.012102041393518448,
                -0.01368806418031454,
                -0.02870795503258705,
                0.006111341994255781,
                -0.02206309325993061,
                0.016669603064656258,
                0.025852520018815994,
                -0.03197699412703514,
                0.005737327504903078,
                0.00054706766968593,
                0.020062075927853584,
                -0.020483508706092834,
                -0.026280509307980537,
                -0.013551575131714344,
                -0.016514115035533905,
                -0.0012444459134712815,
                -0.038388367742300034,
                0.025064049288630486,
                0.0053812055848538876,
                0.03578384220600128,
                -0.005491233430802822,
                -0.06609414517879486,
                -0.0077870492823421955,
                0.002207203535363078,
                0.020149488002061844,
                0.0055848378688097,
                0.04439907893538475,
                -0.02645942009985447,
                -0.03946487605571747,
                0.019475318491458893,
                0.009891361929476261
            ]
        ],
        [
            [
                -0.013964828103780746,
                -0.015803519636392593,
                -0.02828875556588173,
                0.007072711829096079,
                -0.022456804290413857,
                0.018574703484773636,
                0.02755168452858925,
                -0.02753748558461666,
                0.006960993632674217,
                0.0061152055859565735,
                0.022517457604408264,
                -0.010641464032232761,
                -0.026835301890969276,
                -0.003830608678981662,
                -0.014950637705624104,
                0.0029538602102547884,
                -0.03571801260113716,
                0.031394727528095245,
                0.0040063681080937386,
                0.04843364283442497,
                -0.011066851206123829,
                -0.06022624298930168,
                -0.006479265633970499,
                0.0028680781833827496,
                0.00998874194920063,
                0.051593080163002014,
                0.01376350037753582,
                -0.04350724443793297,
                -0.034514423459768295,
                0.09979048371315002,
                -0.22200648486614227
            ]
        ],
        [
            [
                -0.02450079470872879,
                -0.022225921973586082,
                -0.03634932264685631,
                0.0011954252840951085,
                -0.03154061734676361,
                0.013942889869213104,
                0.01793709024786949,
                -0.03325962647795677,
                0.0002766965772025287,
                0.0024461145512759686,
                0.019453102722764015,
                -0.012523758225142956,
                -0.02290477231144905,
                -0.0017112503992393613,
                -0.014040449634194374,
                0.0014293802669271827,
                -0.040364932268857956,
                0.029484214261174202,
                0.001604589750058949,
                0.030188821256160736,
                -0.010845242068171501,
                -0.06952053308486938,
                -0.029743267223238945,
                -0.034381575882434845,
                0.014837992377579212,
                -0.003707826603204012,
                0.03740923851728439,
                -0.0453525148332119,
                -0.05246768519282341,
                0.06045457720756531,
                0.07687965035438538
            ]
        ],
        [
            [
                -0.016276029869914055,
                -0.01660091057419777,
                -0.02545870654284954,
                0.005630230996757746,
                -0.018184181302785873,
                0.014285357668995857,
                0.03137964755296707,
                -0.03333843871951103,
                0.013895769603550434,
                0.0011590828653424978,
                0.029566992074251175,
                -0.016924003139138222,
                -0.017032364383339882,
                -0.010894419625401497,
                -0.0065850140526890755,
                -0.0034397668205201626,
                -0.02896510623395443,
                0.023258594796061516,
                0.015425514429807663,
                0.036611251533031464,
                0.01049654558300972,
                -0.0716310665011406,
                -0.0022569734137505293,
                -0.005237744189798832,
                0.007716333493590355,
                0.014557849615812302,
                0.04949021339416504,
                -0.026681100949645042,
                -0.029160326346755028,
                -0.0483541265130043,
                -0.38721582293510437
            ]
        ],
        [
            [
                -0.013355027884244919,
                -0.014326443895697594,
                -0.02591724880039692,
                0.006012073718011379,
                -0.017397748306393623,
                0.014950493350625038,
                0.031989410519599915,
                -0.03258853778243065,
                0.013009438291192055,
                0.0021764403209090233,
                0.02556733414530754,
                -0.020830262452363968,
                -0.019849883392453194,
                -0.01995307020843029,
                -0.01515260711312294,
                -0.010149221867322922,
                -0.04199248179793358,
                0.013826263137161732,
                0.0023056380450725555,
                0.01996130309998989,
                -0.006259461864829063,
                -0.08474508672952652,
                -0.029745906591415405,
                -0.022888805717229843,
                -0.008684872649610043,
                -0.02124764770269394,
                0.052198365330696106,
                0.00956036802381277,
                0.008336618542671204,
                0.0008092744974419475,
                0.053330808877944946
            ]
        ],
        [
            [
                -0.015211330726742744,
                -0.013344340026378632,
                -0.02365516871213913,
                0.004423526581376791,
                -0.017232295125722885,
                0.014347769320011139,
                0.032079581171274185,
                -0.0319054014980793,
                0.014012129046022892,
                0.0012734491610899568,
                0.029752489179372787,
                -0.017228232696652412,
                -0.018296319991350174,
                -0.012556411325931549,
                -0.00638555595651269,
                -0.00603222893550992,
                -0.029661454260349274,
                0.02292872592806816,
                0.011905239894986153,
                0.03501105308532715,
                0.007295002229511738,
                -0.07927627861499786,
                0.000541997142136097,
                -0.014724084176123142,
                0.004007446579635143,
                0.010242263786494732,
                0.06545306742191315,
                -0.016395991668105125,
                -0.016478750854730606,
                0.23942553997039795,
                -0.19098246097564697
            ]
        ],
        [
            [
                -0.01588873192667961,
                -0.014475956559181213,
                -0.02700955979526043,
                0.005654111970216036,
                -0.019355647265911102,
                0.014404227025806904,
                0.03003814071416855,
                -0.03239469975233078,
                0.010860401205718517,
                0.0019128707936033607,
                0.025667503476142883,
                -0.01989956572651863,
                -0.023544510826468468,
                -0.01327824778854847,
                -0.015540722757577896,
                -0.0052184052765369415,
                -0.034922823309898376,
                0.01924961246550083,
                0.013473783619701862,
                0.035094253718853,
                0.002237752079963684,
                -0.06574765592813492,
                -0.0072028362192213535,
                -0.013571974821388721,
                0.006714814808219671,
                -0.005905992351472378,
                -0.006334309931844473,
                -0.06892535090446472,
                -0.1407305896282196,
                -0.200016051530838,
                0.37942561507225037
            ]
        ],
        [
            [
                -0.016077199950814247,
                -0.015337915159761906,
                -0.026563869789242744,
                0.006940901279449463,
                -0.019493235275149345,
                0.01570572331547737,
                0.02933979593217373,
                -0.03258854150772095,
                0.010719167068600655,
                0.0011457843938842416,
                0.025799460709095,
                -0.01810295321047306,
                -0.022914623841643333,
                -0.012244654819369316,
                -0.012323268689215183,
                -0.005059721879661083,
                -0.03491775318980217,
                0.021173743531107903,
                0.008994593285024166,
                0.03505334258079529,
                0.004587337374687195,
                -0.06935003399848938,
                -0.0021780964452773333,
                -0.002162305871024728,
                0.019773049280047417,
                0.02485710382461548,
                0.062350768595933914,
                0.0389990359544754,
                0.13977116346359253,
                0.30807778239250183,
                0.11508651822805405
            ]
        ],
        [
            [
                -0.007252891547977924,
                -0.008661165833473206,
                -0.02569109946489334,
                0.013037057593464851,
                -0.019217459484934807,
                0.022880157455801964,
                0.028902413323521614,
                -0.028438547626137733,
                0.010029837489128113,
                0.003322666510939598,
                0.02218426577746868,
                -0.014853070490062237,
                -0.023908358067274094,
                -0.00997069850564003,
                -0.011539092287421227,
                0.006065428256988525,
                -0.03409043326973915,
                0.03787563368678093,
                0.0069058542139828205,
                0.04125626012682915,
                -0.0023608228657394648,
                -0.07284076511859894,
                -0.020313113927841187,
                0.00974601972848177,
                0.005758057814091444,
                0.008550900034606457,
                0.04200048744678497,
                -0.028384802863001823,
                -0.0411655567586422,
                0.04928341507911682,
                -0.008318167179822922
            ]
        ],
        [
            [
                -0.011787351220846176,
                -0.014612174592912197,
                -0.027229443192481995,
                0.0083984499797225,
                -0.021413175389170647,
                0.018136490136384964,
                0.02732035517692566,
                -0.029830792918801308,
                0.007453084923326969,
                0.0038054813630878925,
                0.020126089453697205,
                -0.01463180873543024,
                -0.029596643522381783,
                -0.011732022278010845,
                -0.01796126179397106,
                -0.00398573512211442,
                -0.043268248438835144,
                0.025324879214167595,
                -0.004223033785820007,
                0.035820599645376205,
                -0.013065398670732975,
                -0.07502097636461258,
                -0.024338113144040108,
                -0.004800490569323301,
                -0.009713183157145977,
                0.017932210117578506,
                0.020061850547790527,
                -0.0031834072433412075,
                -0.03048757091164589,
                -0.11885316669940948,
                -0.3513595759868622
            ]
        ],
        [
            [
                -0.010177071206271648,
                -0.0078049590811133385,
                -0.02096480131149292,
                0.013575945049524307,
                -0.014709170907735825,
                0.021168533712625504,
                0.03384615108370781,
                -0.028016086667776108,
                0.016966180875897408,
                0.005255116615444422,
                0.030600035563111305,
                -0.012406738474965096,
                -0.018734367564320564,
                -0.010582798160612583,
                -0.005176912527531385,
                -0.0021319177467375994,
                -0.030554482713341713,
                0.02419712021946907,
                0.0022602546960115433,
                0.02785588428378105,
                -0.006105482578277588,
                -0.09309939295053482,
                -0.02455497346818447,
                -0.008152307011187077,
                -0.009640920907258987,
                -0.013449838384985924,
                0.006428337190300226,
                -0.09093043208122253,
                -0.06154879182577133,
                0.08245311677455902,
                0.07239359617233276
            ]
        ],
        [
            [
                -0.004657259210944176,
                -0.009349816478788853,
                -0.02783113718032837,
                0.011408893391489983,
                -0.019679222255945206,
                0.019401652738451958,
                0.02871173992753029,
                -0.026210973039269447,
                0.004685567691922188,
                0.008231641724705696,
                0.02014309912919998,
                -0.01648331992328167,
                -0.026281947270035744,
                -0.0007285195169970393,
                -0.02058868110179901,
                0.005501494277268648,
                -0.0412665419280529,
                0.021507930010557175,
                0.010166248306632042,
                0.04074078053236008,
                -0.0062772720120847225,
                -0.04984435439109802,
                -0.0023636796977370977,
                -0.02694462053477764,
                0.012617209926247597,
                -0.0037242653779685497,
                0.023732224479317665,
                -0.027770070359110832,
                -0.03388233110308647,
                0.05141190439462662,
                -0.005288539454340935
            ]
        ],
        [
            [
                -0.012878325767815113,
                -0.014794014394283295,
                -0.026976212859153748,
                0.006973687093704939,
                -0.020419780164957047,
                0.01714954897761345,
                0.02940518781542778,
                -0.03079974465072155,
                0.0104015888646245,
                0.003093431703746319,
                0.02527281455695629,
                -0.014412123709917068,
                -0.023223640397191048,
                -0.00960618071258068,
                -0.012401876971125603,
                -0.0015800951514393091,
                -0.03562525287270546,
                0.027051925659179688,
                0.00518532982096076,
                0.039174728095531464,
                -0.006957436911761761,
                -0.07284976541996002,
                -0.015598471276462078,
                -0.007417724933475256,
                -0.001292499015107751,
                0.04101569578051567,
                0.03285001963376999,
                -0.017382949590682983,
                -0.030748602002859116,
                0.199176624417305,
                0.3276841938495636
            ]
        ]
    ],
    "conv.conv.bias": [
        1.6316357851028442,
        -0.20274437963962555,
        -0.19699768722057343,
        0.6251457333564758,
        0.5517123937606812,
        -0.11198078840970993,
        -0.21499593555927277,
        0.24376124143600464,
        -1.2206627130508423,
        -0.19526523351669312,
        0.13425931334495544,
        -0.29921191930770874,
        -0.2942225933074951,
        0.2942345142364502,
        -0.002061422448605299,
        -0.5476635694503784
    ],
    "norm.weight": [
        0.5837364792823792,
        0.3096805214881897,
        0.5774457454681396,
        0.3141310513019562,
        0.6132957935333252,
        0.2566172778606415,
        0.7111750841140747,
        0.4840809106826782,
        0.5844672918319702,
        0.5291705131530762,
        0.7196762561798096,
        0.47226324677467346,
        0.7685967683792114,
        0.4363137483596802,
        0.14462341368198395,
        0.8081520199775696
    ],
    "norm.bias": [
        -0.3471456468105316,
        0.10887566953897476,
        0.16674073040485382,
        -0.3140730857849121,
        -0.23351526260375977,
        0.053862445056438446,
        0.102328822016716,
        -0.17996753752231598,
        0.14913712441921234,
        0.18085898458957672,
        -0.13105110824108124,
        0.23764829337596893,
        0.21413321793079376,
        -0.1968371421098709,
        0.003109101438894868,
        0.11468091607093811
    ],
    "knob_to_h0.0.weight": [
        [
            0.722008466720581
        ],
        [
            1.1093693971633911
        ],
        [
            -0.357942670583725
        ],
        [
            -1.1898804903030396
        ],
        [
            -0.569575846195221
        ],
        [
            0.9041470289230347
        ],
        [
            -1.3791993856430054
        ],
        [
            0.7938767671585083
        ],
        [
            1.5997999906539917
        ],
        [
            0.43492916226387024
        ],
        [
            0.28870537877082825
        ],
        [
            0.18977268040180206
        ],
        [
            1.1146494150161743
        ],
        [
            0.8802799582481384
        ],
        [
            2.174290895462036
        ],
        [
            -0.83309406042099
        ],
        [
            -0.4390408396720886
        ],
        [
            0.039012327790260315
        ],
        [
            0.2875872552394867
        ],
        [
            2.0430212020874023
        ],
        [
            -1.2272653579711914
        ],
        [
            -0.5308663249015808
        ],
        [
            1.3639119863510132
        ],
        [
            0.4373984932899475
        ],
        [
            0.3316684365272522
        ],
        [
            1.3032375574111938
        ],
        [
            -0.5624488592147827
        ],
        [
            -2.045696496963501
        ],
        [
            -1.152122139930725
        ],
        [
            -1.8211332559585571
        ],
        [
            0.8966343402862549
        ],
        [
            -1.8780882358551025
        ]
    ],
    "knob_to_h0.0.bias": [
        -0.5997506380081177,
        -0.3946458697319031,
        -0.791285514831543,
        0.5560997128486633,
        0.28947556018829346,
        0.021422099322080612,
        -0.7365074157714844,
        -0.31805220246315,
        0.05443289875984192,
        -1.5191785097122192,
        -1.6900426149368286,
        0.3556175231933594,
        -0.106895312666893,
        1.2392479181289673,
        -1.3662071228027344,
        1.2489423751831055,
        1.1936451196670532,
        -0.4874490201473236,
        -1.1518363952636719,
        -1.4267868995666504,
        -0.409891813993454,
        -0.5048998594284058,
        -0.4911154806613922,
        -0.29762569069862366,
        0.1575423926115036,
        0.5939371585845947,
        -0.2698611617088318,
        -0.3124634325504303,
        0.9368674755096436,
        0.16821205615997314,
        -0.5913135409355164,
        0.18577301502227783
    ],
    "gru.weight_ih_l0": [
        [
            -0.22796106338500977,
            -0.17587082087993622,
            0.2875621020793915,
            -0.16727517545223236,
            -0.15666429698467255,
            -0.09029480814933777,
            0.47107401490211487,
            -0.3017793893814087,
            0.03280768543481827,
            -0.36736735701560974,
            0.056896038353443146,
            0.16431701183319092,
            0.23985809087753296,
            -0.10057342052459717,
            -0.03486835956573486,
            0.0827268734574318,
            -0.38459381461143494
        ],
        [
            0.050754010677337646,
            -0.15522471070289612,
            -0.03379040211439133,
            -0.1785052865743637,
            -0.02442857436835766,
            -0.20181290805339813,
            0.32195398211479187,
            -0.1059124544262886,
            0.2478518784046173,
            -0.2015862613916397,
            0.08166010677814484,
            0.03944717347621918,
            0.19511550664901733,
            -0.18454347550868988,
            0.10879747569561005,
            0.020273864269256592,
            -0.24355493485927582
        ],
        [
            -0.16832126677036285,
            -0.24358418583869934,
            -0.026643535122275352,
            0.02770295739173889,
            0.08853906393051147,
            -0.1512455940246582,
            -0.1919284462928772,
            0.2402765452861786,
            0.006842768285423517,
            -0.2566869258880615,
            -0.1214749664068222,
            0.02835233509540558,
            -0.24674764275550842,
            0.15785746276378632,
            -0.5275523662567139,
            0.31961703300476074,
            0.020467346534132957
        ],
        [
            -0.1368889957666397,
            0.16604849696159363,
            0.07778612524271011,
            0.28191813826560974,
            -0.1175258606672287,
            -0.03167971968650818,
            -0.3941659927368164,
            0.2404731959104538,
            0.35345301032066345,
            0.24832744896411896,
            0.20552758872509003,
            -0.0009237392223440111,
            -0.3481643497943878,
            0.20586459338665009,
            -0.20908646285533905,
            0.022734075784683228,
            -0.6129995584487915
        ],
        [
            0.26644250750541687,
            0.20271329581737518,
            0.09803076833486557,
            0.10553820431232452,
            0.15311911702156067,
            -0.08787184953689575,
            0.0453338585793972,
            -0.12584589421749115,
            -0.18796686828136444,
            0.04724135622382164,
            0.22063620388507843,
            -0.003216109937056899,
            -0.022942380979657173,
            -0.30368393659591675,
            -0.03754861280322075,
            -0.101862333714962,
            0.41918066143989563
        ],
        [
            0.20174211263656616,
            0.09296911209821701,
            -0.20869821310043335,
            0.5346558690071106,
            0.15616177022457123,
            0.4909311830997467,
            -0.20489828288555145,
            0.42093899846076965,
            -0.3042662739753723,
            0.5807587504386902,
            -0.2900685667991638,
            -0.15660400688648224,
            0.07044891268014908,
            0.567138671875,
            0.08944565802812576,
            -0.2627533972263336,
            0.20571525394916534
        ],
        [
            0.079838328063488,
            0.30589863657951355,
            0.6275591254234314,
            -1.0492595434188843,
            -0.023645147681236267,
            -0.32842546701431274,
            0.4589203894138336,
            -0.2670203745365143,
            -0.1228865310549736,
            0.13999350368976593,
            -0.2592853605747223,
            0.5463685393333435,
            0.5030065774917603,
            -0.44498932361602783,
            0.1357630342245102,
            -0.22755569219589233,
            -0.5750454664230347
        ],
        [
            0.10708539187908173,
            0.3023679256439209,
            -0.12162301689386368,
            -0.46598803997039795,
            -0.0675044134259224,
            -0.22470813989639282,
            0.033171530812978745,
            -0.35708364844322205,
            0.21107617020606995,
            -0.19008347392082214,
            -0.13629287481307983,
            0.026608256623148918,
            -0.12133811414241791,
            -0.03939129039645195,
            -0.36480972170829773,
            0.16127009689807892,
            -0.3926156759262085
        ],
        [
            -0.07678375393152237,
            -0.27794674038887024,
            -0.13778263330459595,
            -0.2481958270072937,
            0.04066617786884308,
            -0.037796501070261,
            0.456822007894516,
            0.10472983866930008,
            0.29697373509407043,
            -0.155411496758461,
            -0.3985801637172699,
            0.004357398021966219,
            0.40824732184410095,
            -0.08963914960622787,
            -0.31839632987976074,
            0.16255497932434082,
            -0.3913673758506775
        ],
        [
            0.29201188683509827,
            -0.04303585737943649,
            -0.45038923621177673,
            0.09685168415307999,
            0.42436885833740234,
            -0.048278797417879105,
            -0.5527828931808472,
            -0.2655010521411896,
            -0.19459021091461182,
            -0.005259583704173565,
            0.26797929406166077,
            -0.029134683310985565,
            -0.7672213912010193,
            0.5249213576316833,
            0.15250737965106964,
            -0.09605317562818527,
            0.13283878564834595
        ],
        [
            0.02814178168773651,
            0.07697850465774536,
            0.18192283809185028,
            -0.20583868026733398,
            0.04557468742132187,
            0.19509758055210114,
            0.10388950258493423,
            -0.00211398140527308,
            0.0312766395509243,
            0.11879753321409225,
            0.008538729511201382,
            0.3456273674964905,
            0.22705471515655518,
            -0.013481331057846546,
            0.17953193187713623,
            0.1421252340078354,
            -0.012265441939234734
        ],
        [
            -0.12224966287612915,
            -0.22914229333400726,
            0.16471582651138306,
            0.9617906212806702,
            -0.09943842887878418,
            -0.21340477466583252,
            -0.21919523179531097,
            -0.5818091034889221,
            0.26789435744285583,
            -0.3097025156021118,
            0.1864452064037323,
            -0.2115967869758606,
            -0.16333135962486267,
            0.24529007077217102,
            0.44097551703453064,
            0.572350025177002,
            -0.24842266738414764
        ],
        [
            0.8471916913986206,
            -0.7452940940856934,
            -0.36582815647125244,
            1.6208763122558594,
            1.0870420932769775,
            -0.07898765802383423,
            -0.031004123389720917,
            0.9727658629417419,
            -0.6954128742218018,
            -0.7931380867958069,
            0.22426673769950867,
            -0.776181697845459,
            0.12749536335468292,
            0.24176247417926788,
            -0.7275121212005615,
            -1.5689557790756226,
            -0.08148209750652313
        ],
        [
            -0.09171067178249359,
            -0.2451903373003006,
            0.042871229350566864,
            -0.9126297831535339,
            -0.2317599207162857,
            0.41340288519859314,
            0.15757213532924652,
            0.7203914523124695,
            0.2637891173362732,
            0.4098707139492035,
            -0.30882272124290466,
            0.04140089452266693,
            0.14800520241260529,
            -0.372433602809906,
            -0.07350248098373413,
            0.0667993426322937,
            0.12152448296546936
        ],
        [
            -0.020028376951813698,
            0.05899340286850929,
            0.34771209955215454,
            0.04947103187441826,
            -0.3869439959526062,
            -0.11154100298881531,
            0.10872535407543182,
            -0.3472018837928772,
            0.156570166349411,
            -0.26376745104789734,
            0.11133191734552383,
            -0.0022193025797605515,
            0.11902666091918945,
            0.03239521011710167,
            0.20959369838237762,
            0.29915085434913635,
            -0.3793743848800659
        ],
        [
            -0.19907858967781067,
            0.3695088028907776,
            0.3998028337955475,
            -0.6207306385040283,
            -0.1583545207977295,
            -0.5045555233955383,
            0.7384577989578247,
            -0.24825461208820343,
            0.1924407035112381,
            -0.6690025925636292,
            -0.07046651840209961,
            0.45177575945854187,
            0.4803626239299774,
            -0.5083028674125671,
            -0.10419207811355591,
            -0.1575925350189209,
            -0.2794944643974304
        ],
        [
            0.12044437229633331,
            -0.1216183677315712,
            -0.027808303013443947,
            0.37675610184669495,
            0.07618087530136108,
            0.17562167346477509,
            -0.27366903424263,
            0.19167755544185638,
            -0.31069713830947876,
            0.025109687820076942,
            0.24946841597557068,
            0.08619196712970734,
            -0.2695726454257965,
            -0.13056491315364838,
            -0.20543906092643738,
            -0.06275148689746857,
            0.48903214931488037
        ],
        [
            -0.04626323655247688,
            -0.02136913314461708,
            0.19319908320903778,
            -0.24497322738170624,
            -0.011571495793759823,
            -0.36240771412849426,
            0.09166347235441208,
            0.04810908064246178,
            -0.042151160538196564,
            -0.5496593117713928,
            -0.14226730167865753,
            0.09280289709568024,
            0.47402191162109375,
            -0.8156157732009888,
            -0.6412929892539978,
            -0.08835644274950027,
            -0.3588777184486389
        ],
        [
            -0.3352954685688019,
            0.5161808729171753,
            -0.1205577403306961,
            -1.4934760332107544,
            -0.27268335223197937,
            0.4276101589202881,
            -0.18579313158988953,
            -0.5897225141525269,
            0.21048259735107422,
            0.02581501379609108,
            0.204334557056427,
            0.4451187252998352,
            -0.10731210559606552,
            0.007898470386862755,
            0.3575438857078552,
            0.5644936561584473,
            0.2589341998100281
        ],
        [
            -0.03977792337536812,
            0.09321340173482895,
            -0.16191796958446503,
            0.0744597464799881,
            -0.033777739852666855,
            0.32345205545425415,
            -0.06751944869756699,
            0.05037086084485054,
            0.11508803814649582,
            0.33993956446647644,
            -0.09702400863170624,
            0.011318203061819077,
            0.19178110361099243,
            0.08482418209314346,
            0.18343858420848846,
            0.17812518775463104,
            -0.22904086112976074
        ],
        [
            0.2729254961013794,
            -0.2629128098487854,
            -1.5866116285324097,
            0.8270520567893982,
            0.5767112970352173,
            0.003492204938083887,
            0.17878258228302002,
            0.6103607416152954,
            -0.5110088586807251,
            -0.005089598707854748,
            -0.07313773036003113,
            -0.9974139332771301,
            0.0036297831684350967,
            0.19654974341392517,
            -0.5179770588874817,
            -0.8984615802764893,
            1.4048882722854614
        ],
        [
            -0.16337352991104126,
            -0.03041517734527588,
            -0.07513085007667542,
            0.38711875677108765,
            0.009247327223420143,
            0.014503484591841698,
            -0.505437433719635,
            -0.32287710905075073,
            0.025165075436234474,
            -0.3692792057991028,
            0.35570770502090454,
            -0.26996535062789917,
            -0.6315013766288757,
            0.13945415616035461,
            -0.09629544615745544,
            0.3559900224208832,
            0.06863806396722794
        ],
        [
            -0.02207852527499199,
            0.3697081208229065,
            0.2755506634712219,
            0.24226225912570953,
            -0.2437427043914795,
            0.20126357674598694,
            0.09151987731456757,
            -0.11082319915294647,
            -0.09940299391746521,
            -0.2689068615436554,
            0.14943858981132507,
            -0.2463342398405075,
            0.02787052094936371,
            -0.09462188184261322,
            0.24169541895389557,
            -0.07680579274892807,
            0.2778426706790924
        ],
        [
            0.12428083270788193,
            -0.22925005853176117,
            0.16401958465576172,
            0.3938775658607483,
            -0.01715998165309429,
            -0.0036835973151028156,
            0.33127638697624207,
            0.04885249212384224,
            -0.17916980385780334,
            -0.7691785097122192,
            0.0023090941831469536,
            -0.3090624511241913,
            0.09470848739147186,
            -0.4527997672557831,
            0.1683591902256012,
            -0.330711305141449,
            0.2093876749277115
        ],
        [
            0.0725339949131012,
            -0.13376516103744507,
            0.14279627799987793,
            0.06888969987630844,
            0.020942922681570053,
            -0.11467616260051727,
            0.12849432229995728,
            0.00419230293482542,
            0.09516225755214691,
            0.0854509174823761,
            0.10376331210136414,
            0.09838617593050003,
            -0.08674465864896774,
            -0.06744120270013809,
            0.11857478320598602,
            0.179676353931427,
            -0.6974179744720459
        ],
        [
            0.05608292296528816,
            -0.02252463437616825,
            0.1427665799856186,
            -0.35890719294548035,
            -0.02001408115029335,
            0.0011110770283266902,
            0.40235671401023865,
            0.01730380766093731,
            0.15518733859062195,
            0.20613934099674225,
            -0.1981099247932434,
            0.3585725724697113,
            0.1961704045534134,
            -0.11159519851207733,
            -0.08616943657398224,
            0.16663458943367004,
            -0.718453049659729
        ],
        [
            -0.005248760338872671,
            0.1947617530822754,
            -0.2718711495399475,
            0.13252347707748413,
            0.004243538249284029,
            0.5923045873641968,
            -0.13991214334964752,
            0.33507096767425537,
            -0.207656592130661,
            0.3500558137893677,
            0.0032932618632912636,
            -0.04544242471456528,
            -0.09834697097539902,
            0.25218915939331055,
            0.09873488545417786,
            -0.2809908986091614,
            0.9740424156188965
        ],
        [
            0.15715408325195312,
            0.055489007383584976,
            -0.23214159905910492,
            -0.29738175868988037,
            0.18492937088012695,
            0.17872212827205658,
            -0.015181492082774639,
            0.4418710470199585,
            -0.21120156347751617,
            -0.21998320519924164,
            -0.08563028275966644,
            0.113746277987957,
            0.2596406638622284,
            -0.09950188547372818,
            -0.38011133670806885,
            -0.3485465943813324,
            -0.25685521960258484
        ],
        [
            -0.03144612908363342,
            0.1240304559469223,
            0.03069269098341465,
            -0.4602530002593994,
            -0.12568137049674988,
            -0.020255357027053833,
            0.20922601222991943,
            -0.17136721312999725,
            0.2694298028945923,
            -0.11488860845565796,
            -0.1744936853647232,
            0.35965093970298767,
            0.014224972575902939,
            -0.10275374352931976,
            0.3377569019794464,
            -0.016109775751829147,
            0.34543031454086304
        ],
        [
            -0.35774075984954834,
            0.527746856212616,
            0.1433083564043045,
            -0.5476730465888977,
            -0.17013728618621826,
            0.8208757042884827,
            -0.2465144246816635,
            0.41541895270347595,
            0.356541246175766,
            0.47617432475090027,
            -0.11914389580488205,
            0.13107679784297943,
            0.14357993006706238,
            0.08406773954629898,
            -0.4808098077774048,
            0.33044031262397766,
            -0.037864577025175095
        ],
        [
            0.011933590285480022,
            0.19999614357948303,
            0.2985326647758484,
            0.2808466851711273,
            -0.2760814130306244,
            0.029250510036945343,
            0.015709288418293,
            -0.07387316972017288,
            0.18771129846572876,
            -0.09875421226024628,
            0.30923545360565186,
            0.09578246623277664,
            0.10964406281709671,
            0.14596082270145416,
            0.29346442222595215,
            0.17847011983394623,
            -0.1378479152917862
        ],
        [
            0.1373414248228073,
            -0.27902209758758545,
            0.053590819239616394,
            -0.030278280377388,
            0.1614583283662796,
            0.10683104395866394,
            -0.15345142781734467,
            0.03945412486791611,
            -0.125457763671875,
            -0.4220876395702362,
            0.301098108291626,
            -0.052436161786317825,
            -0.12479324638843536,
            0.06390056014060974,
            -0.08577213436365128,
            -0.011638977564871311,
            -0.08899161964654922
        ],
        [
            0.12947985529899597,
            0.12522439658641815,
            -0.21999122202396393,
            -0.2629040479660034,
            0.17535088956356049,
            -0.03130470961332321,
            -0.13500507175922394,
            -0.05881434679031372,
            -0.11859691888093948,
            0.0019970585126429796,
            0.00382400956004858,
            -0.06718375533819199,
            -0.028655966743826866,
            0.19254647195339203,
            -0.0702180489897728,
            0.01814308576285839,
            -0.08542478084564209
        ],
        [
            0.3183683753013611,
            -0.3516373932361603,
            -0.0019889003597199917,
            -0.398698627948761,
            0.09286714345216751,
            -0.2447417825460434,
            -0.05128905549645424,
            -0.0983780175447464,
            -0.1539044827222824,
            -0.1187247782945633,
            -0.18552327156066895,
            0.2959745526313782,
            -0.2171008288860321,
            0.17910528182983398,
            -0.2156127691268921,
            -0.2696637213230133,
            -0.3012114465236664
        ],
        [
            0.45397961139678955,
            0.10406184941530228,
            -0.4133797287940979,
            0.03450576215982437,
            0.28882861137390137,
            0.36591628193855286,
            -0.15042933821678162,
            -0.285259485244751,
            -0.4709765315055847,
            0.5169076919555664,
            0.4673299491405487,
            -0.03104759193956852,
            -0.4150402843952179,
            0.2695242166519165,
            0.22244150936603546,
            -0.3311869502067566,
            -0.35291731357574463
        ],
        [
            0.05980588495731354,
            -0.22897326946258545,
            -0.275399386882782,
            0.09971266239881516,
            -0.07926895469427109,
            0.17867878079414368,
            -0.2545638978481293,
            0.13947534561157227,
            -0.014912583865225315,
            -0.06407621502876282,
            0.11222498118877411,
            0.17987869679927826,
            -0.2633032500743866,
            0.483982652425766,
            0.27612054347991943,
            -0.04888917878270149,
            -0.6741324067115784
        ],
        [
            0.19384239614009857,
            0.17739734053611755,
            -0.008226490579545498,
            -0.37212732434272766,
            0.15124578773975372,
            -0.05535302683711052,
            -0.18366754055023193,
            -0.5278981924057007,
            -0.08940544724464417,
            -0.0382150374352932,
            0.18531619012355804,
            0.04494214057922363,
            -0.1269027590751648,
            0.2659763693809509,
            -0.014458698220551014,
            -0.14771053194999695,
            -0.3253460228443146
        ],
        [
            0.0962788462638855,
            -0.16044820845127106,
            -0.09042583405971527,
            0.2338547557592392,
            0.08595604449510574,
            -0.05754261091351509,
            -0.15977726876735687,
            -0.07436641305685043,
            -0.1294344812631607,
            -0.067507304251194,
            -0.05048414692282677,
            -0.10377879440784454,
            -0.22809192538261414,
            0.0050288233906030655,
            -0.0008439692319370806,
            -0.17260970175266266,
            -0.6660396456718445
        ],
        [
            -0.004965708125382662,
            -0.1344965696334839,
            -0.4844905436038971,
            -0.08085412532091141,
            -0.053527504205703735,
            0.6549580693244934,
            -0.060397978872060776,
            0.6721682548522949,
            0.04694116488099098,
            0.0029655045364052057,
            -0.010660530999302864,
            -0.135456845164299,
            -0.12553827464580536,
            0.5016195178031921,
            -0.2174990326166153,
            -0.08458713442087173,
            -0.28320959210395813
        ],
        [
            0.42131006717681885,
            0.020999271422624588,
            -0.09305963665246964,
            0.40506890416145325,
            0.14631901681423187,
            0.0277349092066288,
            -0.1606854498386383,
            0.20811191201210022,
            0.004864722955971956,
            -0.09402976930141449,
            0.13799454271793365,
            -0.09053824096918106,
            -0.14331042766571045,
            0.0247119702398777,
            0.009523200802505016,
            -0.09576459974050522,
            -0.8598182797431946
        ],
        [
            0.09487707167863846,
            -0.4261929392814636,
            -0.4837878346443176,
            -0.1262964904308319,
            0.2798199951648712,
            0.6871551275253296,
            -0.35839736461639404,
            0.15043514966964722,
            -0.3183792531490326,
            0.5785794854164124,
            -0.18805399537086487,
            -0.2480495572090149,
            -0.19264206290245056,
            0.586122989654541,
            0.7739846706390381,
            -0.16184988617897034,
            -0.3449704051017761
        ],
        [
            0.12110382318496704,
            -0.04052679240703583,
            -0.09120281040668488,
            -0.6759876012802124,
            0.15200458467006683,
            0.18773797154426575,
            -0.08218701183795929,
            -0.010396347381174564,
            -0.10352010279893875,
            -0.07938902080059052,
            0.07480556517839432,
            0.19411398470401764,
            -0.011137674562633038,
            -0.000584302528295666,
            -0.23464550077915192,
            -0.1369575709104538,
            -0.22217094898223877
        ],
        [
            -0.04869408532977104,
            0.1343400776386261,
            -0.14216719567775726,
            -0.5670760869979858,
            -0.028437724336981773,
            0.02948475256562233,
            -0.0870710238814354,
            -0.0404016338288784,
            -0.05858917534351349,
            0.20087124407291412,
            -0.2745385766029358,
            0.26813873648643494,
            -0.12962786853313446,
            0.01704840175807476,
            0.0296469759196043,
            -0.021001167595386505,
            -0.46292129158973694
        ],
        [
            0.04488992318511009,
            0.2243443727493286,
            -0.283704936504364,
            -0.5061983466148376,
            -0.10937980562448502,
            0.0683097392320633,
            -0.2666146457195282,
            -0.2269299477338791,
            0.08089745044708252,
            0.03876536339521408,
            -0.17737069725990295,
            0.3230997622013092,
            -0.34048035740852356,
            0.22037838399410248,
            0.1496523767709732,
            0.17687085270881653,
            0.07406621426343918
        ],
        [
            0.03566623851656914,
            0.0027368164155632257,
            -0.12087656557559967,
            0.16505153477191925,
            -0.10698588937520981,
            -0.09446175396442413,
            -0.03807437792420387,
            0.1289864033460617,
            -0.014464194886386395,
            -0.12628334760665894,
            -0.14643985033035278,
            -0.05024892836809158,
            0.0673314556479454,
            -0.09807761013507843,
            0.09360990673303604,
            -0.00346357305534184,
            -0.7589552402496338
        ],
        [
            -0.04407207667827606,
            -0.19932033121585846,
            -0.2063799500465393,
            -0.09521205723285675,
            0.17770814895629883,
            -0.02686428278684616,
            -0.14603224396705627,
            0.17216821014881134,
            0.08992144465446472,
            -0.14172828197479248,
            0.08827867358922958,
            -0.0737769603729248,
            -0.0905778631567955,
            0.21968266367912292,
            0.10740622133016586,
            -0.04844038188457489,
            0.19482886791229248
        ],
        [
            0.1632593870162964,
            -0.2599160671234131,
            -0.17052467167377472,
            0.050845954567193985,
            0.016919733956456184,
            0.21165472269058228,
            -0.1555507928133011,
            0.3078354597091675,
            0.15304642915725708,
            -0.2674410343170166,
            0.08488472551107407,
            0.010295774787664413,
            -0.21887896955013275,
            0.032087575644254684,
            -0.23418347537517548,
            0.1168191209435463,
            0.04895680770277977
        ],
        [
            0.2684819996356964,
            -0.07709416002035141,
            -0.18953920900821686,
            -0.32544469833374023,
            0.35604947805404663,
            -0.4137820303440094,
            -0.13385838270187378,
            -0.5361601114273071,
            -0.10287921875715256,
            -0.5290223360061646,
            0.24307820200920105,
            -0.3454045057296753,
            0.08590403199195862,
            0.0835997611284256,
            -0.2826847732067108,
            -0.11804698407649994,
            -0.05503479391336441
        ],
        [
            0.08429250121116638,
            0.2146236002445221,
            0.20100221037864685,
            0.18974997103214264,
            0.06612011045217514,
            -0.45499223470687866,
            -0.03546125814318657,
            -0.5364363789558411,
            -0.10384291410446167,
            -0.19821137189865112,
            0.4294835925102234,
            -0.006290230434387922,
            -0.07203377783298492,
            -0.3509517014026642,
            -0.12327539920806885,
            -0.09796828031539917,
            -0.4377745985984802
        ],
        [
            0.039401132613420486,
            -0.3063800036907196,
            -0.06871955841779709,
            0.0438133180141449,
            -0.03130060434341431,
            0.03349554166197777,
            -0.12358810752630234,
            0.20842167735099792,
            -0.19035941362380981,
            0.2811987102031708,
            -0.24317686259746552,
            -0.012165461666882038,
            -0.10728839039802551,
            0.08785048127174377,
            -0.0987052321434021,
            -0.2032451629638672,
            -0.1998077780008316
        ],
        [
            0.21105781197547913,
            -0.1661706566810608,
            0.31599754095077515,
            -0.4914759695529938,
            0.08614528179168701,
            -0.22380147874355316,
            -0.10412620007991791,
            0.06675774604082108,
            -0.20195423066616058,
            0.22449879348278046,
            -0.07659314572811127,
            0.3299521803855896,
            0.07888240367174149,
            -0.3505342900753021,
            -0.02642630785703659,
            -0.1068665012717247,
            -0.2976689338684082
        ],
        [
            0.07315737009048462,
            0.08486774563789368,
            -0.1993299126625061,
            -0.25610578060150146,
            0.03499303385615349,
            -0.009562171995639801,
            -0.09567390382289886,
            -0.05016598477959633,
            0.013273605145514011,
            -0.016432464122772217,
            -0.11350613087415695,
            0.16223163902759552,
            -0.0038552510086447,
            -0.050642915070056915,
            -0.12056135386228561,
            -0.20900863409042358,
            -0.33308786153793335
        ],
        [
            0.009770083241164684,
            0.012492206878960133,
            -0.16528698801994324,
            -0.07216011732816696,
            0.1985609531402588,
            0.3481787145137787,
            -0.08144186437129974,
            0.3906538188457489,
            0.006084563676267862,
            0.11142133176326752,
            0.1953716278076172,
            -0.09076320379972458,
            -0.024559268727898598,
            0.4455840587615967,
            0.31152045726776123,
            -0.10031797736883163,
            -0.39172306656837463
        ],
        [
            0.08938096463680267,
            -0.05562325939536095,
            0.07066330313682556,
            -0.08896592259407043,
            0.05824621021747589,
            -0.29130831360816956,
            0.05503275245428085,
            0.07703784853219986,
            -0.06442032009363174,
            0.13409902155399323,
            -0.18930119276046753,
            -0.10344184935092926,
            0.12832219898700714,
            -0.10471919178962708,
            -0.0974087193608284,
            -0.12481679767370224,
            -0.43768101930618286
        ],
        [
            0.05362489074468613,
            0.625197172164917,
            0.29535606503486633,
            -0.5009322166442871,
            0.047164078801870346,
            -0.3021422326564789,
            -0.040078215301036835,
            -0.34544798731803894,
            -0.20818524062633514,
            0.04826836660504341,
            0.15709367394447327,
            0.2232389599084854,
            -0.2096957564353943,
            -0.20877665281295776,
            -0.05585744231939316,
            -0.022352537140250206,
            -0.11572691053152084
        ],
        [
            0.06416627764701843,
            -0.1439698040485382,
            -0.042615871876478195,
            0.3951926529407501,
            0.12659230828285217,
            -0.08415617793798447,
            0.02830653078854084,
            0.057109199464321136,
            -0.04008685424923897,
            -0.1805526614189148,
            0.07160714268684387,
            -0.24296744167804718,
            -0.05117001757025719,
            0.03337346017360687,
            -0.12642662227153778,
            -0.24882212281227112,
            -0.4247634708881378
        ],
        [
            0.0989503487944603,
            0.09774929285049438,
            0.04445146024227142,
            -0.16213354468345642,
            0.026436518877744675,
            0.13996726274490356,
            -0.04789029061794281,
            -0.03205574303865433,
            0.03227098286151886,
            -0.02483021281659603,
            0.017812972888350487,
            0.19830003380775452,
            0.040206968784332275,
            -0.09468522667884827,
            -0.01636800915002823,
            -0.01569751463830471,
            -0.5689519047737122
        ],
        [
            0.17778831720352173,
            0.017982255667448044,
            -0.09428410232067108,
            -0.6939323544502258,
            -0.26848453283309937,
            0.4287573993206024,
            -0.20682057738304138,
            0.3589668273925781,
            -0.27095356583595276,
            0.1400100141763687,
            0.1717446744441986,
            -0.00386053416877985,
            -0.08980287611484528,
            0.04920942708849907,
            -0.13214509189128876,
            -0.060895487666130066,
            -0.12443898618221283
        ],
        [
            0.07348664104938507,
            -0.022287964820861816,
            0.07743878662586212,
            0.2034517079591751,
            0.019267825409770012,
            0.04566020146012306,
            0.1068195253610611,
            0.18603183329105377,
            -0.12630464136600494,
            -0.08119741827249527,
            -0.0049436078406870365,
            -0.044717587530612946,
            0.09430763125419617,
            -0.09013160318136215,
            -0.15461993217468262,
            -0.1178242415189743,
            -0.4716537892818451
        ],
        [
            0.0270528681576252,
            -0.4260319173336029,
            -0.09637302160263062,
            0.9610921740531921,
            0.08014916628599167,
            -0.7907231450080872,
            -0.004758730065077543,
            -0.20438705384731293,
            0.04916131868958473,
            0.02374914661049843,
            -0.21596261858940125,
            -0.26165294647216797,
            0.004992433823645115,
            -0.18117308616638184,
            0.05368121713399887,
            -0.036072198301553726,
            -0.3116091191768646
        ],
        [
            -0.0032436985056847334,
            0.7505218982696533,
            0.1861400008201599,
            -1.248420000076294,
            0.016746079549193382,
            0.16730669140815735,
            -0.09234057366847992,
            0.21555285155773163,
            -0.1128537654876709,
            0.14568470418453217,
            -0.13764387369155884,
            0.5923227667808533,
            -0.057367611676454544,
            -0.15410885214805603,
            -0.0746547132730484,
            -0.03210140019655228,
            -0.02511679381132126
        ],
        [
            0.11918859928846359,
            0.021454816684126854,
            -0.00806080736219883,
            -0.22518743574619293,
            0.1556507647037506,
            0.10267472267150879,
            -0.07555461674928665,
            -0.10782357305288315,
            -0.14724837243556976,
            -0.04350128397345543,
            0.1816970854997635,
            -0.0467059463262558,
            -0.149573415517807,
            0.06876400858163834,
            0.27580586075782776,
            -0.05113392323255539,
            -0.06351199001073837
        ],
        [
            0.5387319326400757,
            -0.3655513525009155,
            -0.5168744921684265,
            0.03662070259451866,
            0.13880127668380737,
            -0.06499600410461426,
            -0.18270930647850037,
            0.39562585949897766,
            -0.04446188732981682,
            -0.3054727613925934,
            0.30311810970306396,
            -0.22076036036014557,
            -0.27906087040901184,
            0.18224292993545532,
            -0.32157304883003235,
            -0.28485342860221863,
            0.7746163606643677
        ],
        [
            0.19308026134967804,
            -0.11079105734825134,
            -0.27404266595840454,
            -0.7851232886314392,
            0.07914334535598755,
            0.5931094884872437,
            -0.22951099276542664,
            -0.12939304113388062,
            -0.03808839991688728,
            0.2088446319103241,
            0.1336357146501541,
            0.16471385955810547,
            0.07093077152967453,
            0.16221950948238373,
            0.2900640070438385,
            -0.11032425612211227,
            -0.14861364662647247
        ],
        [
            0.025562193244695663,
            -0.09098509699106216,
            0.04761885851621628,
            0.03307367488741875,
            -0.0657813772559166,
            -0.07002360373735428,
            0.15729640424251556,
            0.041451286524534225,
            0.08302941173315048,
            -0.13493892550468445,
            -0.03597863391041756,
            -0.009764564223587513,
            0.21709969639778137,
            -0.07186625897884369,
            -0.019248323515057564,
            -0.022743653506040573,
            -0.2542470395565033
        ],
        [
            -0.10172364115715027,
            0.07264730334281921,
            0.13720275461673737,
            0.0199635848402977,
            0.133741095662117,
            -0.01413698773831129,
            0.12066443264484406,
            0.045756179839372635,
            0.0703006312251091,
            0.01978033035993576,
            -0.05688657984137535,
            0.007081362884491682,
            -0.020407289266586304,
            0.030605465173721313,
            -0.07757247239351273,
            -0.046429429203271866,
            0.3535970449447632
        ],
        [
            -0.2136603593826294,
            -0.13433797657489777,
            -0.00013501894136425108,
            0.179385244846344,
            0.07987979054450989,
            0.0821499302983284,
            0.1585167795419693,
            0.15358121693134308,
            0.14994697272777557,
            0.23014356195926666,
            0.14264582097530365,
            -0.04638298600912094,
            -0.07666987180709839,
            0.13970719277858734,
            0.08372411876916885,
            0.0521383062005043,
            0.2808684706687927
        ],
        [
            -0.08179210871458054,
            -0.16644711792469025,
            -0.10699702799320221,
            0.1027187779545784,
            -0.05128541588783264,
            -0.001308609964326024,
            0.056949447840452194,
            0.10224670171737671,
            0.10057377815246582,
            0.10699483752250671,
            -0.38380807638168335,
            0.003926828969269991,
            0.06721966713666916,
            0.07990668714046478,
            0.1329837143421173,
            -0.06367110460996628,
            -0.47028589248657227
        ],
        [
            0.07053303718566895,
            -0.008254973217844963,
            0.11056248843669891,
            0.11149577796459198,
            0.012607577256858349,
            0.05362717807292938,
            -0.048538148403167725,
            0.10328014194965363,
            0.05946400761604309,
            -0.07969404011964798,
            0.1745196431875229,
            0.03155505657196045,
            0.011346548795700073,
            -0.10192324221134186,
            0.07279423624277115,
            0.17661967873573303,
            -0.3791837990283966
        ],
        [
            -0.06400690227746964,
            0.04399951547384262,
            0.06318888068199158,
            -0.01619282178580761,
            0.14728115499019623,
            -0.109349824488163,
            -0.15799538791179657,
            0.1079958975315094,
            0.029728546738624573,
            -0.17278718948364258,
            0.24793796241283417,
            -0.04506750404834747,
            -0.21724781394004822,
            -0.06875741481781006,
            -0.04175599664449692,
            0.09905672073364258,
            -0.12616269290447235
        ],
        [
            -0.04354548454284668,
            0.1394515484571457,
            -0.04433877393603325,
            0.2032068818807602,
            0.145612433552742,
            -0.021090345457196236,
            0.06525474786758423,
            0.10339967161417007,
            0.11099916696548462,
            0.0751747116446495,
            -0.01726110652089119,
            0.012995831668376923,
            -0.06298039853572845,
            0.0812513455748558,
            0.14713381230831146,
            0.11783921718597412,
            0.23141120374202728
        ],
        [
            0.07947178184986115,
            0.19091811776161194,
            0.1390695422887802,
            0.029535790905356407,
            -0.010499308817088604,
            0.012279261834919453,
            -0.1416565477848053,
            -0.06686264276504517,
            0.013453771360218525,
            0.0485529750585556,
            0.30884620547294617,
            0.07465261220932007,
            -0.185167133808136,
            0.08822999894618988,
            -0.01164239551872015,
            -0.02089710719883442,
            0.5130788683891296
        ],
        [
            -0.028223076835274696,
            0.14420808851718903,
            0.003670700592920184,
            -0.2272978127002716,
            0.0689191073179245,
            0.04436803609132767,
            -0.04041726142168045,
            0.058422669768333435,
            0.09018472582101822,
            -0.050896208733320236,
            -0.10827196389436722,
            0.10867786407470703,
            0.07204347848892212,
            -0.04089273884892464,
            -0.051101524382829666,
            -0.0676230937242508,
            0.20116889476776123
        ],
        [
            0.10048190504312515,
            -0.12352435290813446,
            -0.18280760943889618,
            -0.05812544375658035,
            -0.1540437787771225,
            0.04473692178726196,
            -0.10470101237297058,
            0.012066971510648727,
            0.04188184067606926,
            -0.19646388292312622,
            0.30952325463294983,
            -0.07685000449419022,
            0.017202744260430336,
            0.03227824717760086,
            -0.06259548664093018,
            0.05663487687706947,
            0.17895902693271637
        ],
        [
            -0.054915253072977066,
            0.05584577098488808,
            -0.04437500238418579,
            -0.08404488861560822,
            -0.02614743821322918,
            0.15496346354484558,
            0.04258710518479347,
            0.10592136532068253,
            0.0013208906166255474,
            0.02901863493025303,
            -0.0031599956564605236,
            0.05566003918647766,
            0.0012736115604639053,
            0.060919277369976044,
            0.06996556371450424,
            0.103632353246212,
            0.5798656344413757
        ],
        [
            -0.015663230791687965,
            -0.09459948539733887,
            -0.05632522702217102,
            -0.10933467000722885,
            0.08935093879699707,
            0.006082221399992704,
            0.06902283430099487,
            0.11565755307674408,
            -0.0364343598484993,
            -0.06763564050197601,
            0.06576260179281235,
            -0.0565989725291729,
            -0.012137986719608307,
            -0.10213389247655869,
            -0.24131780862808228,
            -0.13081280887126923,
            -0.5747153162956238
        ],
        [
            0.1214940994977951,
            -0.06221079081296921,
            -0.0431639663875103,
            0.10904736071825027,
            -0.032496046274900436,
            -0.030065512284636497,
            -0.03152507171034813,
            -0.08461558073759079,
            -0.08971305936574936,
            0.11254889518022537,
            -0.01440523937344551,
            0.018887748941779137,
            -0.014491399750113487,
            -0.03446025028824806,
            -0.02641950733959675,
            -0.044324398040771484,
            -0.02276565134525299
        ],
        [
            -0.03453480824828148,
            -0.09690773487091064,
            -0.038604989647865295,
            -0.13852828741073608,
            0.15079933404922485,
            0.09935446828603745,
            -0.12009965628385544,
            0.12046560645103455,
            0.13471485674381256,
            0.19333039224147797,
            0.031918514519929886,
            0.04924176260828972,
            0.0727422684431076,
            -0.010450278408825397,
            0.11989188194274902,
            0.14551690220832825,
            0.4129706025123596
        ],
        [
            0.06640016287565231,
            -0.022232776507735252,
            -0.07964950054883957,
            -0.08235914260149002,
            -0.09837521612644196,
            -0.04667327553033829,
            -0.09886641800403595,
            -0.17168445885181427,
            0.061096470803022385,
            -0.12181082367897034,
            -0.012368110939860344,
            -0.01462392695248127,
            -0.004248656332492828,
            -0.1257428228855133,
            -0.10335621237754822,
            -0.004060850944370031,
            0.4762413203716278
        ],
        [
            0.028695251792669296,
            0.011304073967039585,
            0.2262086719274521,
            0.057762645184993744,
            0.1877846121788025,
            -0.06760187447071075,
            0.14891812205314636,
            0.1204991266131401,
            -0.04036801680922508,
            0.11830867826938629,
            0.042979419231414795,
            0.16076435148715973,
            0.044902630150318146,
            0.10434040427207947,
            0.21133658289909363,
            -0.17767438292503357,
            -0.12296945601701736
        ],
        [
            0.14826609194278717,
            -0.18724890053272247,
            -0.05313396826386452,
            0.14302697777748108,
            0.19230026006698608,
            -0.2228928804397583,
            -0.1635819375514984,
            -0.07066500186920166,
            -0.16278234124183655,
            -0.06178692728281021,
            0.13414283096790314,
            -0.006317020859569311,
            -0.16040559113025665,
            -0.014820635318756104,
            -0.11057721078395844,
            -0.21407054364681244,
            -0.15977135300636292
        ],
        [
            -0.11710373312234879,
            -0.0011678502196446061,
            -0.2474271059036255,
            0.041848305612802505,
            0.014143568463623524,
            0.11833766102790833,
            0.039439160376787186,
            -0.037430539727211,
            -0.004238362889736891,
            -0.13543088734149933,
            0.22775721549987793,
            -0.0755772739648819,
            -0.11519182473421097,
            0.13614343106746674,
            -0.049481749534606934,
            -0.0009401263087056577,
            -0.3948938846588135
        ],
        [
            -0.16492676734924316,
            -0.08290451020002365,
            0.0754842609167099,
            -0.08527827262878418,
            -0.2581191658973694,
            -0.031653087586164474,
            0.04416663944721222,
            0.015400436706840992,
            0.11128472536802292,
            0.07626508921384811,
            0.08950275182723999,
            0.11267195641994476,
            0.10407325625419617,
            -0.09348805248737335,
            0.022643879055976868,
            0.26861372590065,
            0.4973274767398834
        ],
        [
            0.009333423338830471,
            0.05935869738459587,
            -0.15866753458976746,
            -0.14927372336387634,
            0.19104892015457153,
            -0.17474818229675293,
            0.14582261443138123,
            -0.26588156819343567,
            0.12522540986537933,
            -0.3121871054172516,
            0.022108471021056175,
            -0.03595906123518944,
            0.20616181194782257,
            -0.010132567025721073,
            -0.05076542869210243,
            -0.18733792006969452,
            0.4387282133102417
        ],
        [
            -0.10260845720767975,
            -0.09875454008579254,
            0.1572996824979782,
            -0.059731580317020416,
            0.10238219797611237,
            -0.17626048624515533,
            0.13891924917697906,
            0.17464669048786163,
            0.026417121291160583,
            0.029115019366145134,
            -0.026418207213282585,
            0.01113180723041296,
            -0.011904807761311531,
            -0.15866293013095856,
            -0.03407152369618416,
            -0.003238869132474065,
            0.41965532302856445
        ],
        [
            -0.08659449964761734,
            -0.13870638608932495,
            0.05339723080396652,
            -0.21955685317516327,
            -0.1961894929409027,
            0.011837138794362545,
            -0.054941821843385696,
            -0.0341503731906414,
            0.012322026304900646,
            0.20053862035274506,
            0.05712983384728432,
            0.05333225801587105,
            0.017404168844223022,
            -0.037080809473991394,
            0.058294810354709625,
            0.16320671141147614,
            0.3575270473957062
        ],
        [
            -0.1326410174369812,
            0.04404561221599579,
            0.11398525536060333,
            -0.01579093001782894,
            -0.1386745274066925,
            -0.14051532745361328,
            0.19724147021770477,
            -0.1304895579814911,
            -0.10398994386196136,
            0.015504701994359493,
            -0.032364003360271454,
            -0.0675307959318161,
            -0.03649451583623886,
            -0.05348291993141174,
            -0.014097867533564568,
            0.1435336023569107,
            0.3660413324832916
        ],
        [
            0.08549846708774567,
            -0.01251015905290842,
            0.07081487774848938,
            0.07053930312395096,
            -0.01584213227033615,
            0.07455357164144516,
            0.14374740421772003,
            0.13656283915042877,
            -0.04384315386414528,
            0.07114091515541077,
            -0.225578173995018,
            0.012950175441801548,
            0.24620290100574493,
            -0.0015083755133673549,
            0.07180509716272354,
            -0.15082959830760956,
            0.3392837941646576
        ],
        [
            -0.07744663953781128,
            -0.00955376960337162,
            -0.13127243518829346,
            -0.08278661966323853,
            -0.07743459939956665,
            0.06580524146556854,
            -0.07560741156339645,
            -0.042771466076374054,
            0.0012365957954898477,
            -0.02161547727882862,
            -0.06585590541362762,
            -0.08851107209920883,
            0.040648505091667175,
            0.1177879199385643,
            -0.05785918980836868,
            -0.10345546156167984,
            -0.5070346593856812
        ],
        [
            -0.14583036303520203,
            -0.009950748644769192,
            0.0760202556848526,
            0.15675973892211914,
            -0.15298053622245789,
            0.1121346727013588,
            0.04948911443352699,
            0.13971540331840515,
            0.02899707853794098,
            0.08563294261693954,
            0.016026215627789497,
            0.03043449856340885,
            0.11434649676084518,
            0.03207368776202202,
            -0.04549812525510788,
            0.02062060870230198,
            0.6522388458251953
        ],
        [
            -0.0511508509516716,
            -0.06633554399013519,
            0.021596763283014297,
            0.08644521981477737,
            -0.050622694194316864,
            -0.017886903136968613,
            -0.12711648643016815,
            0.10604043304920197,
            -0.014274314045906067,
            0.07530435174703598,
            0.026035120710730553,
            0.0259250458329916,
            -0.10696054995059967,
            -0.024358853697776794,
            -0.08500207960605621,
            0.09902553260326385,
            -0.4369622766971588
        ],
        [
            -0.11208910495042801,
            -0.11030339449644089,
            -0.0664898231625557,
            -0.047811660915613174,
            -0.17834250628948212,
            -0.11375310271978378,
            -0.13959519565105438,
            -0.09139697998762131,
            -0.07747688889503479,
            -0.12703721225261688,
            0.09646639227867126,
            -0.16465473175048828,
            0.06411168724298477,
            -0.08300454914569855,
            -0.16491840779781342,
            0.020354483276605606,
            -0.20952865481376648
        ],
        [
            0.15762905776500702,
            -0.11428868025541306,
            0.06666956096887589,
            0.10649044811725616,
            -0.019851544871926308,
            -0.04518783837556839,
            0.05689404159784317,
            -0.10646601021289825,
            0.016292961314320564,
            -0.09202861785888672,
            0.1220947802066803,
            0.05717973783612251,
            0.03989667817950249,
            0.029494406655430794,
            0.08120977133512497,
            -0.11973857134580612,
            -0.46417611837387085
        ],
        [
            0.04902518913149834,
            0.047929517924785614,
            -0.08595391362905502,
            0.03673933818936348,
            -0.012967241927981377,
            -0.10174264013767242,
            0.14129023253917694,
            0.052545588463544846,
            -0.09573344886302948,
            0.05889391899108887,
            0.11988677829504013,
            -0.05529186129570007,
            0.14186938107013702,
            -0.043030813336372375,
            -0.06753317266702652,
            -0.15384556353092194,
            -0.40318652987480164
        ],
        [
            -0.07216536998748779,
            -0.12196694314479828,
            -0.09694959223270416,
            0.028903668746352196,
            -0.08715612441301346,
            -0.08732487261295319,
            0.019503222778439522,
            0.03713757544755936,
            0.09428195655345917,
            -0.07911685109138489,
            0.07939863204956055,
            -0.03805079683661461,
            -0.06892184168100357,
            0.005424416624009609,
            -0.2201780080795288,
            -0.06766917556524277,
            0.5034834146499634
        ],
        [
            -0.04302305728197098,
            0.006071171723306179,
            0.0016346793854609132,
            -0.11539354175329208,
            -0.11384375393390656,
            -0.21845698356628418,
            0.1212281584739685,
            -0.21218806505203247,
            -0.08097179979085922,
            -0.03837713226675987,
            -0.025638319551944733,
            -0.020115695893764496,
            0.04154815152287483,
            -0.13121703267097473,
            -0.32535678148269653,
            0.05850614234805107,
            -0.5079129934310913
        ]
    ],
    "gru.weight_hh_l0": [
        [
            -0.1764998584985733,
            0.006510227452963591,
            -0.07213908433914185,
            0.14443045854568481,
            -0.1591176837682724,
            -0.410871684551239,
            -0.2547651529312134,
            -0.18831543624401093,
            0.045829273760318756,
            0.07358293235301971,
            -0.3585345149040222,
            0.22027190029621124,
            -0.43975886702537537,
            0.025699656456708908,
            -0.5952595472335815,
            -0.26818332076072693,
            -0.1593104600906372,
            0.21104608476161957,
            0.1317492425441742,
            -0.12735062837600708,
            0.5991023182868958,
            -0.40997061133384705,
            -0.1800728589296341,
            -0.3779885172843933,
            -0.025340242311358452,
            -0.18542973697185516,
            0.016624150797724724,
            0.11159709095954895,
            -0.3291114270687103,
            -0.11197484284639359,
            -0.34585484862327576,
            -0.13011609017848969
        ],
        [
            0.12058084458112717,
            0.03609804809093475,
            0.2558816075325012,
            0.0016567825805395842,
            0.06608039885759354,
            0.4183056056499481,
            0.04711532965302467,
            0.023512018844485283,
            -0.018072614446282387,
            0.20227187871932983,
            0.28689002990722656,
            0.002206999808549881,
            0.12885670363903046,
            0.0496886745095253,
            0.0647851750254631,
            0.3343917429447174,
            0.024925295263528824,
            -0.10581406950950623,
            0.17957374453544617,
            -0.1601570099592209,
            0.10032650828361511,
            0.19075778126716614,
            0.18863233923912048,
            -0.027915295213460922,
            0.3939899504184723,
            -0.13465169072151184,
            -0.12981536984443665,
            -0.12218337506055832,
            0.151824489235878,
            -0.16072165966033936,
            -0.16202731430530548,
            -0.14760015904903412
        ],
        [
            -0.2390909492969513,
            0.25265467166900635,
            0.3071826100349426,
            0.18310654163360596,
            -0.23556578159332275,
            0.22257380187511444,
            -0.10602010786533356,
            -0.3218189477920532,
            0.10150580108165741,
            0.12881536781787872,
            0.09666378051042557,
            -0.2098599076271057,
            -0.26139208674430847,
            0.19795678555965424,
            0.019776567816734314,
            -0.014434432610869408,
            -0.193397656083107,
            -0.39090779423713684,
            -0.042532872408628464,
            0.18973134458065033,
            0.0034630473237484694,
            -0.49963900446891785,
            0.12892012298107147,
            0.026217715814709663,
            -0.28501832485198975,
            0.26691707968711853,
            0.06257274001836777,
            -0.1372077465057373,
            -0.34701597690582275,
            -0.04064343497157097,
            0.376173734664917,
            -0.6373753547668457
        ],
        [
            0.0678056925535202,
            0.5058206915855408,
            0.015735916793346405,
            0.5976670384407043,
            -0.14132152497768402,
            -0.8473300933837891,
            -0.22424724698066711,
            -0.057860370725393295,
            -0.02978643961250782,
            -0.10404952615499496,
            0.4007090926170349,
            0.07850202918052673,
            -0.4638761281967163,
            0.09474551677703857,
            -0.42394527792930603,
            -0.22414284944534302,
            -0.32168814539909363,
            -0.3448699116706848,
            0.05043455585837364,
            0.4434162974357605,
            0.3766214847564697,
            -0.39544546604156494,
            -0.09813769161701202,
            0.4873703420162201,
            -0.6142305135726929,
            -0.029591379687190056,
            0.7075106501579285,
            0.033414870500564575,
            0.15536990761756897,
            0.6582670211791992,
            0.09572950750589371,
            -0.25159212946891785
        ],
        [
            -0.5395801067352295,
            0.07247166335582733,
            0.2176257073879242,
            0.035617973655462265,
            0.06159030646085739,
            0.5692504048347473,
            0.26478198170661926,
            0.32588905096054077,
            -0.20668330788612366,
            0.3154827952384949,
            0.16654808819293976,
            0.058129601180553436,
            0.28712746500968933,
            0.08230271935462952,
            0.12237919867038727,
            0.033434588462114334,
            0.14057523012161255,
            0.16867725551128387,
            0.18102778494358063,
            -0.3176748752593994,
            -0.16090738773345947,
            0.5565970540046692,
            0.32187575101852417,
            -0.5013282895088196,
            0.09784447401762009,
            0.056285660713911057,
            -0.26330119371414185,
            -0.24491272866725922,
            -0.1650218367576599,
            -0.4164017140865326,
            -0.21599633991718292,
            -0.06804803758859634
        ],
        [
            0.021035408601164818,
            0.0936240553855896,
            0.1749187409877777,
            -0.1124158576130867,
            -0.6732584238052368,
            -0.8280975818634033,
            0.16231776773929596,
            -0.04414815455675125,
            0.042390987277030945,
            0.4693988263607025,
            -0.23294833302497864,
            -0.08977809548377991,
            0.35477215051651,
            -0.2852223217487335,
            0.13525544106960297,
            0.7650085687637329,
            0.11347195506095886,
            0.19709911942481995,
            0.17331597208976746,
            0.29143044352531433,
            0.3329283893108368,
            -0.7981997728347778,
            0.09982798248529434,
            0.03367665782570839,
            -0.14178650081157684,
            -0.10134731978178024,
            -0.8547800779342651,
            -0.4340798854827881,
            0.3747028112411499,
            0.28819048404693604,
            0.1860472857952118,
            -0.36457210779190063
        ],
        [
            -0.15985411405563354,
            0.2129913717508316,
            -0.4755575954914093,
            0.21439474821090698,
            0.6871264576911926,
            0.7163243889808655,
            -0.33599090576171875,
            -0.4060240089893341,
            -0.3787176012992859,
            -0.6440420746803284,
            -0.7484992742538452,
            0.3187890946865082,
            -0.43202003836631775,
            -1.0018110275268555,
            -0.6929894089698792,
            -0.09531299024820328,
            0.22880412638187408,
            0.23418278992176056,
            -0.4470369815826416,
            -0.6503589749336243,
            -0.24443885684013367,
            -0.2903633117675781,
            -0.5910391211509705,
            -0.5084608793258667,
            -0.09446898102760315,
            -0.4212634861469269,
            0.7285622358322144,
            0.8325806260108948,
            0.6635674238204956,
            1.084119200706482,
            -0.24764157831668854,
            0.5527951121330261
        ],
        [
            -0.2519926130771637,
            0.07960769534111023,
            -0.04881704971194267,
            0.25060075521469116,
            -0.08884058892726898,
            -0.304290235042572,
            -0.12669755518436432,
            -0.5362756252288818,
            -0.23524373769760132,
            -0.3407624065876007,
            -0.18796750903129578,
            -0.21444669365882874,
            -0.2520911991596222,
            -0.045845434069633484,
            0.01489235833287239,
            -0.23189520835876465,
            0.02653208002448082,
            -0.12445218116044998,
            0.02613098919391632,
            0.017867399379611015,
            0.054312221705913544,
            0.1073525920510292,
            -0.04725288227200508,
            0.05940937623381615,
            -0.3060884475708008,
            -0.033387549221515656,
            0.07987143099308014,
            0.1446886956691742,
            -0.3762083053588867,
            -0.09019963443279266,
            0.20498067140579224,
            -0.08201372623443604
        ],
        [
            -0.11228813230991364,
            0.27460336685180664,
            0.37198811769485474,
            0.24350139498710632,
            -0.5619921684265137,
            0.3076016306877136,
            -0.4817497432231903,
            -0.4285731613636017,
            0.8244298696517944,
            0.5142908692359924,
            0.1996312439441681,
            0.2841596305370331,
            -0.6638931632041931,
            0.4030352532863617,
            0.26386740803718567,
            0.48900750279426575,
            -0.20477509498596191,
            -0.23795682191848755,
            0.12164124846458435,
            -0.007429552264511585,
            0.03084157593548298,
            -1.4494266510009766,
            0.14428234100341797,
            0.2897436320781708,
            -0.23522599041461945,
            -0.09501910209655762,
            0.03226228430867195,
            -0.06668243557214737,
            -0.020070696249604225,
            0.12370938062667847,
            0.6607676148414612,
            -0.41561955213546753
        ],
        [
            -0.755689263343811,
            -0.2452957183122635,
            -0.14879879355430603,
            -0.010112709365785122,
            0.11342077702283859,
            0.10266394913196564,
            0.009835445322096348,
            -0.3084668815135956,
            -0.06788784265518188,
            -0.20114433765411377,
            -0.15011173486709595,
            -0.24516336619853973,
            0.160074844956398,
            -0.04487752541899681,
            0.045805227011442184,
            -0.14032121002674103,
            -0.029201369732618332,
            0.423353910446167,
            -0.4326392710208893,
            -0.2278084009885788,
            0.009604223072528839,
            -0.42493268847465515,
            -0.09499810636043549,
            -0.025456929579377174,
            -0.11821777373552322,
            -0.10240873694419861,
            0.4092375338077545,
            -0.047885794192552567,
            -0.3504452705383301,
            -0.1577918380498886,
            0.49581119418144226,
            -0.17439845204353333
        ],
        [
            -0.16919182240962982,
            0.03665721043944359,
            0.038798738270998,
            0.33576032519340515,
            -0.2827136814594269,
            -0.2072688341140747,
            -0.09894896298646927,
            0.3405129909515381,
            0.029341518878936768,
            0.1117444559931755,
            0.3392777442932129,
            0.11038188636302948,
            -0.2283388376235962,
            0.16034944355487823,
            -0.3002510666847229,
            -0.050373926758766174,
            0.11001928895711899,
            -0.2710717022418976,
            0.2761402428150177,
            -0.07768367975950241,
            0.450960248708725,
            0.05791545286774635,
            0.33528944849967957,
            -0.21969184279441833,
            -0.41762158274650574,
            0.31860753893852234,
            -0.28065526485443115,
            0.022147605195641518,
            -0.5791985392570496,
            -0.16335666179656982,
            0.0016760139260441065,
            -0.2924562990665436
        ],
        [
            -0.12259974330663681,
            0.3351278007030487,
            0.33078867197036743,
            0.07622366398572922,
            0.4937107264995575,
            -0.5188217759132385,
            0.10087759047746658,
            -0.0941559225320816,
            -0.3606918156147003,
            -0.2741820812225342,
            0.6179754137992859,
            -0.0792192816734314,
            0.12091349810361862,
            -0.14114347100257874,
            0.5821778774261475,
            0.07494629919528961,
            -0.053306080400943756,
            -0.28433772921562195,
            0.24919812381267548,
            0.3429991900920868,
            -0.15725387632846832,
            0.03089117631316185,
            0.2014063447713852,
            0.28717368841171265,
            0.27630770206451416,
            -0.3097895383834839,
            0.47937509417533875,
            -0.11623986810445786,
            0.2642432749271393,
            0.1990726739168167,
            0.2276030033826828,
            0.3985897898674011
        ],
        [
            0.43885326385498047,
            -0.1917654275894165,
            -0.21902553737163544,
            -0.3020952343940735,
            0.2050967961549759,
            -0.6236575245857239,
            0.48996973037719727,
            0.10491626709699631,
            -0.38241562247276306,
            -0.13656167685985565,
            -0.35703185200691223,
            -0.15750637650489807,
            0.4485122263431549,
            -0.2291901707649231,
            -0.2787376642227173,
            1.0244117975234985,
            0.7904362678527832,
            0.9729546308517456,
            -1.3314849138259888,
            1.7661890983581543,
            0.5874439477920532,
            0.17478081583976746,
            -0.4958617687225342,
            1.0811681747436523,
            -0.3811640739440918,
            -0.6979467868804932,
            0.25871893763542175,
            0.18717478215694427,
            2.8484692573547363,
            0.38158857822418213,
            -0.07050403207540512,
            -0.02133999578654766
        ],
        [
            0.6096388697624207,
            0.11680972576141357,
            0.06863748282194138,
            0.08426365256309509,
            -0.18560202419757843,
            0.18760615587234497,
            -0.5808432102203369,
            0.059947285801172256,
            0.5058232545852661,
            0.04517664760351181,
            0.46633872389793396,
            0.04863563925027847,
            0.2865304946899414,
            -0.15630261600017548,
            0.41662663221359253,
            0.12308939546346664,
            -0.22749771177768707,
            -0.3388194739818573,
            0.12057789415121078,
            0.7153610587120056,
            0.217289000749588,
            0.45362141728401184,
            0.26203757524490356,
            0.20315608382225037,
            -0.23108704388141632,
            0.5552940368652344,
            -0.10772065073251724,
            -0.28151851892471313,
            -0.5234875679016113,
            0.11016101390123367,
            0.2918568253517151,
            -0.22869935631752014
        ],
        [
            -0.3913879990577698,
            0.09890750050544739,
            0.3356785178184509,
            0.3098422884941101,
            0.09554312378168106,
            -0.07814713567495346,
            -0.17142042517662048,
            -0.034602779895067215,
            -0.13581663370132446,
            0.24707771837711334,
            0.15409930050373077,
            0.2102719098329544,
            -0.5590198040008545,
            0.2227826863527298,
            -0.05952002853155136,
            0.013764818198978901,
            -0.026428204029798508,
            -0.021293869242072105,
            0.36894410848617554,
            -0.0043767592869699,
            0.453406423330307,
            0.0958501473069191,
            0.3254980444908142,
            -0.18918739259243011,
            0.03939633071422577,
            -0.35219690203666687,
            0.03976939618587494,
            0.12802211940288544,
            -0.5202658772468567,
            -0.10543125122785568,
            -0.16806571185588837,
            0.02667914517223835
        ],
        [
            0.8987253308296204,
            -0.14418773353099823,
            0.2878466844558716,
            0.13235250115394592,
            0.13996760547161102,
            -0.23526886105537415,
            0.5110054612159729,
            -0.4012306034564972,
            -0.06559525430202484,
            -0.49435755610466003,
            -0.5583144426345825,
            0.7716460824012756,
            -0.22523736953735352,
            0.09910067915916443,
            -0.35547351837158203,
            0.7196627259254456,
            -0.08953312784433365,
            -0.16930444538593292,
            -0.05119118466973305,
            -0.04121004417538643,
            -0.059365492314100266,
            0.338370144367218,
            -0.12483376264572144,
            -0.05295880138874054,
            0.7547760009765625,
            -0.5905762314796448,
            0.16570256650447845,
            -0.45403438806533813,
            0.33712661266326904,
            0.660574197769165,
            -0.02682439424097538,
            -0.12348881363868713
        ],
        [
            0.4188266396522522,
            -0.3187122344970703,
            -0.22381290793418884,
            -0.48437798023223877,
            -0.4076134264469147,
            -0.07515175640583038,
            -0.04085010662674904,
            0.9853706359863281,
            -0.22996409237384796,
            -0.004537517204880714,
            0.2908914089202881,
            -0.3841380774974823,
            1.1887359619140625,
            -0.018356507644057274,
            0.049643464386463165,
            0.3095934987068176,
            0.20886848866939545,
            0.1703631728887558,
            0.039487358182668686,
            0.10207797586917877,
            -0.2205047607421875,
            -0.3298835754394531,
            -0.11047887802124023,
            0.14433760941028595,
            -0.3998173475265503,
            0.15069347620010376,
            -0.18483862280845642,
            -0.08080265671014786,
            0.26925477385520935,
            -0.05301564559340477,
            -0.2610815167427063,
            0.04542184993624687
        ],
        [
            0.16182763874530792,
            -0.07424881309270859,
            0.2309059351682663,
            -0.017161931842565536,
            0.08317536115646362,
            -0.03850236162543297,
            -0.19531626999378204,
            0.09043214470148087,
            -0.05344795063138008,
            0.3636380136013031,
            -0.12028589099645615,
            -0.13346928358078003,
            -0.16050167381763458,
            0.11175256222486496,
            0.1246861070394516,
            0.21539804339408875,
            -0.13609766960144043,
            0.06533656269311905,
            0.0291795264929533,
            -0.01038363017141819,
            -0.028542587533593178,
            -0.054785408079624176,
            -0.05873214453458786,
            -0.012553133070468903,
            0.15116338431835175,
            -0.10390635579824448,
            -0.11392196267843246,
            -0.2531169652938843,
            -0.1324823647737503,
            -0.1971074342727661,
            0.06300467252731323,
            0.07586069405078888
        ],
        [
            -0.37404823303222656,
            0.20899873971939087,
            0.033852364867925644,
            -0.16059204936027527,
