{
    "conv.conv.weight": [
        [
            [
                -0.00834245141595602,
                -0.03958407789468765,
                -0.10756766051054001,
                -0.021219773218035698,
                0.07316874712705612,
                0.005530938506126404,
                0.012017326429486275,
                0.015797188505530357,
                -0.04499038681387901,
                0.030521057546138763,
                0.022012967616319656,
                3.0949544452596456e-05,
                -0.03600994497537613,
                -0.056040942668914795,
                0.008961673825979233,
                -0.006438338663429022,
                -0.028906164690852165,
                -0.036868758499622345,
                0.04692462086677551,
                -0.06642510741949081,
                -0.02391086518764496,
                0.05037752166390419,
                -0.016707630828022957,
                -0.04588828608393669,
                0.09452036768198013,
                0.046319395303726196,
                -0.15564998984336853,
                -0.12109744548797607,
                0.21311883628368378,
                0.10609427839517593,
                0.1928308606147766
            ]
        ],
        [
            [
                -0.004394499119371176,
                -0.0006484842742793262,
                -0.053723663091659546,
                -0.031705040484666824,
                0.06515859812498093,
                0.012289848178625107,
                0.018567951396107674,
                -0.028323587030172348,
                0.005752903409302235,
                -0.019321700558066368,
                0.05689358338713646,
                -0.0067298524081707,
                -0.04083263874053955,
                -0.07356097549200058,
                0.031112870201468468,
                -0.036337096244096756,
                -0.030297523364424706,
                -0.029432909563183784,
                0.026387831196188927,
                -0.06607603281736374,
                0.054915428161621094,
                0.025471627712249756,
                -0.03434442728757858,
                -0.03231241926550865,
                0.08181778341531754,
                -0.03423307090997696,
                -0.057708241045475006,
                -0.08747262507677078,
                -0.1312829852104187,
                -0.18706071376800537,
                -0.5518791675567627
            ]
        ],
        [
            [
                0.0068655493669211864,
                -0.01820698380470276,
                -0.052808523178100586,
                -0.03028591349720955,
                0.06694760173559189,
                -0.009622402489185333,
                0.015044769272208214,
                -0.006884291768074036,
                -0.024286769330501556,
                -0.03426748886704445,
                0.09893651306629181,
                -0.0329657644033432,
                -0.052724312990903854,
                -0.05419386550784111,
                0.012272504158318043,
                -0.07098887115716934,
                -0.019975803792476654,
                0.03137268126010895,
                -0.057075005024671555,
                -0.05074935033917427,
                0.10236673057079315,
                0.00992493238300085,
                -0.08454909920692444,
                0.06934735924005508,
                0.038322024047374725,
                -0.15173020958900452,
                -0.06736737489700317,
                -0.03027956746518612,
                0.14716388285160065,
                0.058256566524505615,
                0.47505614161491394
            ]
        ],
        [
            [
                -0.010648989118635654,
                -0.017060058191418648,
                -0.08449194580316544,
                -0.015964988619089127,
                0.08135833591222763,
                0.0037192325107753277,
                0.0199262835085392,
                -0.01904076151549816,
                0.018261967226862907,
                -0.00801536813378334,
                0.057788971811532974,
                0.0021781427785754204,
                -0.0521053709089756,
                -0.06800095736980438,
                0.01984057016670704,
                -0.06228303909301758,
                -0.025088470429182053,
                -0.0038565383292734623,
                0.05184056609869003,
                -0.11753056198358536,
                0.06735201179981232,
                0.03424930199980736,
                -0.040868598967790604,
                0.004163756966590881,
                0.050482988357543945,
                -0.1429634690284729,
                0.037604525685310364,
                0.13217969238758087,
                0.06864439696073532,
                0.026346301659941673,
                -0.32014304399490356
            ]
        ],
        [
            [
                -0.0018885055324062705,
                -0.0012579726753756404,
                -0.02134382724761963,
                -0.024152638390660286,
                0.038299791514873505,
                0.040874045342206955,
                0.00465033994987607,
                -0.015390741638839245,
                0.017564035952091217,
                -0.007660813629627228,
                0.035148248076438904,
                0.010699428617954254,
                -0.01840105652809143,
                -0.0677025243639946,
                -0.006905810441821814,
                0.013602231629192829,
                -0.04182620346546173,
                -0.0361231304705143,
                0.01491644885390997,
                -0.06922268122434616,
                0.042761292308568954,
                -0.007686831057071686,
                -0.033567048609256744,
                -0.06198544055223465,
                0.020617734640836716,
                0.07679907977581024,
                -0.08468839526176453,
                0.06815942376852036,
                -0.009135640226304531,
                0.056780438870191574,
                0.47550106048583984
            ]
        ],
        [
            [
                0.008780650794506073,
                0.005856124684214592,
                -0.08078636229038239,
                -0.006560756824910641,
                0.05565566197037697,
                -0.031825996935367584,
                0.022896990180015564,
                -0.07320304960012436,
                -0.01863035559654236,
                -0.0018628982361406088,
                0.045920539647340775,
                0.004023111891001463,
                -0.07571575790643692,
                -0.019005155190825462,
                -0.06418494135141373,
                -0.03382403030991554,
                -0.021914716809988022,
                -0.027312563732266426,
                0.006068220362067223,
                -0.009628859348595142,
                0.03897460177540779,
                0.006025297101587057,
                -0.07350840419530869,
                -0.06286399811506271,
                0.10062725841999054,
                0.15880602598190308,
                0.121677465736866,
                -0.013906207866966724,
                -0.02855745702981949,
                0.24775686860084534,
                -0.4488217830657959
            ]
        ],
        [
            [
                -0.05894074961543083,
                -0.012455448508262634,
                -0.05067303776741028,
                0.016458913683891296,
                0.0741514265537262,
                0.042202845215797424,
                0.014892496168613434,
                -0.05045151710510254,
                -0.03940504789352417,
                0.01585814170539379,
                0.07986054569482803,
                0.00887188222259283,
                0.0009065294871106744,
                -0.03304166719317436,
                0.01681974157691002,
                -0.027041850611567497,
                0.01461755484342575,
                -0.02325679548084736,
                -0.04682382941246033,
                -0.02024124749004841,
                0.0287452545017004,
                0.026251908391714096,
                0.045196954160928726,
                0.010224240832030773,
                -0.020448649302124977,
                -0.04193958640098572,
                0.04640635848045349,
                -0.01593651808798313,
                -0.043931666761636734,
                -0.02054823376238346,
                0.09288806468248367
            ]
        ],
        [
            [
                0.030239641666412354,
                -0.0037515386939048767,
                -0.052666936069726944,
                -0.0047979638911783695,
                0.057939011603593826,
                -0.015382824465632439,
                0.04408815875649452,
                -0.022702636197209358,
                0.05451275035738945,
                -0.029863011091947556,
                0.032523561269044876,
                0.017329039052128792,
                -0.07224667817354202,
                -0.05024835467338562,
                -0.01646355912089348,
                -0.05824660509824753,
                -0.019649162888526917,
                -0.02333465777337551,
                0.09662850201129913,
                -0.06591840833425522,
                0.08077508956193924,
                -0.03603930026292801,
                -0.04679081216454506,
                -0.05254754051566124,
                0.02643635682761669,
                0.0569133535027504,
                0.09564156830310822,
                -0.11911903321743011,
                0.17553861439228058,
                -0.41687822341918945,
                0.4823181927204132
            ]
        ],
        [
            [
                -0.06288411468267441,
                0.00595971429720521,
                -0.06434978544712067,
                0.03693443164229393,
                0.08458467572927475,
                0.02219623513519764,
                -0.01503096241503954,
                -0.06382621824741364,
                -0.035766445100307465,
                -0.015451187267899513,
                0.01705453358590603,
                0.07716367393732071,
                -0.0738929733633995,
                -0.029091866686940193,
                -0.011219955049455166,
                -0.026894548907876015,
                -0.009967928752303123,
                -0.014111491851508617,
                0.03346201404929161,
                -0.048111118376255035,
                -0.01830485835671425,
                -0.0020557334646582603,
                -0.10250352323055267,
                -0.016154425218701363,
                0.07116042822599411,
                -0.04245733097195625,
                -0.020362865179777145,
                -0.05498291924595833,
                0.11608710139989853,
                -0.2164144665002823,
                0.2906985878944397
            ]
        ],
        [
            [
                -0.02939894050359726,
                -0.0501173660159111,
                -0.05156229808926582,
                -0.011322267353534698,
                0.06377450376749039,
                -0.04331869259476662,
                0.05466122552752495,
                -0.10416306555271149,
                0.0017580633284524083,
                -0.018024999648332596,
                0.03460892289876938,
                -0.03835791349411011,
                -0.0475059449672699,
                -0.05705561861395836,
                -0.012992222793400288,
                -0.061906952410936356,
                -0.06702800840139389,
                -0.015844251960515976,
                0.06920552998781204,
                -0.03235863149166107,
                0.026998890563845634,
                0.07354258745908737,
                -0.06097608432173729,
                0.014334228821098804,
                0.0959196463227272,
                -0.07067707926034927,
                -0.0858333557844162,
                0.1175830140709877,
                -0.14971823990345,
                -0.08625472337007523,
                0.4374947249889374
            ]
        ],
        [
            [
                -0.004671918693929911,
                0.003993281163275242,
                -0.01853293925523758,
                0.008877796120941639,
                0.03276265412569046,
                0.008686341345310211,
                0.04714259132742882,
                -0.05390989035367966,
                0.01629740372300148,
                -0.05146168917417526,
                0.045973166823387146,
                0.0374726764857769,
                -0.07232293486595154,
                -0.022655019536614418,
                -0.020699840039014816,
                -0.031774453818798065,
                -0.0302644781768322,
                0.003260525409132242,
                0.022273089736700058,
                -0.03215724602341652,
                0.0919736847281456,
                -0.03850531205534935,
                -0.027050375938415527,
                0.019313229247927666,
                -0.019619541242718697,
                -0.12927228212356567,
                -0.10561507940292358,
                0.10231158137321472,
                0.053298477083444595,
                0.13663309812545776,
                -0.37521421909332275
            ]
        ],
        [
            [
                -0.01868268847465515,
                0.061450328677892685,
                -0.09143488854169846,
                0.009401864372193813,
                0.07884056121110916,
                0.02377648651599884,
                0.03063151054084301,
                -0.080267034471035,
                0.0254808459430933,
                -0.004098544362932444,
                0.012828166596591473,
                0.07523273676633835,
                -0.09054534137248993,
                -0.03720306232571602,
                0.025839893147349358,
                0.00027861548005603254,
                -0.009352541528642178,
                -0.08977217227220535,
                0.09357994049787521,
                -0.0811939537525177,
                0.03872710466384888,
                0.006895474623888731,
                -0.011171478778123856,
                -0.04612215235829353,
                0.09038741141557693,
                -0.0978066548705101,
                -0.01701388880610466,
                0.05906752496957779,
                -0.06069307029247284,
                0.2259570211172104,
                0.2577608525753021
            ]
        ],
        [
            [
                -0.007571738213300705,
                -0.09113401919603348,
                -0.006007813382893801,
                0.018867477774620056,
                0.0913563221693039,
                -0.015213157050311565,
                0.02835499309003353,
                -0.03224710375070572,
                0.035016018897295,
                -0.019748972728848457,
                0.00931644905358553,
                -0.024442246183753014,
                0.019266407936811447,
                -0.0727740228176117,
                0.00572200957685709,
                -0.021357454359531403,
                -0.06349549442529678,
                -0.006014343351125717,
                0.10380831360816956,
                -0.052915047854185104,
                -0.011873912066221237,
                0.018610505387187004,
                -0.07042142748832703,
                0.07129263877868652,
                -0.06861411780118942,
                0.026663130149245262,
                -0.028204916045069695,
                -0.09993856400251389,
                0.050994910299777985,
                0.2607647180557251,
                -0.2297760546207428
            ]
        ],
        [
            [
                -0.06610982120037079,
                0.05540347844362259,
                -0.011679968796670437,
                0.03450499847531319,
                0.07728760689496994,
                0.06835397332906723,
                -0.0071482048369944096,
                -0.11405970901250839,
                0.008696677163243294,
                -0.02119867503643036,
                0.04819447547197342,
                0.033982254564762115,
                -0.03313707560300827,
                -0.046523213386535645,
                0.02721407450735569,
                0.011845966801047325,
                -0.013464916497468948,
                -0.019511323422193527,
                0.02361970953643322,
                -0.03917406126856804,
                0.04104004427790642,
                -0.00992561038583517,
                -0.060084518045186996,
                0.006838853005319834,
                0.08680079877376556,
                -0.013362598605453968,
                -0.02264249324798584,
                0.0003543449565768242,
                0.17049244046211243,
                -0.021220006048679352,
                -0.07071950286626816
            ]
        ],
        [
            [
                0.0021480147261172533,
                0.0021583354100584984,
                -0.04499989002943039,
                -0.03346305713057518,
                0.05276360735297203,
                0.00860128365457058,
                -0.013888826593756676,
                -0.024400537833571434,
                0.019234992563724518,
                -0.03419860452413559,
                0.05413639172911644,
                0.032996922731399536,
                -0.06285522133111954,
                -0.07217259705066681,
                0.0015247712144628167,
                -0.04498197138309479,
                -0.052512843161821365,
                -0.016853801906108856,
                -0.006798981223255396,
                -0.08351098746061325,
                0.055466167628765106,
                0.02534681372344494,
                -0.0870446041226387,
                -0.05485481396317482,
                0.04828326776623726,
                -0.017897954210639,
                0.013143443502485752,
                -0.02528959885239601,
                -0.4806515574455261,
                0.142783984541893,
                0.11174453794956207
            ]
        ],
        [
            [
                -0.04081450402736664,
                0.0218655988574028,
                -0.061327215284109116,
                -0.017629968002438545,
                0.05060238018631935,
                0.0030230055563151836,
                0.0417369082570076,
                -0.06405521184206009,
                0.01411427278071642,
                0.0011652489192783833,
                0.07999137043952942,
                0.027029341086745262,
                -0.07129676640033722,
                -0.038363710045814514,
                0.02270430512726307,
                -0.1166611835360527,
                -0.004220840521156788,
                0.019992660731077194,
                0.07317526638507843,
                -0.07545898109674454,
                0.11668719351291656,
                0.07707545161247253,
                0.0797291100025177,
                -0.04837564006447792,
                0.09450849890708923,
                -0.07326943427324295,
                -0.040274105966091156,
                -0.21117784082889557,
                0.0016481642378494143,
                0.09025468677282333,
                0.01445865910500288
            ]
        ]
    ],
    "conv.conv.bias": [
        -0.542598307132721,
        0.19291432201862335,
        0.25764545798301697,
        -0.043272558599710464,
        0.9145653247833252,
        0.2911422848701477,
        -0.1596858650445938,
        -0.47077658772468567,
        0.24723629653453827,
        -0.08249054849147797,
        -0.3110344409942627,
        0.25474637746810913,
        0.3580908179283142,
        -0.406387597322464,
        -0.7360281348228455,
        0.269816517829895
    ],
    "norm.weight": [
        0.48490723967552185,
        0.8086612820625305,
        0.6392718553543091,
        0.5788083076477051,
        0.6212355494499207,
        0.5011324882507324,
        0.4049004018306732,
        0.4739327132701874,
        0.6840840578079224,
        0.4456065595149994,
        0.5273858904838562,
        0.6707718968391418,
        0.4926903545856476,
        0.49958357214927673,
        0.5798762440681458,
        0.4442962408065796
    ],
    "norm.bias": [
        0.46720224618911743,
        -0.1417718529701233,
        -0.21195144951343536,
        0.04945531487464905,
        -0.17809665203094482,
        -0.2900148034095764,
        0.14358682930469513,
        0.45344269275665283,
        -0.2513710856437683,
        0.08825764805078506,
        0.29799285531044006,
        -0.19973474740982056,
        -0.3321714401245117,
        0.40475085377693176,
        0.3286145329475403,
        -0.24600256979465485
    ],
    "knob_to_h0.0.weight": [
        [
            0.48831140995025635
        ],
        [
            0.13405321538448334
        ],
        [
            0.37004202604293823
        ],
        [
            -0.22705549001693726
        ],
        [
            -0.07620751112699509
        ],
        [
            0.541953980922699
        ],
        [
            -0.08019012212753296
        ],
        [
            -0.5166125297546387
        ],
        [
            -0.23948317766189575
        ],
        [
            -0.8516190648078918
        ],
        [
            -0.5893226265907288
        ],
        [
            -0.24416077136993408
        ],
        [
            -0.3476055860519409
        ],
        [
            -0.430355966091156
        ],
        [
            -0.5880505442619324
        ],
        [
            0.16843435168266296
        ],
        [
            -0.8360378742218018
        ],
        [
            -0.37543097138404846
        ],
        [
            0.7036712169647217
        ],
        [
            1.03171706199646
        ],
        [
            1.0780795812606812
        ],
        [
            0.22360293567180634
        ],
        [
            0.08050577342510223
        ],
        [
            0.551686704158783
        ],
        [
            0.19874826073646545
        ],
        [
            -0.003724363399669528
        ],
        [
            0.3707823157310486
        ],
        [
            -0.6120120286941528
        ],
        [
            0.20019493997097015
        ],
        [
            -0.033788010478019714
        ],
        [
            -0.023724980652332306
        ],
        [
            -0.6275502443313599
        ],
        [
            0.4959494173526764
        ],
        [
            -0.05569781735539436
        ],
        [
            0.23311063647270203
        ],
        [
            0.5094909071922302
        ],
        [
            0.3054419755935669
        ],
        [
            0.260059118270874
        ],
        [
            0.003451191820204258
        ],
        [
            -0.10263070464134216
        ],
        [
            0.05069036781787872
        ],
        [
            0.4239126443862915
        ],
        [
            0.4220867156982422
        ],
        [
            0.7532831430435181
        ],
        [
            -0.2942146360874176
        ],
        [
            0.11376778781414032
        ],
        [
            -0.7970597147941589
        ],
        [
            -0.22357989847660065
        ],
        [
            -0.31940898299217224
        ],
        [
            0.5569772720336914
        ],
        [
            -0.4990262985229492
        ],
        [
            0.006361618638038635
        ],
        [
            0.7752068638801575
        ],
        [
            0.906089186668396
        ],
        [
            -0.37658512592315674
        ],
        [
            -0.16669361293315887
        ],
        [
            -0.7469496726989746
        ],
        [
            0.1528419703245163
        ],
        [
            0.038073234260082245
        ],
        [
            1.00963294506073
        ],
        [
            -0.41804763674736023
        ],
        [
            -0.8146892786026001
        ],
        [
            0.8695819973945618
        ],
        [
            0.05533616989850998
        ],
        [
            1.249605655670166
        ],
        [
            -0.21446333825588226
        ],
        [
            0.914010763168335
        ],
        [
            0.4564294219017029
        ],
        [
            -0.7620896100997925
        ],
        [
            -0.4477091133594513
        ],
        [
            0.5419201850891113
        ],
        [
            -0.193726047873497
        ],
        [
            0.6981322169303894
        ],
        [
            -0.8134214878082275
        ],
        [
            0.06643983721733093
        ],
        [
            0.9099736213684082
        ],
        [
            0.8245036602020264
        ],
        [
            0.6932521462440491
        ],
        [
            0.14407068490982056
        ],
        [
            0.6232596635818481
        ],
        [
            -0.24278223514556885
        ],
        [
            0.5824150443077087
        ],
        [
            0.47765281796455383
        ],
        [
            0.25046804547309875
        ],
        [
            -0.7195897698402405
        ],
        [
            -0.5032696723937988
        ],
        [
            0.3492354452610016
        ],
        [
            -0.6022048592567444
        ],
        [
            1.1838124990463257
        ],
        [
            0.5459381341934204
        ],
        [
            1.012501835823059
        ],
        [
            -0.5811578631401062
        ],
        [
            0.56951904296875
        ],
        [
            1.0885388851165771
        ],
        [
            0.8850470185279846
        ],
        [
            -0.824936032295227
        ],
        [
            -0.05278755724430084
        ],
        [
            -0.17739315330982208
        ],
        [
            -0.9407051205635071
        ],
        [
            -0.979982852935791
        ],
        [
            0.7547376751899719
        ],
        [
            0.03793076053261757
        ],
        [
            -0.34527239203453064
        ],
        [
            0.8756142258644104
        ],
        [
            0.003210723167285323
        ],
        [
            -0.5183151960372925
        ],
        [
            0.25401851534843445
        ],
        [
            0.6166257858276367
        ],
        [
            0.9434400796890259
        ],
        [
            -0.33086061477661133
        ],
        [
            -0.650753915309906
        ],
        [
            0.062158744782209396
        ],
        [
            -0.48566749691963196
        ],
        [
            -0.44939926266670227
        ],
        [
            -0.4396488070487976
        ],
        [
            -0.3132728338241577
        ],
        [
            0.12296897917985916
        ],
        [
            0.9071906208992004
        ],
        [
            0.3288043439388275
        ],
        [
            -0.4740336537361145
        ],
        [
            0.2065415233373642
        ],
        [
            -0.7700850963592529
        ],
        [
            0.16104090213775635
        ],
        [
            -0.6466765403747559
        ],
        [
            0.8412879705429077
        ],
        [
            -1.0225170850753784
        ],
        [
            -0.17495912313461304
        ],
        [
            -0.35833248496055603
        ]
    ],
    "knob_to_h0.0.bias": [
        0.3899957239627838,
        -0.3980438709259033,
        -0.14927121996879578,
        -0.6637043952941895,
        0.4959161877632141,
        -0.26564010977745056,
        0.8295636177062988,
        0.5019291043281555,
        -0.4019795358181,
        0.46278437972068787,
        -0.13750648498535156,
        0.9158176183700562,
        0.5279362797737122,
        0.34301644563674927,
        -0.7610673308372498,
        0.6262955069541931,
        -0.9304563403129578,
        -1.1838549375534058,
        -0.14469923079013824,
        0.3224852681159973,
        0.018763678148388863,
        0.27740469574928284,
        -0.07577810436487198,
        -0.659253716468811,
        -0.5970605611801147,
        -0.4543911814689636,
        -0.8608927726745605,
        -0.8146237730979919,
        -0.8059710264205933,
        0.5374331474304199,
        -0.38453248143196106,
        -0.27598875761032104,
        -0.6919606924057007,
        -0.7405543923377991,
        -0.11629549413919449,
        -0.12345478683710098,
        -0.07845225930213928,
        -0.9990794658660889,
        0.22575417160987854,
        0.12997470796108246,
        0.36092665791511536,
        0.38192376494407654,
        -0.9523333311080933,
        -0.782611072063446,
        -0.8268356323242188,
        0.13729064166545868,
        -0.5877440571784973,
        0.35953184962272644,
        1.1794440746307373,
        -0.07389853894710541,
        -0.5888672471046448,
        0.5671342611312866,
        0.5412446856498718,
        -1.11042058467865,
        -0.037515778094530106,
        0.4782157838344574,
        -0.40987828373908997,
        0.8172659277915955,
        -0.9111644625663757,
        0.29726463556289673,
        0.21697187423706055,
        -0.10101979970932007,
        -0.12077435106039047,
        -0.17461253702640533,
        -0.48506879806518555,
        0.6734467148780823,
        -0.3221290409564972,
        -0.5874481797218323,
        0.04680810123682022,
        -0.2283874899148941,
        0.24897907674312592,
        -0.10969408601522446,
        0.4360853433609009,
        0.7809040546417236,
        0.9202404022216797,
        0.7052069902420044,
        0.6918305158615112,
        0.25346699357032776,
        1.1269004344940186,
        -0.5856575965881348,
        0.44511011242866516,
        -1.094894528388977,
        -1.0712677240371704,
        0.37299686670303345,
        -0.2296072542667389,
        0.4052734673023224,
        -0.8970951437950134,
        -0.6556873321533203,
        0.4303947687149048,
        0.5197307467460632,
        0.27397871017456055,
        0.5231452584266663,
        -0.4187137186527252,
        -0.31032097339630127,
        0.155997171998024,
        0.29878267645835876,
        0.49809741973876953,
        -0.15939658880233765,
        0.17670607566833496,
        -0.8231490254402161,
        -0.4365536868572235,
        0.6607046723365784,
        1.0122300386428833,
        0.7302326560020447,
        0.38236260414123535,
        0.6163379549980164,
        -0.7759323716163635,
        0.19598934054374695,
        0.7628613710403442,
        0.07204170525074005,
        -0.7177272439002991,
        -0.002505222335457802,
        -1.0326324701309204,
        -0.08411582559347153,
        0.13516558706760406,
        1.0454434156417847,
        -0.30063220858573914,
        -0.6528834700584412,
        0.9547790288925171,
        -0.6994267702102661,
        -0.4815634787082672,
        -0.8251780867576599,
        0.05780358612537384,
        0.8221623301506042,
        0.8743549585342407,
        0.09396059811115265,
        0.6980065703392029,
        0.17006173729896545
    ],
    "gru.weight_ih_l0": [
        [
            0.6191474199295044,
            -0.24582071602344513,
            -0.06611639261245728,
            -0.18359336256980896,
            -0.17370444536209106,
            0.4079398512840271,
            -0.9448951482772827,
            -0.278797447681427,
            -0.2493249922990799,
            -0.21147722005844116,
            0.34541967511177063,
            -0.11485605686903,
            -0.10351280122995377,
            0.21377354860305786,
            0.20977959036827087,
            0.23599766194820404,
            0.13116003572940826
        ],
        [
            0.19264966249465942,
            -0.04596884921193123,
            -0.18485009670257568,
            -0.19889657199382782,
            -0.16776980459690094,
            -0.34215691685676575,
            0.1470334380865097,
            0.4275408089160919,
            -0.0437186062335968,
            0.001964176306501031,
            -0.07459372282028198,
            -0.2241308093070984,
            -0.40963214635849,
            0.07917969673871994,
            0.10385378450155258,
            -0.12868480384349823,
            -0.0318417064845562
        ],
        [
            0.3146439492702484,
            -0.5810319781303406,
            0.10754094272851944,
            -0.24775472283363342,
            -0.20457223057746887,
            0.01668156124651432,
            0.17259114980697632,
            0.4446012079715729,
            -0.22178000211715698,
            -0.02722555212676525,
            -0.20967550575733185,
            -0.0776776447892189,
            0.005485925357788801,
            0.16350729763507843,
            0.17724287509918213,
            -0.09623515605926514,
            -0.022869903594255447
        ],
        [
            0.22039613127708435,
            -0.12272102385759354,
            -0.10369972139596939,
            -0.06415615230798721,
            -0.26014459133148193,
            -0.1730019450187683,
            -0.074361152946949,
            -0.02168515883386135,
            -0.13229651749134064,
            -0.0910724326968193,
            0.03370428830385208,
            -0.1932612806558609,
            -0.24396972358226776,
            0.15176215767860413,
            0.21971233189105988,
            0.09114176034927368,
            -0.4926859438419342
        ],
        [
            0.09622890502214432,
            -0.1726309210062027,
            -0.15527568757534027,
            -0.31852322816848755,
            -0.16238346695899963,
            0.01290139276534319,
            0.3183613419532776,
            0.10379433631896973,
            -0.060469161719083786,
            0.43199214339256287,
            0.11661387979984283,
            -0.15675805509090424,
            -0.19448240101337433,
            0.22527217864990234,
            0.004256878979504108,
            -0.714847207069397,
            -0.18209601938724518
        ],
        [
            0.1252347230911255,
            -0.0727231353521347,
            -0.27794790267944336,
            0.16131272912025452,
            -0.26227113604545593,
            0.1237032413482666,
            0.06040297821164131,
            -0.040970586240291595,
            -0.24408937990665436,
            -0.2074042707681656,
            0.1920391023159027,
            -0.09906602650880814,
            0.017755890265107155,
            0.2247324138879776,
            3.1817009585211053e-05,
            0.19478002190589905,
            -0.27011197805404663
        ],
        [
            -0.2889512777328491,
            0.13438591361045837,
            0.1590583324432373,
            0.02019650861620903,
            0.06383828818798065,
            -0.34429243206977844,
            0.459772527217865,
            0.40483358502388,
            0.36474868655204773,
            0.012272554449737072,
            -0.11164046078920364,
            -0.07325554639101028,
            -0.08397340774536133,
            -0.028335561975836754,
            -0.18450073897838593,
            -0.47469979524612427,
            0.2682885229587555
        ],
        [
            -0.20953506231307983,
            0.0023344724904745817,
            0.07094578444957733,
            -0.1403859406709671,
            -0.08902804553508759,
            -0.31776267290115356,
            0.44629785418510437,
            -0.023379839956760406,
            0.08534203469753265,
            0.24366812407970428,
            0.019848529249429703,
            -0.05635226145386696,
            -0.11153297871351242,
            -0.19949111342430115,
            0.1854064017534256,
            -0.18596750497817993,
            0.07252313196659088
        ],
        [
            0.05556691437959671,
            0.16591095924377441,
            -0.7203988432884216,
            0.8304554224014282,
            -0.6495388150215149,
            -0.029605047777295113,
            0.2164924591779709,
            -0.033940043300390244,
            -0.47330242395401,
            -0.21886762976646423,
            0.8236760497093201,
            -0.43506762385368347,
            -0.08621598780155182,
            0.23852398991584778,
            0.3535991609096527,
            -0.47130417823791504,
            -0.3238028883934021
        ],
        [
            0.09065717458724976,
            -0.10055294632911682,
            0.06821195036172867,
            -0.10162366181612015,
            -0.009244044311344624,
            -0.17746460437774658,
            -0.004691689275205135,
            -0.029818594455718994,
            -0.0694241002202034,
            0.1284896582365036,
            -0.028030037879943848,
            -0.031678419560194016,
            0.023910220712423325,
            -0.033339232206344604,
            0.120435431599617,
            0.02145479992032051,
            -0.09483081102371216
        ],
        [
            0.18200044333934784,
            -0.055992405861616135,
            -0.06619065999984741,
            0.23447975516319275,
            -0.2633022367954254,
            -0.10841266810894012,
            -0.06749028712511063,
            0.17308956384658813,
            -0.23980166018009186,
            -0.1689259111881256,
            0.11974631994962692,
            0.022280899807810783,
            -0.1128985583782196,
            0.2444085329771042,
            0.010416979901492596,
            -0.3090924918651581,
            -0.3919540047645569
        ],
        [
            0.3117043077945709,
            -0.32006821036338806,
            -0.01977791264653206,
            -0.2946588695049286,
            -0.05925159156322479,
            -0.07781240344047546,
            0.4832303524017334,
            -0.1796688735485077,
            -0.3631644546985626,
            -0.047389592975378036,
            0.17160284519195557,
            -0.0973905473947525,
            0.08714792132377625,
            0.06855781376361847,
            0.3420197367668152,
            -0.03045467473566532,
            -0.40150320529937744
        ],
        [
            0.16827623546123505,
            -0.13324670493602753,
            -0.10088415443897247,
            -0.2807392179965973,
            -0.1427629441022873,
            0.009196189232170582,
            -0.23881091177463531,
            -0.10103616118431091,
            0.0245523564517498,
            0.07418914884328842,
            -0.07307349890470505,
            -0.02499493770301342,
            0.013109836727380753,
            0.0011112329084426165,
            0.1648128479719162,
            -0.004052275791764259,
            0.031125348061323166
        ],
        [
            0.1708587408065796,
            -0.12326496094465256,
            -0.183522567152977,
            -0.19934266805648804,
            -0.12582501769065857,
            -0.5011110305786133,
            0.24642130732536316,
            0.41596245765686035,
            0.02671300806105137,
            0.14115272462368011,
            0.00518900528550148,
            -0.1299157440662384,
            -0.23165032267570496,
            0.06254897266626358,
            0.19784653186798096,
            0.1246076375246048,
            0.13905596733093262
        ],
        [
            0.2493566870689392,
            0.2483358532190323,
            -0.8564913868904114,
            0.3164287507534027,
            -0.413802832365036,
            1.0183840990066528,
            0.012435133568942547,
            0.11650922894477844,
            -0.3159387707710266,
            -0.8543379306793213,
            0.5317647457122803,
            -0.6498266458511353,
            0.32134467363357544,
            0.24837878346443176,
            0.03631308674812317,
            -0.3466225266456604,
            -0.06958813965320587
        ],
        [
            0.21216237545013428,
            -0.15319865942001343,
            -0.13346430659294128,
            0.07378032058477402,
            -0.31075337529182434,
            -0.09211590886116028,
            -0.010443150997161865,
            0.10514649003744125,
            -0.11863823980093002,
            -0.0037991157732903957,
            0.14940640330314636,
            -0.24268974363803864,
            -0.18102477490901947,
            0.1596311628818512,
            0.2088548094034195,
            0.006296711508184671,
            0.11317158490419388
        ],
        [
            0.2767286002635956,
            -0.2666699290275574,
            -0.4856095016002655,
            0.0931992456316948,
            -0.4735795557498932,
            -0.27805525064468384,
            -0.09131620824337006,
            0.12444625049829483,
            -0.33414021134376526,
            -0.18465358018875122,
            0.42803847789764404,
            -0.40793076157569885,
            -0.11685505509376526,
            0.2535902261734009,
            0.41235601902008057,
            0.21838203072547913,
            -0.3122532069683075
        ],
        [
            -0.21274837851524353,
            -0.08182401955127716,
            0.023933572694659233,
            -0.2614935636520386,
            0.18445046246051788,
            -0.2686532437801361,
            -0.1476835012435913,
            -0.35530683398246765,
            0.05650236830115318,
            0.18707579374313354,
            -0.17970740795135498,
            0.3955968916416168,
            -0.026369085535407066,
            -0.19970691204071045,
            -0.07756908982992172,
            0.06077736243605614,
            -0.2132955938577652
        ],
        [
            0.5219706296920776,
            -0.3847253620624542,
            -0.17234459519386292,
            -0.1535913199186325,
            -0.2976163923740387,
            -0.12038382142782211,
            0.00145639234688133,
            0.29562053084373474,
            -0.27165281772613525,
            -0.09368427097797394,
            0.13255509734153748,
            -0.272304892539978,
            -0.15755824744701385,
            0.497711181640625,
            0.3082157075405121,
            0.1369040459394455,
            -0.17290334403514862
        ],
        [
            0.40850335359573364,
            -0.2694754898548126,
            -0.34865379333496094,
            0.042626336216926575,
            -0.2938826382160187,
            -0.2123255729675293,
            0.14955630898475647,
            0.22462691366672516,
            -0.28295525908470154,
            -0.005231709219515324,
            0.32250869274139404,
            -0.4117397665977478,
            -0.2467019110918045,
            0.26405179500579834,
            0.40135109424591064,
            0.028257712721824646,
            -0.2718362510204315
        ],
        [
            0.22906151413917542,
            -0.41503697633743286,
            -0.04673203453421593,
            -0.23141543567180634,
            -0.11447323113679886,
            -0.4870043396949768,
            -0.1672920435667038,
            0.3627461791038513,
            -0.05561228096485138,
            0.2849959135055542,
            -0.07642325013875961,
            -0.19071273505687714,
            -0.3238067030906677,
            0.29582861065864563,
            0.19071482121944427,
            0.20149312913417816,
            -0.04387128725647926
        ],
        [
            0.21104127168655396,
            -0.23394648730754852,
            -0.23562473058700562,
            0.13406774401664734,
            -0.21448126435279846,
            -0.2773474454879761,
            0.16662104427814484,
            0.09571369737386703,
            -0.31960222125053406,
            0.20473478734493256,
            0.16547589004039764,
            -0.20339588820934296,
            -0.3608485162258148,
            0.21289202570915222,
            0.24336735904216766,
            0.16512110829353333,
            -0.10679702460765839
        ],
        [
            0.10278085619211197,
            -0.05302441865205765,
            -0.6051205992698669,
            0.17531657218933105,
            -0.33563101291656494,
            0.2509607672691345,
            0.2521277368068695,
            -0.2312149703502655,
            -0.3891669511795044,
            -0.20142504572868347,
            0.5975227355957031,
            -0.6235201358795166,
            -0.033797189593315125,
            0.17767204344272614,
            0.4758676588535309,
            0.08328672498464584,
            -0.42650580406188965
        ],
        [
            -0.293232262134552,
            0.5590907335281372,
            -0.27973082661628723,
            0.5771034359931946,
            -0.05518070235848427,
            0.34808167815208435,
            -0.23360271751880646,
            -0.7593267560005188,
            -0.05410865694284439,
            -0.5385949015617371,
            0.4037606120109558,
            -0.16991159319877625,
            0.2010326236486435,
            0.027236759662628174,
            0.06788712739944458,
            0.4008970260620117,
            0.22380977869033813
        ],
        [
            0.5654829144477844,
            -0.46690869331359863,
            -0.024280399084091187,
            -0.9093794226646423,
            -0.4630843698978424,
            -1.1968889236450195,
            0.41385719180107117,
            1.074681282043457,
            -0.1837848573923111,
            0.8724366426467896,
            -0.33366894721984863,
            -0.2654334008693695,
            -0.760921835899353,
            0.027752308174967766,
            0.8482083082199097,
            -0.22797909379005432,
            -0.07239688187837601
        ],
        [
            0.2422708123922348,
            -0.18142841756343842,
            -0.26282331347465515,
            0.02170352265238762,
            -0.30476245284080505,
            -0.27390044927597046,
            -0.12397222965955734,
            0.1893739551305771,
            -0.23990494012832642,
            0.17553317546844482,
            0.23753924667835236,
            -0.2581256031990051,
            -0.05614669620990753,
            0.19456243515014648,
            0.17305824160575867,
            -0.07630020380020142,
            -0.3372400999069214
        ],
        [
            0.20947445929050446,
            -0.2682134211063385,
            0.011371361091732979,
            -0.03267742693424225,
            -0.07564204186201096,
            -0.23544687032699585,
            -0.010699288919568062,
            0.07772321254014969,
            -0.2293904721736908,
            0.19437529146671295,
            -0.0450303889811039,
            0.04078568145632744,
            -0.16641125082969666,
            0.14638245105743408,
            0.15475673973560333,
            -0.08004654198884964,
            -0.4828082025051117
        ],
        [
            -0.03283395618200302,
            -0.37716469168663025,
            0.05213477835059166,
            0.26767438650131226,
            -0.11129472404718399,
            0.38997894525527954,
            0.06112285330891609,
            -0.37892502546310425,
            -0.26600852608680725,
            -0.09543094038963318,
            0.12399881333112717,
            -0.07874871790409088,
            -0.07825358211994171,
            -0.05991477891802788,
            0.273779034614563,
            0.05686820298433304,
            0.03391139209270477
        ],
        [
            0.07370270043611526,
            -0.41687196493148804,
            -0.0358627624809742,
            -0.16261865198612213,
            -0.07125464081764221,
            -0.24344874918460846,
            0.24865639209747314,
            0.30157291889190674,
            -0.06709951907396317,
            0.42252635955810547,
            -0.2585095763206482,
            -0.07295040786266327,
            -0.31427353620529175,
            -0.06954212486743927,
            0.18022140860557556,
            -0.34866422414779663,
            -0.16168813407421112
        ],
        [
            0.32680487632751465,
            -0.43155378103256226,
            -0.039443518966436386,
            0.026952827349305153,
            -0.27100080251693726,
            -0.0937848836183548,
            -0.02285510115325451,
            0.06295464932918549,
            -0.22543418407440186,
            0.09350458532571793,
            0.12298769503831863,
            -0.07113683968782425,
            -0.0715445876121521,
            0.3313700258731842,
            0.3000476062297821,
            -0.10296793282032013,
            -0.47797146439552307
        ],
        [
            0.21879689395427704,
            -0.12373186647891998,
            -0.019970694556832314,
            0.01738775335252285,
            -0.08571920543909073,
            -0.019293710589408875,
            -0.09978826344013214,
            -0.07522306591272354,
            -0.2086428850889206,
            0.11568893492221832,
            -0.05797555670142174,
            0.1297948658466339,
            -0.16210918128490448,
            0.14601026475429535,
            0.12599246203899384,
            0.29740825295448303,
            -0.2855038046836853
        ],
        [
            0.20839042961597443,
            -0.4553898572921753,
            0.10324139893054962,
            -0.4214588701725006,
            0.02045637182891369,
            -0.34294408559799194,
            0.08716603368520737,
            0.20568424463272095,
            -0.003224776592105627,
            0.022066960111260414,
            0.02660353295505047,
            0.006332589313387871,
            0.06446141749620438,
            0.11153140664100647,
            0.2094004601240158,
            -0.004721499513834715,
            -0.24465467035770416
        ],
        [
            -0.1746910661458969,
            0.2546032667160034,
            -0.18109604716300964,
            0.7162164449691772,
            -0.20278938114643097,
            0.06956911832094193,
            0.2672554552555084,
            0.3647744655609131,
            -0.061095431447029114,
            -0.09860286116600037,
            0.31890958547592163,
            -0.29660940170288086,
            -0.11007232964038849,
            0.12684877216815948,
            -0.060394037514925,
            -0.33035707473754883,
            -0.2676067054271698
        ],
        [
            0.22185681760311127,
            -0.16865108907222748,
            -0.232162207365036,
            0.18190598487854004,
            -0.22761741280555725,
            -0.0890604704618454,
            0.18124741315841675,
            0.21287746727466583,
            -0.21664325892925262,
            0.18738940358161926,
            0.06016300246119499,
            -0.20558245480060577,
            -0.2062557488679886,
            0.302616685628891,
            0.20020835101604462,
            -0.19632507860660553,
            -0.20954053103923798
        ],
        [
            0.11120260506868362,
            -0.0559312105178833,
            -0.06326354295015335,
            0.06644575297832489,
            -0.09376856684684753,
            -0.16597025096416473,
            -0.2309679388999939,
            0.043149858713150024,
            -0.1290367841720581,
            -0.10607706755399704,
            0.19778679311275482,
            -0.09045585244894028,
            -0.17754743993282318,
            -0.04750851169228554,
            0.16555719077587128,
            -0.0931098684668541,
            0.23432239890098572
        ],
        [
            0.20325994491577148,
            -0.038347769528627396,
            -0.3451080918312073,
            0.42605751752853394,
            -0.3822964131832123,
            0.18185825645923615,
            0.3130476474761963,
            0.03764611855149269,
            -0.2549099326133728,
            -0.26947617530822754,
            0.42839133739471436,
            -0.5231679081916809,
            -0.15844108164310455,
            0.2515978217124939,
            0.22523310780525208,
            -0.0791906863451004,
            -0.2244974970817566
        ],
        [
            0.2839784622192383,
            -0.2994382679462433,
            -0.14831964671611786,
            -0.13597668707370758,
            -0.3565205931663513,
            -0.1205172911286354,
            -0.056081224232912064,
            0.03979366645216942,
            -0.4415763020515442,
            0.054079338908195496,
            0.138372004032135,
            -0.03702356293797493,
            -0.27490943670272827,
            0.526743471622467,
            0.265865683555603,
            0.09217865765094757,
            -0.3541925549507141
        ],
        [
            0.29757073521614075,
            -0.21956485509872437,
            -0.018945273011922836,
            -0.205239400267601,
            -0.09919941425323486,
            -0.10879157483577728,
            -0.07756206393241882,
            0.33859583735466003,
            -0.12680532038211823,
            0.1476750373840332,
            -0.16960912942886353,
            -0.11261539161205292,
            -0.12257083505392075,
            -0.02922857739031315,
            0.1676192432641983,
            -0.014947671443223953,
            -0.19893470406532288
        ],
        [
            0.16768506169319153,
            -0.1180979311466217,
            -0.3561439514160156,
            0.6837642192840576,
            -0.2829631268978119,
            0.7259427309036255,
            -0.14305195212364197,
            -0.12883879244327545,
            -0.5015390515327454,
            -0.5148401856422424,
            0.18931134045124054,
            -0.1106940507888794,
            0.32330840826034546,
            0.3763381838798523,
            0.08020132780075073,
            0.19661222398281097,
            0.002739174058660865
        ],
        [
            -0.052453912794589996,
            0.5407880544662476,
            -0.5656826496124268,
            0.2437569797039032,
            -0.22976350784301758,
            0.6022852659225464,
            0.017371857538819313,
            -0.3023427426815033,
            0.001751856878399849,
            -0.5642216205596924,
            0.1728733479976654,
            -0.21080361306667328,
            0.33417725563049316,
            -0.01472535915672779,
            -0.21210411190986633,
            0.28493019938468933,
            -0.15011845529079437
        ],
        [
            0.2944827675819397,
            0.26743268966674805,
            -0.9230128526687622,
            0.9789519906044006,
            -0.633522093296051,
            0.5599908232688904,
            0.20889082551002502,
            -0.1863737553358078,
            -0.30643436312675476,
            -0.6660544872283936,
            0.9890893697738647,
            -0.5926045179367065,
            -0.042189911007881165,
            0.5194013714790344,
            0.19301041960716248,
            -0.4488521218299866,
            -0.019625134766101837
        ],
        [
            0.20637954771518707,
            -0.3396112322807312,
            0.42745670676231384,
            -0.25197577476501465,
            0.1771634966135025,
            0.2177506983280182,
            0.08504577726125717,
            -0.24833650887012482,
            -0.25784096121788025,
            -0.14298203587532043,
            -0.26009225845336914,
            0.2229553759098053,
            0.21077704429626465,
            0.10917815566062927,
            -0.061680059880018234,
            0.2015187293291092,
            0.016685115173459053
        ],
        [
            0.15045686066150665,
            -0.23530511558055878,
            -0.3588428497314453,
            -0.03881416469812393,
            -0.3554501235485077,
            -0.07399426400661469,
            -0.11245114356279373,
            -0.008288784883916378,
            -0.24526235461235046,
            -0.06943832337856293,
            0.288531631231308,
            -0.21037054061889648,
            -0.1429651528596878,
            0.3693482279777527,
            0.23314335942268372,
            0.06821365654468536,
            -0.35058292746543884
        ],
        [
            0.20522348582744598,
            0.028015313670039177,
            -0.3666868209838867,
            0.3938642740249634,
            -0.2595613896846771,
            -0.26589205861091614,
            0.43632447719573975,
            0.5130828022956848,
            -0.09431575983762741,
            -0.18872447311878204,
            0.3959280252456665,
            -0.5048182606697083,
            -0.28263232111930847,
            0.24540309607982635,
            0.10546257346868515,
            -0.1615833193063736,
            -0.2594578266143799
        ],
        [
            -0.11318299174308777,
            0.15820182859897614,
            -0.08096747100353241,
            0.22056035697460175,
            -0.001452119555324316,
            0.05607588216662407,
            0.06847461313009262,
            -0.13342076539993286,
            -0.046992748975753784,
            -0.20691177248954773,
            0.0982348620891571,
            -0.0444440133869648,
            -0.013167766854166985,
            0.09594275057315826,
            -0.009433504194021225,
            0.0805029571056366,
            -0.28384265303611755
        ],
        [
            0.20646540820598602,
            -0.5059407353401184,
            0.48519372940063477,
            -0.9990173578262329,
            0.12648968398571014,
            -1.5293850898742676,
            -0.12891030311584473,
            0.7006610035896301,
            0.1552814245223999,
            1.0811673402786255,
            -0.6025550365447998,
            0.2613656222820282,
            -0.3045491576194763,
            -0.08676426857709885,
            0.15444070100784302,
            0.28191739320755005,
            0.12324068695306778
        ],
        [
            0.12695282697677612,
            -0.25062769651412964,
            0.051241736859083176,
            -0.12028247117996216,
            -0.0037147582042962313,
            -0.038046471774578094,
            0.054143622517585754,
            0.07409946620464325,
            0.011844242922961712,
            0.005589403677731752,
            -0.09348619729280472,
            0.08811023831367493,
            -0.008062967099249363,
            -0.03252829238772392,
            0.04502451792359352,
            0.08700215071439743,
            -0.412064790725708
        ],
        [
            0.04806661605834961,
            -0.042947426438331604,
            -0.03589806333184242,
            0.2577601969242096,
            -0.09840763360261917,
            -0.007086082361638546,
            0.27438604831695557,
            -0.01868722215294838,
            -0.0844888687133789,
            0.024230141192674637,
            0.2261500507593155,
            -0.21698392927646637,
            -0.15491746366024017,
            0.13879987597465515,
            0.06758656352758408,
            -0.28156551718711853,
            0.03676588460803032
        ],
        [
            0.17427772283554077,
            -0.1099081039428711,
            -0.29557889699935913,
            0.07063007354736328,
            -0.2714800238609314,
            0.009547913447022438,
            0.003060408402234316,
            0.031324077397584915,
            -0.17028646171092987,
            0.04282684624195099,
            0.18657837808132172,
            -0.2895102798938751,
            -0.16563792526721954,
            0.13763758540153503,
            0.1297253668308258,
            -0.07254492491483688,
            -0.4115891754627228
        ],
        [
            0.1710987240076065,
            -0.2582107186317444,
            0.06819815933704376,
            -0.1508072167634964,
            -0.11547119915485382,
            -0.10168777406215668,
            -0.11054160445928574,
            -0.025004025548696518,
            -0.1339440643787384,
            -0.07761292159557343,
            0.10365840047597885,
            -0.11795386672019958,
            -0.16200865805149078,
            0.10756063461303711,
            0.1964615285396576,
            -0.06052020564675331,
            -0.4952538013458252
        ],
        [
            0.2701365053653717,
            -0.3526917099952698,
            -0.15504959225654602,
            0.2128269523382187,
            -0.16635870933532715,
            -0.07052955031394958,
            0.11271844804286957,
            0.03748937323689461,
            -0.29256829619407654,
            0.03727072477340698,
            0.2982533872127533,
            -0.11075054109096527,
            -0.16060908138751984,
            0.20626315474510193,
            0.2012432962656021,
            -0.0740426778793335,
            -0.584671139717102
        ],
        [
            -0.1185242161154747,
            0.2980743944644928,
            -0.06062845140695572,
            0.2755110561847687,
            -0.23810671269893646,
            0.18548482656478882,
            -0.3186051547527313,
            -0.40798887610435486,
            0.059787068516016006,
            -0.38971883058547974,
            0.42775285243988037,
            -0.2747127115726471,
            0.030147027224302292,
            0.06778880953788757,
            0.007271189242601395,
            0.17557884752750397,
            0.04917491227388382
        ],
        [
            0.10492268949747086,
            -0.00103280832991004,
            0.17546427249908447,
            0.34503915905952454,
            -0.030842985957860947,
            -0.14743268489837646,
            -0.07581416517496109,
            0.2022826373577118,
            0.06958741694688797,
            -0.03554101660847664,
            0.1777455061674118,
            -0.022750847041606903,
            -0.03290308639407158,
            0.29924458265304565,
            -0.24431337416172028,
            -0.26515886187553406,
            -0.0819762796163559
        ],
        [
            0.09705634415149689,
            -0.15290990471839905,
            -0.020861608907580376,
            -0.0800161361694336,
            -0.1617732048034668,
            -0.018746133893728256,
            0.06761368364095688,
            0.08376435935497284,
            -0.1855807900428772,
            -0.023680156096816063,
            0.06939676403999329,
            -0.06090401113033295,
            -0.07564926147460938,
            0.20189471542835236,
            0.19199934601783752,
            0.12428810447454453,
            0.08931618183851242
        ],
        [
            0.06166718155145645,
            0.07928676903247833,
            -0.8839741945266724,
            0.49049410223960876,
            -0.38760629296302795,
            0.3930666446685791,
            0.354753315448761,
            0.020441072061657906,
            -0.20032350718975067,
            -0.48364508152008057,
            0.5442196130752563,
            -0.451810747385025,
            -0.053524840623140335,
            0.06969181448221207,
            0.47141870856285095,
            0.09293833374977112,
            -0.06592496484518051
        ],
        [
            0.29048463702201843,
            -0.16407662630081177,
            -0.10673300176858902,
            -0.2501294016838074,
            -0.17492569983005524,
            -0.2723526358604431,
            0.11490054428577423,
            0.17099256813526154,
            -0.2004767507314682,
            0.10374118387699127,
            0.1405584067106247,
            -0.12537768483161926,
            -0.24259862303733826,
            0.13308413326740265,
            0.19190914928913116,
            0.14679282903671265,
            -0.06789375096559525
        ],
        [
            0.0204947367310524,
            -0.058372899889945984,
            -0.03373447433114052,
            -0.12755635380744934,
            0.010285837575793266,
            0.0547722727060318,
            0.04258910194039345,
            -0.11007645726203918,
            0.007664797827601433,
            -0.04244670644402504,
            0.08910620212554932,
            -0.0989629477262497,
            0.031021131202578545,
            -0.057558298110961914,
            0.11817186325788498,
            -0.02145577222108841,
            -0.31656336784362793
        ],
        [
            0.0037837387062609196,
            0.09678448736667633,
            -0.18584246933460236,
            0.31529757380485535,
            -0.3359740972518921,
            -0.1377498358488083,
            -0.21394377946853638,
            -0.09758446365594864,
            0.02299412153661251,
            -0.09351319819688797,
            0.25752490758895874,
            -0.49485644698143005,
            -0.15567685663700104,
            0.03794458881020546,
            0.17589989304542542,
            0.0836944505572319,
            0.12210864573717117
        ],
        [
            0.0017681727185845375,
            -0.07603932172060013,
            0.5347573161125183,
            -0.07161066681146622,
            0.5539345145225525,
            -0.3812181353569031,
            -0.3669672906398773,
            0.2820739448070526,
            0.5127226710319519,
            0.2604270279407501,
            -0.24432724714279175,
            0.2913918197154999,
            -0.3390749990940094,
            -0.01290209125727415,
            -0.3882739245891571,
            -0.3002004623413086,
            -0.041215214878320694
        ],
        [
            -0.2402460277080536,
            0.15169456601142883,
            -0.19037052989006042,
            -0.03032105602324009,
            0.11236582696437836,
            0.2262684404850006,
            0.025079168379306793,
            -0.21115893125534058,
            -0.03704169765114784,
            -0.02932145446538925,
            -0.1126168742775917,
            0.006559109780937433,
            0.08843895047903061,
            -0.07866623252630234,
            0.14633126556873322,
            -0.03550371155142784,
            -0.14875896275043488
        ],
        [
            0.114931121468544,
            -0.05438116937875748,
            0.16956643760204315,
            0.057559046894311905,
            -0.2995854914188385,
            -0.7264838814735413,
            0.562522292137146,
            0.22814731299877167,
            0.0198556799441576,
            0.22331908345222473,
            0.10015897452831268,
            -0.37948983907699585,
            -0.5314062237739563,
            0.22795076668262482,
            0.15490370988845825,
            -0.1366620659828186,
            -0.2771196663379669
        ],
        [
            0.25740349292755127,
            -0.4007416069507599,
            0.12334790080785751,
            -0.6349658966064453,
            -0.2316059023141861,
            -0.8794317245483398,
            0.160129114985466,
            0.9664347171783447,
            0.043048109859228134,
            0.6874009370803833,
            -0.1450662910938263,
            -0.30809399485588074,
            -0.7500792145729065,
            0.009658672846853733,
            0.5924258232116699,
            -0.4017147719860077,
            -0.21529677510261536
        ],
        [
            0.027114979922771454,
            0.13611049950122833,
            -0.3299892842769623,
            -0.06928125023841858,
            -0.01664559729397297,
            0.06011057645082474,
            0.08872408419847488,
            0.0586513876914978,
            -0.11789894104003906,
            0.01935543492436409,
            -0.07705116271972656,
            -0.2563173472881317,
            -0.32308337092399597,
            -0.10128112882375717,
            0.10744226723909378,
            -0.0148280318826437,
            -0.2691684067249298
        ],
        [
            0.19056329131126404,
            -0.10840726643800735,
            0.13116158545017242,
            -0.3664332330226898,
            0.13318923115730286,
            -0.16342855989933014,
            -0.44635921716690063,
            -0.4127880930900574,
            -0.030349817126989365,
            -0.34636855125427246,
            0.1243213340640068,
            0.007868815213441849,
            0.19152222573757172,
            -0.01880963332951069,
            0.1467943638563156,
            0.3669922947883606,
            0.15253809094429016
        ],
        [
            0.3474215567111969,
            0.2916514277458191,
            -0.18010134994983673,
            0.16226156055927277,
            -0.17672114074230194,
            0.279946893453598,
            -0.4554823935031891,
            0.1036890298128128,
            -0.2131737321615219,
            -0.4194428324699402,
            0.20304661989212036,
            -0.34777283668518066,
            -0.19333964586257935,
            0.17513716220855713,
            0.03344166278839111,
            0.5279579162597656,
            -0.3292306959629059
        ],
        [
            0.2871760427951813,
            -0.23069018125534058,
            -0.11554840952157974,
            0.017215007916092873,
            -0.26493170857429504,
            0.035721056163311005,
            -0.0108973179012537,
            0.06117295101284981,
            -0.18915338814258575,
            -0.20047272741794586,
            0.07293818891048431,
            -0.07133523374795914,
            -0.053380608558654785,
            0.13615840673446655,
            0.21859578788280487,
            -0.08246176689863205,
            -0.2656882405281067
        ],
        [
            0.7583582997322083,
            -0.5856215357780457,
            -0.27859625220298767,
            -0.3028724789619446,
            -0.4192084074020386,
            -0.2749798595905304,
            0.0816253274679184,
            0.17931291460990906,
            -0.641318142414093,
            0.2170732170343399,
            0.12042072415351868,
            -0.09413124620914459,
            -0.18772177398204803,
            0.6202893257141113,
            0.45647677779197693,
            -0.07898028194904327,
            -0.31624096632003784
        ],
        [
            -0.1444796472787857,
            -0.00674873311072588,
            -0.3209300637245178,
            0.8427050709724426,
            -0.4342479109764099,
            0.10337624698877335,
            0.269204705953598,
            -0.010905137285590172,
            -0.18605421483516693,
            -0.06774844229221344,
            0.5929543375968933,
            -0.41393256187438965,
            0.11504658311605453,
            0.0730057880282402,
            0.25187957286834717,
            -0.04414312541484833,
            -0.28883352875709534
        ],
        [
            0.08947426080703735,
            -0.06889644265174866,
            -0.27651074528694153,
            0.20268526673316956,
            -0.17635631561279297,
            0.10238927602767944,
            0.1278454065322876,
            0.011868488043546677,
            -0.2859739065170288,
            -0.20987065136432648,
            0.2142709195613861,
            -0.2636064291000366,
            -0.05254421383142471,
            0.42831453680992126,
            0.24449020624160767,
            0.2118028998374939,
            -0.014308820478618145
        ],
        [
            0.08118115365505219,
            -0.08305460214614868,
            -0.07904188334941864,
            0.08850406855344772,
            -0.0969582051038742,
            -0.04914684221148491,
            -0.005798208527266979,
            -0.11685682833194733,
            -0.05755805969238281,
            0.09320111572742462,
            -0.0023015853948891163,
            -0.15949879586696625,
            -0.22985325753688812,
            0.04634012281894684,
            0.31802791357040405,
            -0.5614134669303894,
            -0.46789607405662537
        ],
        [
            -0.3954179883003235,
            -0.11502022296190262,
            0.5226880311965942,
            -0.5112105011940002,
            0.32254651188850403,
            -0.2504953145980835,
            0.02526927925646305,
            -0.03209526464343071,
            0.487501323223114,
            0.5131140351295471,
            -0.49794909358024597,
            0.08798130601644516,
            0.21917112171649933,
            -0.6262717843055725,
            -0.1295730620622635,
            -0.12381010502576828,
            0.045997101813554764
        ],
        [
            -0.11188462376594543,
            -0.15380865335464478,
            0.6950832009315491,
            -0.16295300424098969,
            0.22689054906368256,
            -0.2620621919631958,
            -0.3479700982570648,
            0.44435545802116394,
            0.25641003251075745,
            0.3031342029571533,
            -0.46117696166038513,
            0.3311828374862671,
            -0.18982747197151184,
            -0.0847792997956276,
            -0.2154468446969986,
            -0.04561677575111389,
            0.5542560815811157
        ],
        [
            0.2591434121131897,
            -0.30328425765037537,
            -0.3307241201400757,
            0.09992770105600357,
            -0.3527640104293823,
            -0.2601107954978943,
            -0.05741201713681221,
            0.2500019073486328,
            -0.30570220947265625,
            -0.054939836263656616,
            0.35725170373916626,
            -0.33092594146728516,
            -0.37317952513694763,
            0.389390230178833,
            0.24969778954982758,
            0.08799507468938828,
            -0.31537604331970215
        ],
        [
            0.21767716109752655,
            -0.16377441585063934,
            0.25867000222206116,
            0.0713949128985405,
            0.01612672582268715,
            -0.15128383040428162,
            -0.3491325378417969,
            0.3992794454097748,
            0.13239136338233948,
            -0.0557592399418354,
            0.37629416584968567,
            -0.3702945113182068,
            -0.10362577438354492,
            0.4907815754413605,
            -0.4443504512310028,
            -0.22089524567127228,
            0.20914898812770844
        ],
        [
            0.5129519104957581,
            -1.0230357646942139,
            0.35933902859687805,
            -0.76071697473526,
            -0.026287676766514778,
            -0.18791168928146362,
            0.06172947213053703,
            0.09859126806259155,
            -0.26099708676338196,
            0.5873567461967468,
            -0.5161705613136292,
            0.15845632553100586,
            -0.21498742699623108,
            0.14090125262737274,
            0.2329230010509491,
            -0.3001340925693512,
            -0.3474733233451843
        ],
        [
            0.27253273129463196,
            -0.5065550208091736,
            0.4271366000175476,
            -0.17982815206050873,
            -0.10542278736829758,
            -0.7099360823631287,
            -0.05794668570160866,
            0.3107404410839081,
            -0.039148107171058655,
            0.7025808095932007,
            -0.2078283429145813,
            0.11874081939458847,
            -0.7099520564079285,
            0.13252319395542145,
            0.2982442080974579,
            0.10357072949409485,
            0.04579035937786102
        ],
        [
            0.22285126149654388,
            -0.11477977782487869,
            -0.31675776839256287,
            0.08859647810459137,
            -0.2581448554992676,
            -0.14119262993335724,
            0.08436457812786102,
            0.0663854256272316,
            -0.2894141972064972,
            -0.01559483166784048,
            0.23504638671875,
            -0.25409871339797974,
            -0.20244283974170685,
            0.17823860049247742,
            0.3226219713687897,
            -0.07410937547683716,
            -0.4778654873371124
        ],
        [
            0.2554178833961487,
            -0.10474848002195358,
            -0.17804346978664398,
            0.4606829881668091,
            -0.15603940188884735,
            0.400435209274292,
            0.013035214506089687,
            -0.11997979879379272,
            -0.2562958002090454,
            -0.5089969635009766,
            0.08215759694576263,
            -0.0023716744035482407,
            0.07942692190408707,
            0.07862196117639542,
            0.12331289052963257,
            0.4142109453678131,
            0.0900048315525055
        ],
        [
            0.11861658841371536,
            -0.07905009388923645,
            -0.06362694501876831,
            0.3209964632987976,
            -0.19476467370986938,
            -0.21971337497234344,
            0.05854510888457298,
            0.21380099654197693,
            -0.1546875387430191,
            -0.07704045623540878,
            0.023258443921804428,
            -0.1503968983888626,
            -0.18836553394794464,
            0.07177802920341492,
            0.059982988983392715,
            -0.0386088527739048,
            0.1772180199623108
        ],
        [
            0.2111232727766037,
            -0.06475583463907242,
            -0.12223365157842636,
            -0.04502999037504196,
            -0.08123767375946045,
            -0.09285542368888855,
            -0.26823654770851135,
            0.1360773891210556,
            -0.22604399919509888,
            -0.01479329913854599,
            0.06602972745895386,
            -0.1385023146867752,
            -0.12136488407850266,
            0.18411609530448914,
            0.07073774188756943,
            0.01647854410111904,
            0.17469653487205505
        ],
        [
            0.11973872035741806,
            -0.28244245052337646,
            0.10623852163553238,
            0.6725179553031921,
            -0.07881243526935577,
            -0.22072146832942963,
            -0.09917834401130676,
            -0.3255401849746704,
            -0.26864007115364075,
            0.2808750569820404,
            0.25401830673217773,
            -0.07684996724128723,
            -0.3680441975593567,
            0.17084217071533203,
            0.305038183927536,
            -0.0312118548899889,
            -0.06773868948221207
        ],
        [
            0.22228015959262848,
            -0.31202006340026855,
            0.0978209599852562,
            -0.46705976128578186,
            -0.011756902560591698,
            -1.0620062351226807,
            -0.5066165924072266,
            0.8181226253509521,
            0.08409381657838821,
            0.532507598400116,
            -0.1591637283563614,
            -0.05748336389660835,
            -0.5541519522666931,
            0.20912206172943115,
            0.2083406299352646,
            -0.22206337749958038,
            -0.3335968255996704
        ],
        [
            0.05679946392774582,
            -0.48194560408592224,
            0.2063004970550537,
            -0.07472404837608337,
            0.01398356445133686,
            -1.2441097497940063,
            0.7271592020988464,
            1.0955291986465454,
            0.10394072532653809,
            0.9782693386077881,
            -0.23314371705055237,
            -0.04976832866668701,
            -1.151840090751648,
            -0.06000952795147896,
            0.3228326737880707,
            -0.43324151635169983,
            -0.1756228655576706
        ],
        [
            0.307547390460968,
            -0.4434533417224884,
            -0.27169016003608704,
            0.29497015476226807,
            -0.32623302936553955,
            0.3446371853351593,
            0.5247730612754822,
            -0.23062248528003693,
            -0.6841466426849365,
            -0.4782562851905823,
            0.4100952446460724,
            -0.24121282994747162,
            0.280277818441391,
            0.5043809413909912,
            0.24645847082138062,
            0.00956703070551157,
            -0.06550291180610657
        ],
        [
            -0.27304863929748535,
            0.6475692987442017,
            -0.2966090738773346,
            0.226179301738739,
            0.1878880262374878,
            0.6146465539932251,
            -0.012881102971732616,
            -0.5611530542373657,
            -0.12303434312343597,
            -0.4125267267227173,
            0.1720404326915741,
            0.25953131914138794,
            0.425150066614151,
            -0.2008616328239441,
            -0.18694116175174713,
            0.39816540479660034,
            0.039877358824014664
        ],
        [
            0.16559149324893951,
            -0.1981903463602066,
            -0.10388188064098358,
            0.028793010860681534,
            -0.15595629811286926,
            -0.010789570398628712,
            -0.15422691404819489,
            -0.06305885314941406,
            -0.05692853406071663,
            0.09237666428089142,
            0.09656916558742523,
            -0.24810601770877838,
            -0.13313250243663788,
            0.09408139437437057,
            0.16172605752944946,
            0.08670574426651001,
            -0.19675682485103607
        ],
        [
            -0.03783002495765686,
            0.1687312126159668,
            -0.007733698934316635,
            -0.022771023213863373,
            -0.05189061909914017,
            -0.07594119012355804,
            -0.28348809480667114,
            0.013153281062841415,
            0.1596280187368393,
            0.06970486789941788,
            -0.279051810503006,
            -0.08435307443141937,
            -0.18535234034061432,
            -0.038010355085134506,
            -0.15193958580493927,
            0.23253102600574493,
            0.03335781395435333
        ],
        [
            0.2649478316307068,
            -0.30656692385673523,
            -0.4257258474826813,
            -0.1706397384405136,
            -0.4940503239631653,
            -0.0756334662437439,
            0.2950038015842438,
            0.12929221987724304,
            -0.19602440297603607,
            0.17191728949546814,
            0.13009019196033478,
            -0.2982727885246277,
            -0.3206295371055603,
            0.25070351362228394,
            0.19717124104499817,
            -0.19495511054992676,
            -0.3931867778301239
        ],
        [
            0.09396465122699738,
            -0.07914263755083084,
            0.12086264789104462,
            -0.2511498034000397,
            0.235075443983078,
            0.206564262509346,
            -0.1909715235233307,
            -0.1619294434785843,
            -0.06341957300901413,
            -0.015162362717092037,
            -0.4552095830440521,
            0.12603479623794556,
            0.35167282819747925,
            0.06461384892463684,
            -0.2107645869255066,
            -0.03093758225440979,
            0.08626776188611984
        ],
        [
            0.26389333605766296,
            -0.012230731546878815,
            -0.1079280897974968,
            -0.11029209196567535,
            -0.18818798661231995,
            -0.14868462085723877,
            -0.44879961013793945,
            0.2337656170129776,
            -0.026855168864130974,
            0.13487233221530914,
            0.18522104620933533,
            -0.4043880105018616,
            -0.27895233035087585,
            0.13935557007789612,
            0.2419649362564087,
            0.005383885465562344,
            -0.22116543352603912
        ],
        [
            0.12785197794437408,
            -0.07692724466323853,
            0.24236124753952026,
            0.021459994837641716,
            0.037795327603816986,
            -0.11178429424762726,
            -0.3004504144191742,
            -0.013091477565467358,
            -0.0196007639169693,
            0.12426324933767319,
            -0.06733936071395874,
            0.058889687061309814,
            0.13828158378601074,
            0.05191592499613762,
            -0.126847505569458,
            0.22866910696029663,
            -0.20404794812202454
        ],
        [
            0.2865303158760071,
            -0.4549485743045807,
            -0.12215688824653625,
            0.10748745501041412,
            -0.36015862226486206,
            -0.13001644611358643,
            -0.028116697445511818,
            0.04084446653723717,
            -0.3657483756542206,
            -0.26404714584350586,
            0.24017761647701263,
            -0.1280187964439392,
            -0.22104071080684662,
            0.4637996256351471,
            0.23187515139579773,
            -0.13490068912506104,
            -0.5001266002655029
        ],
        [
            -0.09328398108482361,
            0.05912098288536072,
            0.10333584994077682,
            0.44788816571235657,
            0.07706214487552643,
            -0.039772678166627884,
            -0.23306824266910553,
            0.0835617259144783,
            0.10485606640577316,
            0.24254541099071503,
            -0.18458466231822968,
            0.0817524716258049,
            -0.20370899140834808,
            0.21000798046588898,
            -0.21009400486946106,
            -0.4390271306037903,
            0.0675705224275589
        ],
        [
            0.3697936534881592,
            -0.4041179120540619,
            -0.12267617881298065,
            -0.16563259065151215,
            -0.3261984586715698,
            -0.16642996668815613,
            0.06444744765758514,
            0.10614411532878876,
            -0.3691321909427643,
            0.025670403614640236,
            0.08785610646009445,
            -0.28179529309272766,
            -0.3287925124168396,
            0.3696227967739105,
            0.3755914270877838,
            -0.029614761471748352,
            -0.2492813616991043
        ],
        [
            0.39522185921669006,
            -0.10590056329965591,
            -0.2662656903266907,
            -0.6969494223594666,
            -0.20458397269248962,
            -0.6446935534477234,
            0.11749237030744553,
            1.1617218255996704,
            0.2421215921640396,
            0.8100787997245789,
            -0.6473867297172546,
            -0.3715459704399109,
            -0.7302317023277283,
            0.056103404611349106,
            0.2391374111175537,
            -0.4031085968017578,
            -0.1458265632390976
        ],
        [
            0.14436310529708862,
            -0.18509851396083832,
            -0.22540737688541412,
            0.3246273994445801,
            -0.34509965777397156,
            -0.010138372890651226,
            0.05637916177511215,
            0.08826944977045059,
            -0.30726489424705505,
            -0.13864350318908691,
            0.19986848533153534,
            -0.16941533982753754,
            -0.12026859074831009,
            0.5045810341835022,
            0.0700967088341713,
            -0.2170916199684143,
            -0.25558188557624817
        ],
        [
            0.5861865878105164,
            -0.2552369236946106,
            0.1298479437828064,
            -0.5289031863212585,
            -0.19223645329475403,
            -0.40194541215896606,
            -0.391746461391449,
            -0.051175568252801895,
            -0.15802332758903503,
            -0.04151875525712967,
            0.2754771113395691,
            -0.33710458874702454,
            -0.3333825469017029,
            0.0979423001408577,
            0.321110337972641,
            0.0947483703494072,
            0.009422608651220798
        ],
        [
            0.03817268833518028,
            -0.42146527767181396,
            0.609214186668396,
            -0.04978432506322861,
            0.21845701336860657,
            -0.47034698724746704,
            -0.11020109057426453,
            0.01001940481364727,
            -0.17189855873584747,
            0.7063087821006775,
            -0.5278939604759216,
            0.3954862952232361,
            -0.24284201860427856,
            -0.3519666790962219,
            0.08658561110496521,
            -0.4091084599494934,
            0.05286339670419693
        ],
        [
            0.009169606491923332,
            -0.09152523428201675,
            -0.060249973088502884,
            0.1998751163482666,
            -0.04826473072171211,
            0.06798650324344635,
            -0.15341493487358093,
            -0.08412829041481018,
            -0.06452890485525131,
            -0.02659222111105919,
            0.029269274324178696,
            0.05913437157869339,
            -0.025493748486042023,
            0.19995877146720886,
            0.04332873597741127,
            -0.19379067420959473,
            -0.41950103640556335
        ],
        [
            0.2984777092933655,
            0.07170635461807251,
            -0.15433081984519958,
            -0.07886288315057755,
            -0.0809699222445488,
            0.006099692080169916,
            0.1566483974456787,
            -0.019671637564897537,
            -0.07263950258493423,
            -0.08140852302312851,
            0.16364304721355438,
            -0.28111183643341064,
            -0.04066232219338417,
            0.2585253119468689,
            0.11512912064790726,
            -0.07570071518421173,
            0.3322753608226776
        ],
        [
            0.4428941309452057,
            -0.5232309103012085,
            -0.047868113964796066,
            -0.5345875024795532,
            -0.22621361911296844,
            -0.2621819078922272,
            0.14020967483520508,
            0.6215765476226807,
            -0.22658376395702362,
            0.43573346734046936,
            -0.14691638946533203,
            -0.025868866592645645,
            -0.31536662578582764,
            0.3257867395877838,
            0.20126689970493317,
            -0.41071733832359314,
            -0.47612711787223816
        ],
        [
            -0.10037636011838913,
            -0.29605183005332947,
            -0.004687149077653885,
            -0.1534125953912735,
            -0.07737784832715988,
            -0.40928059816360474,
            0.5828352570533752,
            0.6650903224945068,
            -0.029126133769750595,
            0.8427610993385315,
            -0.3307285010814667,
            -0.10468236356973648,
            -0.31242135167121887,
            0.04267113283276558,
            0.2579840123653412,
            -0.8409185409545898,
            0.1201009750366211
        ],
        [
            0.25416168570518494,
            -0.22148534655570984,
            -0.06958947330713272,
            0.08460063487291336,
            -0.23695151507854462,
            -0.44645553827285767,
            0.1180730015039444,
            0.07151113450527191,
            -0.0995323583483696,
            0.06941571831703186,
            0.06896849721670151,
            -0.16817525029182434,
            -0.0928916335105896,
            0.10688205063343048,
            0.06176205351948738,
            -0.004544215742498636,
            -0.340459942817688
        ],
        [
            -0.06832194328308105,
            0.10316555202007294,
            -0.5250829458236694,
            0.7617757320404053,
            -0.19596630334854126,
            0.8083484768867493,
            0.5061478018760681,
            -0.6082005500793457,
            -0.4769716262817383,
            -1.2404779195785522,
            0.5727699995040894,
            -0.2106080949306488,
            0.5662078857421875,
            0.3460722863674164,
            0.21562105417251587,
            0.21281743049621582,
            0.10884543508291245
        ],
        [
            0.16026414930820465,
            -0.20050056278705597,
            0.12448400259017944,
            -0.18611875176429749,
            0.05514165386557579,
            -0.1562844216823578,
            0.07526103407144547,
            0.04166164621710777,
            0.05276861414313316,
            -0.12848541140556335,
            -0.06766348332166672,
            -0.0029232162050902843,
            0.005896833259612322,
            -0.10230879485607147,
            0.2684934735298157,
            0.26069557666778564,
            -0.28917622566223145
        ],
        [
            -0.20878291130065918,
            0.26465630531311035,
            0.06804689019918442,
            0.062190428376197815,
            0.06449712812900543,
            0.10012940317392349,
            -0.06975165754556656,
            -0.3251052498817444,
            0.24069349467754364,
            -0.15915447473526,
            -0.07317236810922623,
            -0.015718866139650345,
            0.06839167326688766,
            -0.36404815316200256,
            -0.11872144788503647,
            -0.01970551908016205,
            0.29925915598869324
        ],
        [
            0.134733647108078,
            -0.12024174630641937,
            -0.16963645815849304,
            -0.016061589121818542,
            -0.07514923065900803,
            0.10678274184465408,
            -0.03216514363884926,
            -0.09418276697397232,
            -0.1529770791530609,
            -0.19061361253261566,
            0.16235189139842987,
            -0.18899787962436676,
            -0.03403492271900177,
            0.1261531263589859,
            0.1459290236234665,
            0.24692080914974213,
            -0.31403347849845886
        ],
        [
            0.950439989566803,
            -0.9720073938369751,
            0.13425734639167786,
            -0.42241811752319336,
            -0.20342795550823212,
            -0.7082748413085938,
            -0.062164049595594406,
            0.4694482386112213,
            -0.11847104132175446,
            0.45032626390457153,
            0.02873774617910385,
            -0.15764406323432922,
            -0.5653316378593445,
            0.582279622554779,
            0.21213875710964203,
            -0.2595295011997223,
            -0.1631080061197281
        ],
        [
            0.15673847496509552,
            -0.1419396698474884,
            -0.14202651381492615,
            -0.05616328865289688,
            -0.17748422920703888,
            -0.393074631690979,
            0.24367393553256989,
            0.22525660693645477,
            -0.17828312516212463,
            0.1205829530954361,
            0.086073137819767,
            -0.1569141298532486,
            -0.3483409285545349,
            0.27906787395477295,
            0.10180496424436569,
            -0.010671434924006462,
            -0.08620202541351318
        ],
        [
            0.141096293926239,
            0.18302877247333527,
            -0.22128784656524658,
            0.23945440351963043,
            -0.1241016685962677,
            0.34547919034957886,
            -0.13336767256259918,
            -0.005036171060055494,
            -0.03265373781323433,
            -0.35177111625671387,
            0.25691691040992737,
            -0.25492510199546814,
            0.10836857557296753,
            0.1697666347026825,
            -0.07624416053295135,
            0.10633359849452972,
            -0.372909277677536
        ],
        [
            0.1899162232875824,
            -0.2783142328262329,
            -0.2195899784564972,
            -0.12450329959392548,
            -0.07664857804775238,
            -0.07288318872451782,
            0.20779429376125336,
            0.0882246121764183,
            -0.2752893269062042,
            0.05178390443325043,
            0.1750791221857071,
            -0.1264684945344925,
            0.022375069558620453,
            0.16658712923526764,
            0.3134453594684601,
            -0.03656382858753204,
            -0.23661117255687714
        ],
        [
            0.4650997221469879,
            -0.7533880472183228,
            0.6959485411643982,
            -0.8057677149772644,
            -0.03420524671673775,
            -1.2593042850494385,
            -0.2236788272857666,
            1.1872004270553589,
            -0.04424121975898743,
            0.4742724895477295,
            -0.7710691690444946,
            0.33700767159461975,
            -0.5990188717842102,
            0.2748557925224304,
            0.165626659989357,
            0.4789915680885315,
            -0.2701720893383026
        ],
        [
            0.17906224727630615,
            -0.23407578468322754,
            -0.18694175779819489,
            -0.25969257950782776,
            -0.14431343972682953,
            -0.2466266006231308,
            0.04587831348180771,
            0.2808224558830261,
            -0.03405274823307991,
            0.26283955574035645,
            0.010127732530236244,
            -0.10496041178703308,
            -0.23384638130664825,
            0.12106449902057648,
            0.20351947844028473,
            -0.12222165614366531,
            -0.41372278332710266
        ],
        [
            -0.18528960645198822,
            0.2514711320400238,
            -0.11883967369794846,
            -0.07671823352575302,
            -0.24073153734207153,
            -0.0890158861875534,
            0.4016211926937103,
            -0.0525471530854702,
            -0.02290586568415165,
            -0.3000730872154236,
            0.2940324544906616,
            0.032247770577669144,
            -0.07244018465280533,
            -0.14289507269859314,
            0.14356540143489838,
            0.3916374742984772,
            -0.3877646028995514
        ],
        [
            -0.06834612041711807,
            -0.0404057539999485,
            -0.016292167827486992,
            0.559177041053772,
            -0.16805504262447357,
            -0.006076880730688572,
            0.254551500082016,
            -0.01911449246108532,
            -0.15542985498905182,
            0.004251367412507534,
            0.3831387758255005,
            -0.21017998456954956,
            0.04617093876004219,
            0.17699222266674042,
            0.12908051908016205,
            -0.24678002297878265,
            -0.05957220122218132
        ],
        [
            0.01970580406486988,
            0.13278180360794067,
            -0.6008898019790649,
            0.2306356281042099,
            -0.31366363167762756,
            0.28451859951019287,
            0.2548711895942688,
            0.05341791734099388,
            -0.206068754196167,
            -0.23478230834007263,
            0.19558139145374298,
            -0.21116505563259125,
            -0.01825268380343914,
            0.22675564885139465,
            0.2544848322868347,
            -0.2984105348587036,
            -0.10097285360097885
        ],
        [
            0.08614379167556763,
            -0.4252220392227173,
            0.11051712185144424,
            0.0671556368470192,
            -0.09784084558486938,
            -0.16758543252944946,
            0.13040179014205933,
            0.11457167565822601,
            -0.2781559228897095,
            0.15000060200691223,
            -0.011329138651490211,
            0.05581539124250412,
            -0.188457652926445,
